%YAML:1.0
---
opencv_ml_ann_mlp:
   format: 3
   layer_sizes: [ 374, 7, 3, 1 ]
   activation_function: SIGMOID_SYM
   f_param1: 6.6666666666666663e-01
   f_param2: 1.7159000000000000e+00
   min_val: -9.4999999999999996e-01
   max_val: 9.4999999999999996e-01
   min_val1: -9.7999999999999998e-01
   max_val1: 9.7999999999999998e-01
   training_params:
      train_method: BACKPROP
      dw_scale: 5.0000000000000003e-02
      moment_scale: 8.0000000000000004e-01
      term_criteria:
         epsilon: 1.0000000000000000e-02
         iterations: 100000
   input_scale:
      - 2.6326927635521801e-04
      - -4.2312339190131187e-01
      - 2.0675034727688887e-04
      - -7.4829479132542920e-01
      - 2.0981705123786619e-04
      - -6.8218738102099052e-01
      - 8.7531429678021000e-05
      - -7.2995342034900557e-01
      - 5.9114120138833686e-05
      - -5.7124156585279684e-01
      - 1.2203274276515404e-04
      - -5.8680535201576822e-01
      - 9.6760922527018374e-05
      - -7.0659588414363650e-01
      - 2.1124053699924156e-04
      - -7.1858213847650887e-01
      - 1.9658056597896280e-04
      - -6.5672295429914507e-01
      - 1.6256181651558516e-04
      - -5.4088045425427478e-01
      - 4.4501704111698414e-04
      - -7.1217868730418343e-01
      - 2.3971685034116308e-04
      - -5.4107972449715569e-01
      - 2.1366179295793404e-04
      - -5.5212573603446968e-01
      - 1.8139575772815723e-04
      - -4.8371166696927959e-01
      - 1.3479944187185037e-04
      - -5.7081771982689533e-01
      - 2.2683896490724751e-04
      - -5.3619675223128083e-01
      - 1.0479976611001494e-04
      - -4.6340565944216211e-01
      - 1.5901830542038335e-04
      - -5.3991560558013607e-01
      - 1.8375805144437400e-04
      - -4.5589224875495959e-01
      - 1.5818217065471091e-04
      - -4.5191595770613074e-01
      - 4.2106864487331558e-04
      - -5.1433065705082004e-01
      - 1.0780159666863485e-03
      - -6.5932665442230376e-01
      - 2.6894686151058346e-04
      - -4.1769292816591208e-01
      - 2.7337402638961283e-04
      - -4.2860058436457754e-01
      - 3.9980870285756916e-04
      - -4.3878415683019617e-01
      - 3.8389659389928793e-04
      - -5.2195581872126362e-01
      - 9.4579829455701081e-04
      - -5.8069511895840409e-01
      - 4.6101996887824989e-04
      - -4.5873649105236652e-01
      - 5.1207206184883045e-04
      - -5.5361487387177366e-01
      - 5.1687588960315728e-04
      - -4.6104531297188145e-01
      - 4.8907001163676607e-04
      - -5.2297572416164029e-01
      - 1.0495522814626766e-03
      - -5.5483398267737416e-01
      - 5.8638358285481454e-04
      - -4.5994589917650469e-01
      - 6.9524230838344421e-04
      - -5.8011780120893641e-01
      - 1.2109806178713493e-03
      - -5.9197481490020520e-01
      - 6.0233170598336324e-04
      - -4.7777252993474978e-01
      - 5.8482652246038007e-04
      - -4.9381450735081273e-01
      - 5.5953935066822380e-04
      - -4.5339348867261303e-01
      - 4.3754611948438921e-04
      - -5.1314188802835459e-01
      - 9.6704633372405961e-04
      - -4.8240108326491210e-01
      - 4.5543735578888419e-04
      - -4.2863528508762622e-01
      - 4.8065228232055401e-04
      - -4.3896588014031207e-01
      - 1.6633705206731764e-03
      - -6.0377086496466092e-01
      - 4.6483737085144028e-04
      - -3.8664567042447068e-01
      - 5.0892184850439442e-04
      - -4.6147235985017038e-01
      - 1.0374710755458099e-03
      - -4.9186763842256426e-01
      - 6.1218517425585465e-04
      - -4.5939821012082754e-01
      - 5.6715459871316504e-04
      - -4.5974833038056806e-01
      - 5.6105645148089368e-04
      - -4.3263223201097173e-01
      - 5.0459953054864961e-04
      - -5.0812346762308835e-01
      - 1.0539896804919733e-03
      - -4.7921878746861762e-01
      - 5.5475955262659720e-04
      - -4.6616546962505878e-01
      - 5.1648618302844659e-04
      - -4.6421513112146695e-01
      - 1.8942978131949193e-03
      - -5.9328422316067386e-01
      - 5.4995383995861866e-04
      - -4.6501616998618467e-01
      - 6.0250393104660537e-04
      - -4.8093949528081514e-01
      - 5.9047827268890571e-04
      - -4.5810132463180009e-01
      - 5.5073997159064134e-04
      - -5.0284170579581033e-01
      - 1.1292157028585750e-03
      - -4.8820777025061485e-01
      - 5.8009611007864292e-04
      - -4.6830558263456146e-01
      - 6.3532624109346374e-04
      - -4.8749156293607593e-01
      - 7.1812276700403349e-04
      - -4.6295559056933772e-01
      - 7.1980161822312379e-04
      - -5.2674161570182909e-01
      - 1.4665202386960014e-03
      - -5.0889341872898408e-01
      - 3.5564405221427766e-03
      - -6.4388335870705204e-01
      - 8.5305306109075669e-04
      - -4.7119535579294458e-01
      - 9.5746184045822792e-04
      - -5.0297046612181984e-01
      - 1.0404224127885571e-03
      - -4.9026155898978713e-01
      - 9.9591721784887590e-04
      - -5.6314505586350427e-01
      - 1.9469261949334642e-03
      - -5.5097310658246434e-01
      - 1.0713832610477635e-03
      - -5.2108492297870079e-01
      - 1.1158518334983584e-03
      - -5.5414090691368023e-01
      - 1.1950869703034825e-03
      - -5.1398160016210137e-01
      - 1.1968457152214287e-03
      - -5.9765867704028042e-01
      - 2.2510206220040102e-03
      - -5.8091514808109601e-01
      - 1.2052655285571545e-03
      - -4.9392268279710239e-01
      - 1.1902951416840812e-03
      - -5.6405591207146144e-01
      - 2.1965240813076182e-03
      - -5.7459733794940182e-01
      - 1.1888252542223451e-03
      - -5.2963062145973760e-01
      - 1.1752455875943650e-03
      - -5.6505627758180255e-01
      - 1.0790158250115621e-03
      - -5.1321444886927337e-01
      - 8.6436971170103928e-04
      - -5.8129535421747280e-01
      - 1.8150137999426487e-03
      - -5.3610880566135100e-01
      - 8.0822156976489946e-04
      - -4.8941081211863668e-01
      - 7.8974814894874630e-04
      - -5.0937921301626987e-01
      - 2.8084337416125239e-03
      - -6.1127122076192208e-01
      - 7.7335912981910018e-04
      - -4.8194063892482697e-01
      - 6.2358579497910269e-04
      - -4.7001306116734703e-01
      - 1.2807480579564256e-03
      - -4.9205481003846890e-01
      - 6.7863117830882307e-04
      - -4.8933239195420403e-01
      - 6.6777370337449328e-04
      - -5.1500236736238891e-01
      - 6.2538213963258778e-04
      - -4.8357525115723904e-01
      - 6.5754685506337900e-04
      - -5.3542756458646545e-01
      - 1.2854349826691203e-03
      - -4.9398979869559773e-01
      - 7.1317526124384700e-04
      - -5.0596464802899443e-01
      - 6.9027674486328940e-04
      - -5.0730188112822716e-01
      - 2.7172720786032630e-03
      - -5.9139783304901539e-01
      - 7.3367409235917155e-04
      - -4.9509024461716084e-01
      - 7.5686061393030887e-04
      - -4.9836574002090545e-01
      - 7.7815121167361054e-04
      - -4.8757289134248183e-01
      - 8.6850040878104755e-04
      - -5.6546323405025001e-01
      - 1.6565133248120055e-03
      - -5.3025233831247764e-01
      - 7.7053200174955405e-04
      - -4.9289690570286243e-01
      - 7.9880517000429166e-04
      - -5.2188100589019992e-01
      - 7.2044015737573303e-04
      - -4.8908929274521940e-01
      - 7.5666163014076265e-04
      - -5.3430386440732958e-01
      - 1.4732640708926650e-03
      - -5.0634242398600371e-01
      - 3.9374517579942956e-03
      - -5.7683256865414878e-01
      - 7.6525267736637969e-04
      - -5.0097887503150940e-01
      - 7.3482500311479698e-04
      - -4.9331163726345706e-01
      - 6.8370869850181563e-04
      - -4.6196460102749892e-01
      - 6.7935668931973345e-04
      - -4.8842118099573312e-01
      - 1.2905172011100240e-03
      - -4.4839105547831848e-01
      - 6.5224333311249510e-04
      - -4.6567281519021458e-01
      - 6.3422138858352812e-04
      - -4.6302542162118882e-01
      - 6.5730213365447856e-04
      - -4.6167546668692327e-01
      - 6.2485119691261029e-04
      - -4.8000555370500497e-01
      - 1.3071028767091370e-03
      - -4.7096734513219457e-01
      - 6.5236687551156194e-04
      - -4.4790014696756353e-01
      - 6.4652844568018498e-04
      - -4.4781079011825986e-01
      - 1.4332781299733043e-03
      - -4.8867230154181529e-01
      - 7.4336215177490700e-04
      - -4.6347422005500621e-01
      - 7.1433228596175311e-04
      - -4.6823270612104850e-01
      - 7.5524341541272858e-04
      - -4.6614002360772866e-01
      - 7.5692364361935915e-04
      - -5.1297288249160866e-01
      - 1.5867666347247243e-03
      - -4.7626725016033877e-01
      - 7.9318989452063413e-04
      - -4.4501958627117866e-01
      - 8.4293939676573150e-04
      - -4.7710545999372977e-01
      - 2.9934498184106800e-03
      - -5.4737387965786521e-01
      - 9.0284195273541350e-04
      - -4.7307870213337139e-01
      - 8.6412735224001484e-04
      - -4.8493765657885313e-01
      - 1.5865384496394346e-03
      - -4.5943457086082901e-01
      - 8.2446484651799927e-04
      - -4.5174069447741066e-01
      - 7.7078953890285281e-04
      - -4.6060285409636914e-01
      - 6.9871127596662171e-04
      - -4.2524879048713743e-01
      - 6.7292323779710175e-04
      - -4.5233690683881006e-01
      - 1.2684057139716487e-03
      - -4.0758790772487713e-01
      - 6.5691634272154885e-04
      - -4.2098126156994298e-01
      - 6.5207872737647313e-04
      - -4.3367156624085273e-01
      - 2.3863990746091019e-03
      - -4.5963281763211461e-01
      - 6.1562014857322327e-04
      - -4.0422923949967587e-01
      - 6.5117503687326945e-04
      - -4.2617916942525863e-01
      - 5.6953107839912320e-04
      - -3.9288579780929273e-01
      - 5.9544265948567880e-04
      - -4.1867367873165295e-01
      - 1.0791520099065195e-03
      - -3.7760874321473142e-01
      - 5.6725873327231522e-04
      - -3.9782894126543378e-01
      - 5.1890933632076216e-04
      - -3.8577969432252424e-01
      - 5.4323258971640390e-04
      - -3.7582550940264065e-01
      - 5.4911731127452114e-04
      - -3.9743420417598602e-01
      - 1.1057233171871536e-03
      - -3.7422149238471736e-01
      - 3.1270727434513312e-03
      - -4.3212994282292477e-01
      - 5.1775928463352510e-04
      - -3.4867986313324578e-01
      - 5.4681493679334609e-04
      - -3.6103903734321241e-01
      - 5.6246807897004122e-04
      - -3.5459368076166620e-01
      - 5.4196113100037535e-04
      - -3.6644367786961679e-01
      - 1.1562789729016023e-03
      - -3.6418706977631471e-01
      - 5.0910454594164380e-04
      - -3.3006458122161675e-01
      - 5.5599695028855532e-04
      - -3.4771722669633615e-01
      - 5.5917708057543229e-04
      - -3.2919061131876010e-01
      - 5.7819983855552748e-04
      - -3.5122364576724557e-01
      - 1.2188106967491480e-03
      - -3.4366414981745175e-01
      - 5.6521695785238704e-04
      - -3.2323349698389775e-01
      - 6.2934502041422902e-04
      - -3.4544773011180979e-01
      - 1.2865903647294736e-03
      - -3.4725079918463930e-01
      - 6.2560494726928751e-04
      - -3.2969918157428790e-01
      - 6.7405144322780206e-04
      - -3.4828458738526191e-01
      - 6.4438036387987811e-04
      - -3.2789804246057552e-01
      - 6.9688274741559406e-04
      - -4.0608855981723491e-01
      - 1.4616653391044069e-03
      - -3.4436048051573631e-01
      - 7.0959104825061626e-04
      - -3.2813280935908701e-01
      - 7.1042604136528653e-04
      - -3.3684338591395790e-01
      - 2.8939413727014579e-03
      - -4.2080071127971719e-01
      - 7.8833370172573210e-04
      - -3.3257038701157599e-01
      - 7.5837056072052271e-04
      - -3.4626007750329091e-01
      - 1.6233457040339852e-03
      - -3.5710797519048337e-01
      - 8.1818622922567668e-04
      - -3.4538761887170533e-01
      - 8.2787541089214328e-04
      - -3.4879628933569101e-01
      - 8.1479341071846875e-04
      - -3.3699596292258360e-01
      - 8.1416306527042385e-04
      - -3.7933647348917032e-01
      - 1.6292207611808187e-03
      - -3.4644564308720383e-01
      - 8.1343213712397071e-04
      - -3.4003994093480944e-01
      - 8.1643489521035864e-04
      - -3.4789746705669178e-01
      - 3.1096755355259917e-03
      - -4.2424291802175934e-01
      - 8.7696415512762845e-04
      - -3.5656798537573026e-01
      - 8.0923404651316272e-04
      - -3.3642191004872635e-01
      - 7.9623586857800592e-04
      - -3.3782853311162014e-01
      - 8.6897212784331425e-04
      - -3.8873035367950576e-01
      - 1.4818694440587173e-03
      - -3.3621198938956348e-01
      - 8.0321314900177283e-04
      - -3.5864511447864006e-01
      - 7.5728857332622238e-04
      - -3.5499260141262667e-01
      - 7.1797032522613971e-04
      - -3.2590526749039445e-01
      - 7.8354365983572310e-04
      - -3.6959465176401574e-01
      - 1.4079105852281453e-03
      - -3.3719769060689575e-01
      - 4.3396503721784370e-03
      - -4.2584746275221669e-01
      - 7.6689071282794207e-04
      - -3.5298010203068997e-01
      - 7.1173303863190452e-04
      - -3.4826988043681878e-01
      - 7.3846469960503610e-04
      - -3.5214195855689906e-01
      - 7.2442444364438955e-04
      - -3.7303838939582251e-01
      - 1.3605366253763981e-03
      - -3.4480474243058729e-01
      - 7.5862663409333978e-04
      - -3.7493928054691605e-01
      - 7.0907802835463497e-04
      - -3.6307058767311035e-01
      - 7.6863376401706328e-04
      - -3.7708562124280809e-01
      - 7.6023641314360772e-04
      - -3.8617600401338315e-01
      - 1.5565834784177866e-03
      - -3.6522265969914686e-01
      - 7.1729787304311045e-04
      - -3.4939051456701314e-01
      - 8.0743462334726052e-04
      - -3.8081837576975336e-01
      - 1.5532289677918293e-03
      - -3.5852541983345704e-01
      - 8.3584766260997071e-04
      - -3.7955760850872122e-01
      - 7.9482965635525665e-04
      - -3.6428351565496392e-01
      - 8.7679037661117704e-04
      - -3.7704357823694939e-01
      - 8.8691348758268508e-04
      - -4.1851876280998057e-01
      - 1.7768298754178053e-03
      - -3.5744726292230794e-01
      - 8.8014580294605354e-04
      - -3.5342288435445396e-01
      - 9.9152320830696652e-04
      - -3.8700495258469453e-01
      - 3.8295546810724265e-03
      - -4.3887790295486506e-01
      - 9.6719115135774150e-04
      - -3.4796548697543067e-01
      - 1.0268545613556395e-03
      - -3.7153419522498249e-01
      - 2.1372164679208726e-03
      - -3.7105144518298305e-01
      - 1.1306696913390721e-03
      - -3.6992509082302638e-01
      - 1.1108175470884696e-03
      - -3.6639531455344959e-01
      - 1.1940867589183130e-03
      - -3.6814953461892153e-01
      - 1.1762965544507898e-03
      - -4.0893962005554835e-01
      - 2.0843171338300183e-03
      - -3.3024328143449638e-01
      - 1.1031371783528381e-03
      - -3.4410541938102907e-01
      - 1.0364260588819341e-03
      - -3.4046235077900905e-01
      - 3.9938755360653614e-03
      - -4.1219215781822838e-01
      - 9.2202791572641946e-04
      - -3.0829310299955165e-01
      - 9.2508708956008082e-04
      - -3.1399307282569539e-01
      - 9.8112368721146176e-04
      - -3.1779056379661103e-01
      - 9.7231970650834729e-04
      - -3.4501253366726836e-01
      - 2.1838112810384550e-03
      - -3.3830846851556157e-01
      - 1.2344254848980953e-03
      - -3.3518750425416083e-01
      - 1.5891129423094674e-03
      - -3.7244737733242700e-01
      - 1.9067099788698831e-03
      - -3.4273964068168344e-01
      - 2.7982337389546278e-03
      - -4.8317739320726427e-01
      - 5.5575316109017971e-03
      - -4.5240591229840998e-01
      - 8.4251236294054718e-03
      - -4.8122674744856436e-01
      - 5.4511583544765907e-03
      - -4.8292618081920791e-01
      - 5.6592002709973744e-03
      - -5.1283825274452788e-01
      - 8.6460059146552578e-03
      - -5.7432203393801717e-01
      - 6.0571029298266557e-03
      - -6.6010538368879523e-01
      - 1.1199988420469749e-02
      - -6.2920557190070403e-01
      - 8.8480074914002501e-03
      - -6.5249484360600329e-01
      - 7.7102463244375389e-03
      - -6.5608073852161608e-01
      - 1.0990800455902120e-02
      - -6.5014910075526311e-01
      - 7.1371991442284967e-03
      - -6.8953596171542675e-01
      - 1.2964053300301915e-02
      - -6.6846445391478981e-01
      - 1.4035837881391238e-02
      - -6.8465363741336582e-01
      - 8.8031939659225650e-03
      - -7.2101776331850709e-01
      - 1.3576079391523107e-02
      - -7.0246360549739340e-01
      - 1.1426718888265549e-02
      - -7.3314592467687523e-01
      - 8.9178460675683070e-03
      - -6.7641872775240763e-01
      - 1.2056333109382162e-02
      - -7.2204754761236878e-01
      - 5.1061292768865398e-03
      - -6.7989824429894996e-01
      - 1.5947963268074603e-02
      - -7.0652402490243293e-01
      - 1.1326666620941816e-02
      - -7.0693573818787181e-01
      - 8.9345678970120020e-03
      - -6.4833805001075850e-01
      - 1.3451916254699646e-02
      - -6.6504218852741526e-01
      - 1.6526495875056200e-02
      - -6.9935242046431512e-01
      - 1.0218931607863370e-02
      - -7.3613795182700359e-01
      - 1.5470782435876487e-02
      - -7.1533959720193008e-01
      - 1.4281643556480473e-02
      - -7.6324724144416201e-01
      - 1.1069560898564968e-02
      - -7.0555664318908817e-01
      - 1.5455720371975706e-02
      - -7.5013533204482419e-01
      - 6.7879552081379036e-03
      - -7.0226022272146649e-01
      - 1.7864160904347549e-02
      - -7.3061805045294193e-01
      - 1.3873592804766847e-02
      - -7.4941559944449065e-01
      - 1.0578583778170969e-02
      - -6.7795164139632569e-01
      - 1.4350077105109641e-02
      - -6.6304552920880988e-01
      - 1.6433039280042982e-02
      - -7.4845874156687986e-01
      - 1.3359285600656638e-02
      - -7.4054239096149799e-01
      - 1.6618176573343083e-02
      - -7.4963332821923556e-01
      - 8.2637202712707442e-03
      - -7.1983104939704012e-01
      - 1.6262573884439975e-02
      - -7.1685591819888150e-01
      - 1.2015094078406237e-02
      - -7.3610932771512738e-01
      - 1.1137285561201015e-02
      - -7.7402453843378227e-01
      - 1.6410276277125907e-02
      - -7.5306479695454898e-01
      - 9.3913410169182577e-03
      - -7.2974666375994124e-01
      - 1.7675876403500750e-02
      - -7.2361516774210632e-01
      - 1.9109670764916036e-02
      - -6.4959791785122112e-01
      - 1.8684913291232591e-02
      - -7.6823322506416081e-01
      - 1.5344978479633113e-02
      - -7.6440402838936705e-01
      - 1.9172404514935248e-02
      - -7.4381317534730618e-01
      - 9.0202737987831304e-03
      - -7.0225983488250876e-01
      - 1.8197540866284397e-02
      - -7.2710097665412465e-01
      - 1.4919488085267310e-02
      - -7.6415006109721684e-01
      - 1.2933979835988294e-02
      - -7.7305529608754142e-01
      - 1.8530060486988218e-02
      - -7.6126195210562175e-01
      - 1.0026259472938689e-02
      - -7.2614026103181539e-01
      - 1.8702711236612223e-02
      - -7.2714551970021091e-01
      - 2.0562955893801135e-02
      - -7.3357282867019846e-01
      - 1.1618921720027583e-02
      - -7.3856362473740234e-01
      - 1.7938467172667644e-02
      - -7.2719305581923044e-01
      - 1.6109849747815850e-02
      - -7.9191300991007618e-01
      - 1.2931047904846556e-02
      - -7.3758162833984231e-01
      - 1.6411083092082449e-02
      - -7.5519559684268989e-01
      - 6.0018204288836783e-03
      - -6.6420657031002106e-01
      - 2.1221877181303569e-02
      - -7.4522935089070308e-01
      - 1.5969198904082126e-02
      - -7.6567247691787499e-01
      - 1.2605364776030380e-02
      - -6.9783732554036582e-01
      - 1.6429308573136611e-02
      - -6.6824028785812195e-01
      - 2.1687729350011755e-02
      - -7.1455957215651100e-01
      - 1.2360902907126534e-02
      - -7.3264538078341501e-01
      - 1.8987057342504044e-02
      - -7.2267200142946086e-01
      - 1.8434753091503882e-02
      - -7.9328504834600366e-01
      - 1.4572843347431978e-02
      - -7.3915308862973617e-01
      - 1.9480975893356810e-02
      - -7.6286768856779807e-01
      - 7.8597304727844805e-03
      - -6.9025204139170537e-01
      - 2.2144435274400631e-02
      - -7.4759191883476017e-01
      - 1.7837249439650926e-02
      - -7.8000175515761683e-01
      - 1.3947636331164909e-02
      - -7.1442856781138042e-01
      - 1.6893206568913254e-02
      - -6.6085894627109942e-01
      - 2.0800558654048649e-02
      - -7.7400342083331497e-01
      - 1.7191806957953731e-02
      - -7.7565704842975713e-01
      - 2.0340563793365754e-02
      - -7.5740618277379212e-01
      - 9.5914993625319193e-03
      - -7.1178412102418787e-01
      - 1.9247039892465193e-02
      - -7.2100206880197804e-01
      - 1.4079886117729080e-02
      - -7.3117172247334528e-01
      - 1.3409531135712940e-02
      - -7.8917130028514826e-01
      - 2.0294851534950378e-02
      - -7.7421300998937881e-01
      - 1.0934168645635600e-02
      - -7.2879648570834454e-01
      - 2.0892900777572984e-02
      - -7.3485818422181681e-01
      - 2.2659732689795584e-02
      - -6.5717433712910522e-01
      - 2.1991177975418826e-02
      - -7.7746753841678051e-01
      - 1.7920473874941029e-02
      - -7.7212818630007696e-01
      - 2.2072945177505687e-02
      - -7.4603684755855137e-01
      - 1.0036213639467374e-02
      - -6.9738985150849198e-01
      - 2.0546743198057594e-02
      - -7.2797583434808288e-01
      - 1.6001968967114817e-02
      - -7.5395392674636863e-01
      - 1.4987308141430580e-02
      - -7.8453877848865938e-01
      - 2.1497089878522824e-02
      - -7.7062350532374013e-01
      - 1.1419658165469165e-02
      - -7.2399492659250697e-01
      - 2.1358366915354678e-02
      - -7.3106164109866723e-01
      - 2.3312266487770426e-02
      - -7.3831198288003830e-01
      - 1.2570107184500962e-02
      - -7.2911145391056587e-01
      - 1.9579354099982564e-02
      - -7.2417698324481605e-01
      - 1.6103887722615992e-02
      - -7.7386714599057715e-01
      - 1.4693301617593680e-02
      - -7.5632806329707891e-01
      - 1.6866813058778914e-02
      - -7.4123318827953733e-01
      - 4.7394365864295730e-03
      - -6.1791876284856806e-01
      - 2.2368236411733473e-02
      - -7.1981109416021671e-01
      - 1.9123927602229984e-02
      - -7.8929160263204157e-01
      - 1.5226706016862296e-02
      - -7.1222590374995609e-01
      - 1.8785668299994417e-02
      - -6.7822717819326250e-01
      - 3.6299785072097766e-02
      - -4.1467047256379896e-01
      - 2.5398544680883813e-02
      - -7.0822252590777435e-01
      - 1.5680004662126233e-02
      - -7.9511130211694769e-01
      - 2.1271023554804775e-02
      - -7.9404824765574389e-01
      - 2.8577594718947535e-02
      - -7.2136033031217506e-01
      - 1.4351179892899905e-02
      - -7.2073777932524286e-01
      - 2.9746678108314724e-02
      - -7.8401524467647143e-01
      - 3.0698927724327404e-02
      - -7.8403792680480378e-01
      - 1.5678837094129726e-02
      - -7.1919157019446278e-01
      - 3.0777593392380568e-02
      - -7.8035884170609127e-01
      - 2.1858599888333410e-02
      - -7.4726772838590660e-01
      - 2.2784701919660852e-02
      - -7.3247500064923188e-01
      - 2.4775469362425476e-02
      - -7.5300572409664812e-01
      - 1.9493282671432483e-02
      - -7.2729587003587359e-01
      - 2.6907400457636038e-02
      - -6.5439585080943374e-01
      - 3.2538780280504630e-02
      - -7.2596156831071534e-01
      - 3.6377487679870715e-02
      - -6.4337138560079687e-01
      - 2.8545593493345442e-02
      - -7.9884250210115459e-01
      - 3.5715400786338891e-02
      - -8.0660666175704132e-01
      - 1.4938287224727122e-02
      - -6.8393735861667115e-01
      - 2.8269347504214188e-02
      - -7.9994639681851876e-01
      - 2.6917724101886333e-02
      - -8.0052261519026413e-01
      - 1.2924896585210083e-02
      - -6.8512305022862341e-01
      - 2.2277172603935323e-02
      - -7.8862328927838832e-01
      - 1.0253514669266354e-02
      - -7.0973866752891479e-01
      - 1.5610990302107424e-02
      - -7.7813555653996525e-01
      - 1.1262649002239265e-03
      - -3.4758177018164471e-01
      - 6.2846458331059917e-04
      - -3.5267237823486258e-01
      - 1.4700156211548861e-03
      - -4.9711511775733674e-01
      - 4.0115675480005688e-04
      - -4.1500960939021009e-01
   output_scale:
      - 9.4736839595593914e-01
      - 0.
   inv_output_scale:
      - 1.0555555835182291e+00
      - 0.
   weights:
      -
         - -1.2624395325914975e-01
         - -4.1408096550040108e-01
         - 2.7345672351080291e-01
         - 1.0086380397855378e-01
         - -1.0133030931334211e-01
         - 2.9586592010645418e-01
         - -6.7964699505488571e-02
         - -1.9822343159960604e-01
         - -1.6206744437537604e+00
         - 8.2903739353377026e-01
         - 3.9896680524682476e-01
         - -3.1296827396082916e-01
         - 1.7602609564608909e+00
         - -3.0589764546400577e-01
         - -4.7474236233848288e-01
         - -3.6595823076161799e-01
         - -5.2906846666624978e-02
         - 2.2059442426933934e-01
         - 2.2878947821790724e-01
         - -3.3492457295614689e-02
         - -1.9036372441917035e-01
         - -1.8858455061344547e-02
         - -1.0019481903738043e+00
         - 6.0734726522116833e-01
         - -1.5840592500647310e-01
         - -3.2638462915725541e-01
         - 1.2394037985511785e+00
         - 2.0774381487998542e-01
         - -4.6215139356025975e-01
         - 1.4866392671753886e-01
         - -2.7319697124356795e-01
         - 2.5060653321592813e-01
         - 3.8076961070072163e-01
         - -6.8961056987927694e-01
         - -2.7485452590279136e-01
         - -5.5915633302714249e-02
         - -7.2515737705732330e-01
         - 3.1415403216369686e-01
         - 2.0833812095699406e-01
         - 8.4770057008387953e-02
         - 6.2650871301721966e-01
         - -1.3582126666257524e-01
         - 5.3613377132711071e-01
         - -1.4524243138909967e+00
         - 1.0087123379212923e+00
         - -3.4671155273343396e-01
         - -7.5730763533786694e-01
         - 2.0096149795149989e+00
         - 4.4493921836721556e-01
         - -9.4231880232257148e-02
         - -7.3666018558807722e-01
         - 3.9839378838048051e-01
         - -1.3020838524904113e-02
         - -1.6074270143132321e-01
         - 6.3682534480184372e-01
         - 1.6451789421524410e-01
         - -2.2852731837075077e-01
         - -5.7755693308611833e-01
         - 1.6153342932220172e-01
         - 7.4627912980658210e-03
         - 2.9732507291725024e-02
         - 3.0067899181044860e-01
         - 7.9556051636445954e-02
         - 6.3386741590122017e-02
         - -1.0939224843827298e+00
         - 5.5409559155793464e-01
         - -9.3411104595795519e-02
         - -3.5401993356629413e-01
         - 1.2498989321393801e+00
         - 1.4803291591261070e-01
         - 2.7015577678937593e-02
         - -6.1912680598666059e-01
         - 4.3328881527247820e-01
         - -6.8604101646376869e-02
         - -1.5816257435743181e-01
         - 6.5375924219760018e-01
         - 2.1843311123652023e-01
         - 1.7655405102561164e-01
         - -1.1441571136264155e+00
         - 6.5111726110884049e-01
         - -7.9260947587785416e-02
         - -4.2544653926644355e-01
         - 1.3021597061509045e+00
         - 1.0070175072572583e-01
         - 1.7873033081572379e-01
         - -1.0036775336151604e+00
         - 5.8067607011621014e-01
         - -1.3322403471917818e-01
         - -4.0759026222566119e-01
         - 1.2582127765777020e+00
         - 1.8018173750969801e-01
         - 2.5031259661080590e-01
         - -9.1041284280403623e-01
         - 6.5128043667014401e-01
         - -2.1908820712410504e-01
         - -4.1802030731028467e-01
         - 1.2783304393948378e+00
         - 2.6831712557142207e-01
         - 1.6114115535699766e-01
         - -9.6369668239874273e-01
         - 4.4885759109889639e-01
         - -1.4503428001239066e-01
         - -1.7735123430802469e-01
         - 8.5441118642704794e-01
         - 1.1471090110171643e-01
         - 1.2988419851428177e-02
         - -5.9582960624540893e-01
         - 3.6146170935551636e-01
         - -6.3711558941061106e-02
         - -5.8634203334329407e-02
         - 5.2653034376249364e-01
         - 7.0081764637949753e-02
         - -2.5471154520859022e-02
         - -5.4225556482886528e-01
         - 3.5320211877979135e-01
         - -4.0224480684966479e-02
         - -5.8685917355051298e-02
         - 4.5057247378707471e-01
         - 6.8782432605928825e-02
         - 6.2068771491836691e-02
         - -9.6500959546294474e-01
         - 5.6763184205990380e-01
         - -1.3859235078669138e-01
         - -2.5086251708024698e-01
         - 8.4849169653816747e-01
         - 1.1605434175647665e-01
         - 5.6563497159027212e-02
         - -7.9877897427606104e-01
         - 5.2236206906901184e-01
         - -1.0910300138858069e-01
         - -2.1124787363629724e-01
         - 7.8097987467719254e-01
         - 7.4214405357211077e-02
         - -1.3794055003351319e-01
         - -4.2808939161468929e-01
         - 2.8755677192948537e-01
         - -3.5637234287666790e-02
         - -3.0084003285393977e-02
         - 2.0242565695496870e-01
         - -1.8110206750499881e-02
         - -3.8449482763908263e-02
         - -5.8569246723094703e-01
         - 4.6631365400921632e-01
         - 3.8386212218546011e-02
         - -1.5792878883045619e-01
         - 3.5923762732970688e-01
         - 5.4971283845190469e-02
         - 8.7180369156213577e-02
         - -8.4517495786635310e-01
         - 5.7002046354836566e-01
         - -6.1952646538326987e-02
         - -2.3214751632034197e-01
         - 8.6463085972020037e-01
         - 1.8781475025490682e-01
         - -7.7134873621642008e-02
         - -5.2500406371961972e-01
         - 4.7279794894847244e-01
         - -1.1811257404284563e-01
         - -1.7828331615710458e-01
         - 6.4545824641119998e-01
         - 5.5116364002776391e-02
         - -2.5701846865503686e-02
         - -6.3848743067354152e-01
         - 5.1018548358340332e-01
         - -1.8415429456483867e-01
         - -9.2161131389842596e-02
         - 5.8786235864796343e-01
         - 7.4033544889544584e-02
         - -1.8337299790535622e-01
         - -4.9765971554236843e-01
         - 4.6242674618000146e-01
         - -2.1388393846907786e-01
         - -7.2518723958601164e-02
         - 4.4051097199554434e-01
         - 8.5005623086940207e-02
         - -1.7382937720287103e-01
         - -4.4996971557006249e-01
         - 3.4578727055342201e-01
         - 6.3706933307115202e-02
         - 3.3437380971476610e-02
         - 2.0414780158540907e-01
         - -1.2588876595707668e-01
         - -2.8630265812591482e-01
         - -4.2894772463170211e-01
         - 2.8280647095808248e-01
         - 1.7392297698530204e-01
         - 8.5432675580594447e-02
         - 1.0652973824511028e-01
         - -1.3441156320979630e-01
         - -1.0733803316896652e-01
         - -5.9204135449193418e-01
         - 3.7380281616124844e-01
         - 9.4710469417445056e-03
         - -6.0052940169961648e-02
         - 4.8294151070609598e-01
         - -1.7527725062828250e-02
         - -2.0198848222296639e-01
         - -7.3389932498897603e-01
         - 3.1249696502364038e-01
         - 1.3051985076053621e-01
         - 2.6087060326894878e-02
         - 4.4782410755986590e-01
         - -1.7648896745842732e-01
         - -2.9260293428587769e-01
         - -4.8792007707474133e-01
         - 2.0753738825735618e-01
         - 2.0568251874333560e-01
         - 1.5285505284266640e-01
         - 7.7392054987155123e-02
         - -2.4204692083734286e-01
         - -2.9734217481280911e-01
         - -3.9858124178403254e-01
         - 1.6524902596910626e-01
         - 1.7410374928941263e-01
         - 1.0251385549164192e-01
         - 1.7650619223854119e-02
         - -1.8802736106995382e-01
         - -2.6826197185126033e-01
         - -4.6546006273341967e-01
         - 3.6134363875000924e-01
         - 1.0969532138868249e-01
         - 6.4839259892386952e-02
         - 2.1891938697250279e-01
         - -1.2603072865584292e-01
         - -2.0867754898888161e-01
         - -5.8204256610516414e-01
         - 2.5090406960933526e-01
         - 1.3085793454200220e-01
         - 4.2521434982761216e-02
         - 2.8270182151005857e-01
         - -2.0816301050762046e-01
         - -3.5725018532296038e-01
         - -4.2401267698605732e-01
         - 1.3343643280869272e-01
         - 5.4919326575594313e-02
         - 1.7238918704345135e-01
         - 5.3208136879500594e-02
         - -2.2906737069081148e-01
         - -3.1384760010642548e-01
         - -3.9506402461356288e-01
         - 4.0656492745230938e-01
         - 7.0349175490301299e-02
         - 7.7836460966401594e-02
         - 1.6842762173180686e-01
         - -7.5533010407672768e-02
         - -2.9942863991847551e-01
         - -3.7440134193610880e-01
         - 2.2238225767203240e-01
         - 1.2705129481344060e-01
         - 1.1676100053206849e-01
         - 5.2618905358334321e-02
         - -2.0485766389100651e-01
         - -2.4776969939746774e-01
         - -4.0153968228206027e-01
         - 2.1009256323302075e-01
         - 3.8465888652605050e-02
         - 1.3179582152678423e-01
         - 1.2500049435267502e-01
         - -1.3050099247068553e-01
         - -3.3689023186471379e-01
         - -1.8978473062219081e-01
         - 2.2691259252716803e-01
         - 8.9738443289178210e-02
         - 8.2001790506210717e-02
         - -2.0499292413128544e-02
         - -9.0157242720075303e-02
         - -1.8726966685822358e-01
         - -2.0591644304564025e-01
         - 9.6831405395613277e-03
         - 2.8175127764898198e-02
         - 8.6396595511942884e-02
         - -4.9763459538713695e-02
         - -3.1209595397329676e-02
         - -2.3686738327560025e-01
         - -2.4195519654126568e-01
         - 1.5922456970877547e-01
         - 1.1258982761303261e-01
         - 6.2949887639251398e-02
         - -4.3220933123696938e-02
         - -1.5287404692436288e-01
         - -2.4994495001601294e-01
         - -2.2786406293032072e-01
         - 1.3158859807217441e-01
         - 9.4412672626729172e-02
         - 1.9022872475723313e-01
         - -1.4806245167784665e-01
         - -2.2011284214088517e-01
         - -2.0326023454101103e-01
         - -3.5159056291433999e-01
         - 1.2223554448901135e-01
         - 2.2951580228931494e-02
         - 1.1329645251559624e-01
         - -4.5608022944809475e-03
         - -1.0069574379920017e-01
         - -1.2327601079552962e-01
         - -4.2667254464330040e-01
         - 2.6229560643015565e-01
         - 4.9444810510516995e-02
         - 8.2994337005728447e-02
         - 1.5695752350162881e-01
         - 4.6027000905602591e-02
         - -1.6307814356401126e-01
         - -3.0879762328706195e-01
         - 1.8390839005784013e-01
         - 1.3392389443396338e-02
         - 6.7766446691854068e-02
         - -7.0085514716211337e-03
         - -1.3040088612872219e-01
         - -1.6207676667157001e-01
         - -3.6525847180020810e-01
         - 1.4714173677203907e-01
         - 2.1485241203056836e-03
         - 1.4696626965332835e-01
         - -2.9678059010575335e-02
         - -1.5975885114397939e-01
         - -1.4138283249492459e-01
         - -3.1362202134480005e-01
         - 2.0650835028598913e-01
         - 1.0393520769496871e-01
         - 9.4869566751324394e-02
         - -3.1002099503408060e-02
         - -1.0694860839870572e-01
         - -5.5572768158740592e-03
         - -5.1891976006041540e-01
         - 2.7510608884587817e-01
         - -2.2643146081830844e-02
         - 2.5582566716218856e-02
         - 2.5741014590537931e-01
         - -1.6404537084921766e-01
         - 3.1173535587801109e-02
         - -4.9465692149023682e-01
         - 1.2049028197866055e-01
         - 8.1751854056427587e-03
         - 1.9993521541262781e-02
         - 2.5797061447891495e-01
         - -1.0914541486941448e-01
         - -1.4053169467876755e-01
         - -2.7798300603781206e-01
         - 1.1309395342133659e-01
         - -1.5708351468362632e-02
         - 3.6569831634157585e-02
         - 9.3292794565973003e-02
         - -1.3725326858387174e-01
         - -2.5427344197248736e-01
         - -1.8609041367519316e-01
         - -2.9843389187926849e-02
         - 1.3043243469313970e-01
         - 1.8984018305431685e-01
         - -2.0902073616886246e-01
         - -2.5269354985672715e-01
         - -7.5882193495287020e-02
         - -3.1122485003514644e-01
         - 5.6872385309046605e-02
         - 2.4409640193010312e-02
         - 7.5587758342821360e-02
         - 5.2871016182756747e-02
         - -1.2614207249807305e-01
         - -3.3973776263719342e-02
         - -2.6501485549486997e-01
         - 6.5958198756090339e-02
         - -7.8256649876940934e-02
         - 7.5931140184782092e-03
         - 1.5627652842870823e-01
         - -2.3377720297149587e-02
         - 3.6522153105175904e-02
         - -2.7346721518731776e-01
         - 1.1301297050434392e-01
         - -1.6642924595723207e-01
         - -3.4375375780463832e-02
         - 3.2642937894240492e-01
         - 1.9766058835548557e-02
         - 7.5303526580764488e-02
         - -3.7792194687107522e-01
         - 1.8253080911939473e-01
         - -1.0846454529358721e-01
         - -5.0664137196544022e-02
         - 4.1745175070428225e-01
         - 1.1057524299556443e-01
         - -2.2635504515390710e-02
         - -1.8901128883525184e-01
         - 1.0428034036869828e-01
         - -9.7974449761912705e-02
         - -1.6120627629144360e-02
         - 2.7080174558390135e-01
         - -1.3939405927394066e-02
         - 1.3823760428865561e-01
         - -2.2418346709319359e-01
         - 1.8133887711233387e-01
         - -2.1451388150351544e-01
         - -6.4246299269286627e-02
         - 4.8233233516779794e-01
         - 6.4409589340279350e-02
         - -3.2706422676140722e-03
         - -1.1615421131763179e-01
         - 1.1351626659322746e-01
         - -1.0729637112234683e-01
         - 5.0372489928192578e-02
         - 2.1430532462157148e-01
         - 2.5670930773077222e-02
         - 1.3944037239322452e-01
         - 1.9006491664237350e-03
         - 8.9315799300903706e-02
         - -1.5974488894437561e-01
         - -2.3752085976018463e-02
         - 3.0220870901026070e-01
         - 6.8638325308777046e-02
         - 8.9260381509752171e-02
         - 7.2853884720811599e-02
         - 1.6937559270751953e-01
         - -9.2897825836875322e-02
         - -1.2078681383275856e-01
         - 2.7922202592166201e-01
         - 1.3767198920613674e-01
         - 2.5774230745993854e-01
         - 1.6208368001492679e-01
         - 9.7965805211147824e-02
         - -1.8352441271194647e-01
         - -9.5183849676268931e-02
         - 4.5519669457225603e-01
         - 1.6984725235962139e-01
         - 3.4078458916368869e-02
         - -5.5088641965658776e-02
         - 1.8651726869258797e-02
         - -1.6838581797435656e-01
         - -2.8841967420912561e-02
         - 2.8494325313350533e-01
         - 5.3717752078763968e-02
         - 2.2849060702433421e-01
         - -1.0655519059344939e-02
         - -8.5886179334210321e-04
         - -1.7168227648867523e-01
         - -7.0213398338720570e-03
         - 2.0133755016070193e-01
         - 5.0497715539129080e-02
         - 1.3002949402545624e-01
         - -8.8465583003285414e-02
         - 3.2643347211603987e-02
         - -1.9541022597864494e-01
         - -8.7200067964510002e-04
         - 2.4426426526395018e-01
         - 2.7182607425526497e-02
         - 2.3040761710099954e-02
         - -9.2096481768444260e-02
         - 1.7425517758767270e-01
         - -1.4529121004175996e-01
         - -5.9639287709095247e-02
         - 3.6614469094731011e-01
         - 1.4166964626272652e-01
         - 1.8890143811777266e-01
         - -3.9539174515789094e-01
         - 4.0083928763102200e-01
         - -1.5361143959331086e-01
         - -1.7265272085002598e-01
         - 8.1199145559432895e-01
         - 3.1591169561501858e-01
         - 7.3742808067469301e-02
         - -8.8807009696629455e-03
         - -3.5952936561952087e-02
         - -2.9757098003656501e-02
         - 1.6317897254357352e-01
         - 5.0865821590874501e-02
         - 2.9188117307040153e-02
         - -1.2413003741142158e-01
         - 6.8839108352274178e-02
         - -7.9692427401789750e-02
         - 5.3195178942592090e-02
         - 2.5493439776997018e-01
         - -8.4996517211775355e-02
         - -1.1464756797980431e-01
         - 1.0036959747294792e-01
         - -5.9640391945764863e-02
         - 1.7322018073250036e-02
         - 1.1045230415488723e-02
         - 1.2078955536894433e-01
         - 2.2549011194019825e-01
         - -8.2050573413472480e-02
         - -1.8084221622664470e-01
         - 3.4208440469568308e-02
         - 1.8627651354091907e-02
         - 1.5321979979965547e-01
         - 1.6290608995060307e-01
         - -6.3427746206964827e-02
         - -1.2336258411721013e-01
         - 1.1886664048185359e-01
         - 2.4837482956491814e-02
         - 1.5359856557075827e-01
         - -1.2141396180398732e-01
         - 2.2134630670119594e-04
         - 2.9848640534316212e-01
         - 1.4109207203169777e-01
         - 8.9400536343317044e-02
         - -1.3476342309817688e-01
         - -6.6015406963606513e-02
         - -6.0301942604296124e-02
         - 9.7875930250310703e-02
         - 1.9710407018351450e-01
         - 5.5028305187398513e-02
         - -4.0482516828765858e-02
         - -1.2351588273724248e-01
         - 7.3138478278955291e-03
         - 6.3594696943721746e-02
         - 1.8798812793529129e-01
         - -2.8881533778938841e-02
         - 5.9158053425541576e-02
         - 9.2667588239338905e-02
         - -2.8035244355999028e-01
         - 6.5798212904328135e-02
         - 2.6722315465917908e-02
         - 1.1332959913771562e-01
         - 9.3310134996891600e-02
         - -1.7273512767023651e-02
         - -4.4226014975686699e-02
         - -2.0307256034436846e-01
         - 6.6139935326792354e-02
         - -5.1699930798694206e-02
         - 1.8409713732524039e-02
         - 3.0027380596337611e-01
         - 4.8063968069877054e-02
         - -1.1909921084918100e-01
         - -5.2677537481431592e-02
         - 7.0369150414569814e-02
         - 1.5224259618426111e-01
         - 1.6449670279452452e-01
         - 2.5754140483574933e-01
         - -7.3552529315474666e-02
         - -6.6404305629563704e-02
         - -1.6853707710508814e-01
         - 3.6549547399887292e-02
         - 1.0746198332276005e-01
         - 2.1843730721576390e-01
         - 1.3799361815539693e-01
         - -5.9420019276767320e-03
         - 1.1721859321309457e-01
         - -2.3576474803467709e-01
         - 1.1597997145729115e-01
         - 6.6898803841664084e-03
         - 2.4231800442866526e-02
         - 3.5918719724883391e-01
         - -1.9380719662273119e-02
         - 8.3847162811714365e-02
         - -1.1694783913794916e-01
         - 2.6603313606770207e-02
         - -2.7917268049663605e-02
         - 8.6185444541483983e-02
         - 2.9340475162610807e-01
         - 2.4048076141079958e-02
         - -9.9353845654228057e-02
         - -1.8697841300736168e-01
         - -5.4705081006923076e-02
         - -6.3508927536016682e-02
         - 2.0350562725127078e-01
         - 1.3280267617735522e-01
         - 1.2299127853104781e-01
         - 1.3231751168579074e-02
         - -2.5240073420122505e-01
         - 1.6845421392339666e-01
         - -1.1924307532058093e-01
         - -9.2038231119253008e-02
         - 4.3338812733340820e-01
         - 2.4347684131635025e-01
         - 9.8488515258578786e-03
         - -7.8074238170770027e-02
         - 3.5971993638258558e-02
         - -6.5272555737004676e-02
         - 1.0616092647273923e-01
         - 1.3641504789413958e-01
         - 6.9789385103159060e-02
         - -5.9465382248156895e-02
         - -1.3341657179470970e-01
         - 3.8540544501529578e-02
         - 6.8827584746552886e-02
         - 1.4346198592663045e-01
         - -2.2292648827124888e-02
         - -7.8598820778609343e-02
         - -5.7426748902448074e-02
         - 3.2649117767959937e-02
         - -7.5639952286223500e-02
         - 9.4286050078453879e-02
         - 1.3622332829886893e-01
         - 1.4472584471738639e-01
         - -2.0310055938620956e-04
         - -1.2983480364495500e-01
         - 4.5205491895340878e-02
         - -4.5573341108489644e-02
         - 1.2585654046028730e-01
         - 1.4587816436110568e-01
         - -7.3912719762333698e-02
         - -1.1753358262128870e-01
         - -9.7326902351104999e-02
         - 7.7087774514198858e-04
         - 5.1801697504793756e-02
         - 1.4304769327143196e-01
         - 6.5205752559882035e-02
         - -3.4100670784404492e-02
         - -2.4587607443696431e-02
         - 1.5497219030392054e-01
         - -1.2096416851839226e-01
         - 8.2434054727095196e-02
         - -1.0969196677877596e-01
         - 2.5964011640530658e-02
         - 3.7973470069123638e-01
         - 2.2325441130010112e-01
         - 6.4381831581964657e-02
         - -3.0479526805886531e-02
         - 9.0353981464234220e-02
         - 4.4761023636304756e-02
         - -2.8740868194236442e-02
         - 3.6015949862801225e-02
         - 1.6874541220514128e-02
         - -9.1278949420779756e-02
         - 8.0767068892722421e-02
         - -1.0721308312954345e-02
         - 7.5578363733988144e-02
         - 1.5375630956188246e-01
         - -1.7904480299244299e-01
         - -2.7106648532926443e-02
         - -2.6857661250826920e-02
         - 1.7311607254422373e-01
         - -1.2467386325052716e-01
         - 7.9711200010318083e-03
         - 1.7237208096277618e-01
         - -1.0776649946515757e-01
         - 2.0046167373120569e-01
         - -1.0338800012820849e-03
         - -1.0247403303262179e-03
         - 1.3204434979346650e-02
         - -7.8705383149929434e-02
         - 2.6009263570432872e-02
         - 2.4268230357428016e-02
         - 1.3432327035652586e-01
         - -2.9698324004292714e-02
         - 4.5431640758977675e-02
         - 1.0958780152767255e-02
         - -3.0026845799561015e-02
         - 1.0170445212749941e-01
         - -5.9523502530093378e-02
         - 2.1407666474694972e-01
         - -4.9122034838351730e-02
         - 1.5727113393444253e-01
         - -7.6304947322662936e-02
         - 2.2036902361738487e-02
         - 1.0300860293313650e-01
         - -9.9573856042243503e-02
         - 9.7293893806593867e-02
         - -1.5341593142929782e-01
         - 9.0715440481480697e-02
         - -1.3860680141040874e-01
         - 5.2279477198802819e-02
         - 1.9227909815375296e-01
         - -2.6537240419482871e-01
         - 1.9418338757559908e-01
         - -7.7628109514302948e-02
         - 2.3710600851729982e-01
         - -7.6351512971450861e-02
         - -5.5606947723571533e-02
         - 1.1535348044686308e-01
         - -1.6846912345235668e-01
         - 3.2413499198838236e-01
         - 1.1251986170900223e-01
         - 1.4815361778300645e-01
         - -1.1581065595972274e-01
         - -9.5232003613819408e-02
         - 4.6861138738281384e-02
         - -8.1134169430212816e-02
         - 3.5111770226112748e-01
         - 2.0566309961609960e-01
         - 2.2605339712532860e-01
         - -1.3959643543694822e-01
         - -1.3833442407120181e-03
         - -2.7074594981270845e-03
         - 2.6721779053149033e-03
         - 1.7403607208106461e-01
         - 1.1140073102204652e-01
         - 1.8515532875831249e-02
         - -3.1309914701860869e-02
         - -1.2505472159595471e-01
         - 6.9109936845627773e-02
         - 2.5776498671855569e-01
         - 3.9455282318595813e-01
         - 5.9464378999353709e-02
         - 2.7725044386615644e-01
         - -2.2838138589086415e-01
         - -6.7878240595934988e-02
         - 5.0908924024129922e-02
         - -1.6150541815834160e-01
         - 1.8509536300441973e-01
         - -7.0279830247665043e-02
         - 2.0967164437266472e-01
         - -2.3064041430962776e-01
         - 2.3852607795801162e-02
         - 1.4409666202425148e-01
         - -1.5431608417408782e-01
         - 3.1044219901349451e-02
         - 7.8253094023582909e-02
         - 2.7701920589390122e-01
         - -3.0944432276855044e-01
         - -1.1898197594174099e-01
         - 4.9614876725999117e-02
         - 1.2421961295121284e-02
         - 1.2044575473959665e-01
         - 1.3272035485535194e-01
         - 2.0326959131963490e-01
         - -2.1763718715363034e-01
         - 8.1182941050837551e-02
         - 6.4086329320560284e-02
         - -1.9723028576629184e-01
         - 1.0178162097109020e-01
         - -2.6603943913799588e-01
         - 4.5871994334720229e-01
         - -3.7443273839316871e-01
         - 3.1618878506782178e-01
         - 3.1037182687889225e-01
         - -2.6143403943939930e-01
         - -2.1689867503559604e-01
         - 8.9091298411199782e-02
         - 3.6698982083252502e-01
         - -2.1863356912908660e-01
         - -1.3893747475466381e-01
         - 4.4929798617620274e-02
         - -1.0730035623480537e-01
         - 1.3063687971833166e-01
         - 1.6358025484678448e-01
         - 2.0289619693626909e-01
         - -1.3363886061699876e-01
         - -1.4155972164491143e-01
         - -1.3773039164538536e-01
         - 1.0582449723338749e-01
         - 1.4404987234346736e-01
         - -1.7282417846018295e-02
         - 3.3513382471809605e-01
         - -3.9563857241563716e-01
         - -5.9766705459180156e-02
         - -4.0900223630401618e-03
         - -1.4884375122172050e-01
         - 1.0386847349623803e-01
         - 2.4595898853449963e-01
         - 3.4066138752870556e-01
         - -2.2871592835593318e-01
         - -1.3974150267541963e-01
         - -2.9864558654681451e-02
         - -1.5709362422238302e-01
         - 4.3483888767499021e-02
         - 1.2741551220839442e-01
         - 5.0707412599405444e-01
         - -1.2446002899919444e-01
         - -9.5448962705943066e-02
         - -1.0054534342455353e-01
         - -1.0870860866925871e-02
         - 1.2413247323541315e-01
         - 9.0709146589522061e-02
         - 1.0344694542518679e-01
         - 8.2282173969017935e-02
         - -1.7659006287110501e-01
         - -1.2711281245565728e-01
         - 1.9070483666704369e-01
         - 3.4859735782782697e-01
         - 2.4900015874291653e-01
         - 4.2170346577863721e-01
         - -1.6420349252486388e-01
         - -2.1353465954137155e-01
         - -7.1468565264027853e-02
         - -2.9812559566839987e-02
         - 2.1856386518615822e-01
         - 3.7316227238821614e-01
         - 2.2408655156769067e-01
         - -2.7014077750190907e-01
         - -2.4828978632226822e-01
         - -8.9713753007590366e-02
         - -5.9622843713667335e-02
         - 2.5951409545529230e-01
         - 2.7937899405394889e-01
         - 4.2845150901773021e-01
         - -2.9871883911737257e-01
         - -1.2789754103903606e-01
         - -3.4454600110606901e-02
         - -6.5464146406530616e-02
         - 2.0406564419379852e-01
         - 2.7759717665390571e-01
         - 4.6557995462594221e-01
         - -2.5922280415827709e-01
         - -2.1921462824642265e-01
         - -1.6685109347108384e-01
         - -9.3948585537900378e-02
         - 1.4479150716872918e-01
         - 6.5075281063364340e-02
         - 4.7723718576376373e-01
         - -1.9717972185560395e-01
         - -5.5818474071692013e-02
         - 4.1559067492048324e-02
         - -2.4806132253313551e-01
         - 3.2260117322919536e-02
         - 1.1196607116989864e-01
         - 4.4569112712588982e-01
         - -3.0615188090373657e-01
         - -9.6443669246850369e-02
         - -6.4775887395810781e-03
         - -3.2631087836117262e-01
         - 7.7821320296129523e-02
         - -1.0350426412004884e-03
         - 3.5884152552040394e-01
         - -3.5607137046815862e-01
         - 1.0855796654942428e-02
         - 9.6290533524437019e-02
         - -3.5284285895031081e-01
         - -1.0933462382677897e-01
         - 6.9290144670719575e-02
         - 4.7887837746517520e-01
         - -2.5444887467675359e-01
         - -9.5230452299913781e-02
         - -1.3081148364587181e-01
         - -2.7065288558588885e-01
         - 5.6277580877587580e-02
         - 1.0956727551442426e-02
         - 4.5888524401516145e-01
         - -4.2403936052906732e-01
         - -5.1267319809882687e-02
         - 1.2413029147667505e-01
         - -4.2903580128252344e-01
         - 4.8807954012456925e-02
         - -6.0256372827223917e-02
         - 5.0341569717246282e-01
         - -2.5007571017053054e-01
         - 1.5677572160591676e-02
         - 1.2623213744010489e-01
         - -4.5089210439661792e-01
         - -5.7712973533467861e-02
         - 6.1721481685281868e-02
         - 4.3657329232016107e-01
         - -3.3743242442068705e-01
         - 1.5599425333883597e-03
         - 3.2646309164023155e-02
         - -5.4903680890874007e-01
         - -4.0489592317039982e-02
         - 7.9218620051929589e-02
         - 3.9065328790778714e-01
         - -2.1720586635598876e-01
         - -4.2769014457463613e-03
         - 5.0428228100199216e-02
         - -4.5460352835365020e-01
         - -6.3710336031371148e-02
         - 1.6842878668242248e-02
         - 5.3473064230010858e-01
         - -1.9766321043047005e-01
         - -3.8388809183706575e-03
         - 1.4332030251646150e-01
         - -4.1395817938731766e-01
         - 6.2872660788828513e-02
         - 1.5611898607633087e-01
         - 3.1396652332067765e-01
         - -2.7218133044777393e-01
         - -1.0829034973786163e-01
         - -2.0969951066670330e-02
         - -2.4853291730573254e-01
         - 1.1806503284634895e-01
         - 3.8665037652421519e-02
         - 3.6107716494296427e-01
         - -2.0037321926906446e-01
         - -6.7707312240711567e-02
         - 4.1401332880790051e-02
         - -3.2838446429830304e-01
         - 8.8788993115405612e-02
         - 1.0326593712525178e-01
         - 3.6000801746663996e-01
         - -2.4307104424379417e-01
         - 1.1304866743499524e-02
         - 7.4886739726124016e-02
         - -2.8032041256127138e-01
         - 3.8851084019732536e-02
         - -1.1833220314683526e-01
         - 3.4366046624652041e-01
         - -4.0569288398122277e-01
         - -1.6456045314331183e-01
         - 1.6641325061489914e-01
         - -4.9565748552194377e-01
         - 5.6011149317989138e-02
         - 3.5882125125935485e-02
         - 3.6491029060765534e-01
         - -2.4227674766365989e-01
         - -6.2827145406326265e-02
         - 1.1230553489281517e-01
         - -3.2154314852711297e-01
         - 4.2798007679355332e-01
         - 1.6311492332671332e-02
         - 3.3933841797037706e-01
         - -2.1146494052548290e-01
         - 2.5228040551560872e-03
         - 5.6354265289746790e-02
         - -4.9034941308428570e-01
         - 1.5992138488905769e-01
         - 9.0232120525057607e-02
         - 3.9042185738075558e-01
         - -3.2101209462966651e-01
         - -1.6661878330031574e-01
         - 1.0198192069769584e-01
         - -4.5876955390556129e-01
         - 5.8774391498275458e-01
         - -3.6079952484895296e-02
         - 2.9772279962419851e-01
         - -1.3908835810619297e-01
         - 3.5230027841121128e-02
         - 2.6177071377465544e-01
         - -2.9480263194308320e-01
         - 1.2893343754456499e-01
         - 1.4785901465281165e-01
         - 4.3831842737757071e-01
         - -2.1558346794945121e-01
         - 2.4964991169620126e-02
         - 4.2954228795471505e-02
         - -3.7865072917201503e-01
         - 1.0827537671511098e-01
         - 4.2670156223267947e-02
         - 4.5779113354897671e-01
         - -2.8281586805777392e-01
         - 1.8218077260126975e-01
         - 1.6144230903005852e-01
         - -5.4589266246820456e-01
         - 5.9262198457478311e-03
         - 9.2103450031259088e-04
         - 4.5151385967790902e-01
         - -1.7392695132595315e-01
         - -1.5806285740274870e-01
         - 6.3644443429370132e-02
         - -3.2891324427367313e-01
         - 6.0898796326017446e-01
         - 1.8290595865754575e-01
         - 5.0001467916704112e-01
         - -1.4258387231689823e-01
         - -1.5713560246496031e-01
         - 3.4077831963481929e-02
         - -3.1197800030467060e-01
         - 3.9784336530746406e-01
         - 1.3800531580795058e-01
         - 4.5340525534959580e-01
         - -3.1659069174905008e-01
         - 1.5284272969682466e-01
         - 8.9746908248731591e-02
         - -3.8986018810991552e-01
         - 5.2041424520633289e-02
         - -3.6416262098356168e-02
         - 4.0170548131743289e-01
         - -3.8245507466431555e-01
         - 2.1980883288408687e-01
         - 3.1453531675950630e-01
         - -6.3246592647559785e-01
         - -1.2413819211992029e-01
         - 1.0728601743208838e-01
         - 4.6833934332008204e-01
         - -3.8649026690556443e-01
         - 1.8777252104922107e-02
         - 1.9273943028554039e-01
         - -5.4315011729570384e-01
         - 1.0447390767921907e-01
         - -8.1191440175678781e-02
         - 4.8975410207372400e-01
         - -2.5549895408892126e-01
         - 8.0561224163380962e-02
         - 2.4259897995617202e-01
         - -4.5772513263238807e-01
         - 7.7862159529011238e-02
         - 2.7244076119402560e-02
         - 5.0667502950448129e-01
         - -2.2490919032690770e-01
         - 1.3651111275298403e-02
         - 1.0203826697566238e-02
         - -4.8693250440716596e-01
         - 5.5663347781881284e-02
         - 2.7163837123732562e-02
         - 5.0574257526008848e-01
         - -2.7653877300057617e-01
         - -4.2454209437304624e-03
         - 3.6413476095049406e-02
         - -4.3820402363229649e-01
         - 2.0534671563994072e-01
         - 3.3014859931048679e-01
         - 3.3189998058255832e-01
         - -5.4065152249638836e-02
         - -1.3535989022885334e-01
         - -1.8647680827486548e-02
         - -6.0803961936341737e-02
         - 3.1558130768243697e-01
         - -3.1007923314083259e-02
         - 5.0171551065219722e-01
         - -3.3761468049488347e-01
         - 1.1971603732431839e-01
         - 2.2557949009691214e-01
         - -6.0261437766345782e-01
         - 1.4444460436061488e-01
         - 1.7534023296590856e-01
         - 5.0666118257276083e-01
         - -2.7519548767809116e-01
         - 5.7777367890776511e-02
         - 1.5790086502451162e-01
         - -4.0647864499190284e-01
         - 1.1812700690288543e-01
         - 1.0945845556895895e-01
         - 4.9984242897696629e-01
         - -2.8640653503777358e-01
         - 2.8649758147409440e-02
         - 7.2881669392703505e-02
         - -4.8440236394991837e-01
         - 6.9738804546817704e-02
         - 2.7292150355994343e-01
         - 5.2493493459385487e-01
         - -1.8086139757906158e-01
         - 5.7719554263893580e-02
         - -1.6303193392121357e-02
         - -2.7620369340220002e-01
         - 7.3716011409615867e-02
         - 1.6955448757669025e-01
         - 5.1525092373845982e-01
         - -1.1758838541641606e-01
         - -6.4228633089416190e-02
         - -1.6277951022310735e-02
         - -1.2092233559438384e-01
         - 2.1924378349060838e-01
         - 1.5058473995714883e-01
         - 4.8532591866796332e-01
         - -3.3647323549346742e-01
         - 5.7327155996573689e-02
         - 6.7647576151972269e-02
         - -4.2676267783275290e-01
         - 6.6842022174903148e-02
         - 1.5765771883731833e-01
         - 4.5643495969471132e-01
         - -1.5818599588846133e-01
         - 8.1928279435429241e-02
         - -4.9489300025540653e-02
         - -3.6902548424995524e-01
         - 9.7973958547184686e-02
         - 1.2415910596475495e-01
         - 5.1362568233497352e-01
         - -1.4770005281859314e-01
         - 5.7947301950871818e-02
         - -6.1079446038161733e-02
         - -3.7634578466591795e-01
         - 3.6543542516618448e-02
         - 7.8717313468738004e-02
         - 4.9692877913197669e-01
         - -2.2951895779674611e-01
         - 3.4161938887179756e-03
         - -1.3720962475684186e-04
         - -3.8099828389745644e-01
         - 1.2372399239177317e-01
         - 2.2310823026819285e-01
         - 3.7702447411281331e-01
         - -6.4888728844507734e-02
         - -7.6665918875581246e-02
         - -6.4435133804556052e-02
         - -1.5766427128524946e-01
         - 1.2447789867984106e-01
         - 1.3604450144349722e-01
         - 3.6477997903693721e-01
         - 1.4950293475229042e-02
         - -1.0448513976043518e-01
         - 1.4866699402155049e-02
         - 7.3300812929761134e-03
         - 1.9402601869915156e-01
         - 1.9804110490260546e-01
         - 4.0227705430683142e-01
         - -1.5927672929598799e-01
         - -7.0108869599260729e-02
         - -8.5165410747963383e-02
         - -3.0222255849814977e-01
         - 7.4819014640556972e-02
         - 1.6060262510366918e-01
         - 4.7632408112081748e-01
         - -2.2799359169294134e-01
         - -6.3065857953012918e-03
         - -3.8338075354108339e-02
         - -4.7481839237006479e-01
         - 3.5583213154266428e-02
         - 2.4301547838780560e-01
         - 4.3221221053596082e-01
         - -1.7402390886063815e-01
         - -1.1580936917532635e-01
         - -7.9979939401811188e-03
         - -3.8549127797143762e-01
         - 1.6879265237994136e-02
         - 1.9796006811928044e-01
         - 3.7862730555691365e-01
         - -1.7578002018746591e-01
         - -1.1899034992069080e-01
         - 2.2862462491875569e-03
         - -3.1157474988254147e-01
         - 3.9056159791240504e-02
         - 3.4270517428452862e-01
         - 3.2235595858771610e-01
         - -1.1042987619006747e-01
         - -2.0900218759797382e-01
         - -1.1152770928569868e-02
         - -1.4025035343374745e-01
         - 6.2275264401538286e-02
         - 2.3394847944489930e-01
         - 3.1062771557828056e-01
         - -2.3149513637182861e-01
         - -5.7333077102455554e-02
         - -9.1501631671418851e-02
         - -3.3124683822719014e-01
         - -4.0039871329362653e-02
         - 2.3087985859534912e-01
         - 4.3057587047883922e-01
         - -1.9309288331636912e-01
         - -9.6053821547561466e-02
         - -8.8535479324780370e-02
         - -3.1317877878551187e-01
         - 1.8999139471573952e-02
         - 9.6124115541878483e-02
         - 4.4564899544817477e-01
         - -1.6824811294185937e-01
         - -1.7419236822514433e-01
         - -4.3160893201766623e-02
         - -3.7358388307717549e-01
         - 2.4336229782435197e-02
         - 1.2258009140539891e-01
         - 3.7413912115732589e-01
         - -2.1427595522651291e-01
         - -4.1123811476952217e-02
         - -3.5271295044868617e-02
         - -4.1320567842083911e-01
         - -4.5648496895977796e-02
         - 1.2113258303924748e-01
         - 3.7869251680940041e-01
         - -2.1282065610548037e-01
         - 6.0500706942002800e-03
         - 4.4528772285660774e-02
         - -3.3542543441039246e-01
         - -5.1252678410147280e-02
         - 4.6487351558317208e-02
         - 4.8102851332237800e-01
         - -1.8947197781020111e-01
         - 2.4974581346227938e-02
         - 5.0045070040705200e-02
         - -5.9817316274191012e-01
         - -1.7739038406678989e-03
         - 2.2156391244959550e-01
         - 4.2304360776390637e-01
         - -8.0305776343924093e-02
         - -1.9999122706917696e-02
         - -7.6581042662826129e-02
         - -4.5571895708674809e-01
         - -1.7129243733065194e-02
         - 1.9974891034428083e-01
         - 3.9776578597244888e-01
         - -1.9236638493864633e-01
         - -1.7253394241154359e-02
         - -1.5117182887102273e-02
         - -4.0570557107859861e-01
         - 3.7851386239526032e-02
         - 5.7272536703300474e-03
         - 4.3480978443834006e-01
         - -2.7508253737926536e-01
         - -2.0568443503576516e-02
         - 1.1839922089055424e-01
         - -5.8917147844150375e-01
         - -1.1725948360818401e-01
         - 1.6853388963698934e-01
         - 3.8222211513264182e-01
         - -1.5556076523033568e-01
         - -1.9209273874209752e-02
         - 2.1813516331935776e-02
         - -4.9555398885172658e-01
         - 1.3706651820766580e-01
         - 1.8373010463830114e-01
         - 4.6206406724318705e-01
         - -8.5675388124544671e-02
         - -5.8395891853656956e-02
         - -9.2368555529027077e-02
         - -4.7694975220521812e-01
         - -1.1169147570909861e-03
         - -9.2681939813811259e-02
         - 4.1357532125691171e-01
         - -2.5556018679893833e-01
         - 5.5400505897485380e-02
         - 1.7692372766026221e-01
         - -6.2602293740834580e-01
         - -5.0959565745605534e-02
         - 2.7745742071729529e-01
         - 3.1976869355945325e-01
         - -1.2604989727758692e-01
         - -2.1515518610538248e-01
         - -3.3443940259957901e-02
         - -2.9647659908815704e-01
         - 1.1234697926514324e-01
         - 1.3611993539527956e-01
         - 3.9682171720991488e-01
         - -1.7315483834832746e-01
         - -6.0280990476290347e-02
         - 2.0995551440206511e-02
         - -4.4822881112923968e-01
         - 1.1279048975264018e-01
         - 4.6301849543597756e-02
         - 4.6723923266247119e-01
         - -1.8551006366686215e-01
         - 8.0971262582489198e-02
         - 5.3642366236695140e-02
         - -5.1289989058829266e-01
         - 7.9505381467325886e-02
         - 1.6958042245352423e-01
         - 2.7545739234870592e-01
         - -5.0650387427763996e-02
         - 9.1362023459000911e-03
         - 6.3886859583675418e-02
         - -2.5130662829393047e-01
         - 1.5274225641049955e-02
         - 1.6073337908982918e-01
         - 3.5631264241699268e-01
         - -1.5634130380777378e-01
         - 5.7992186616935996e-02
         - 3.8203613092102316e-02
         - -5.0647613573601102e-01
         - -4.9690303423327552e-02
         - 6.8760484615486943e-03
         - 5.1324562780422489e-01
         - -2.0940542281664484e-01
         - 2.0405815067948971e-01
         - 2.5297635705293781e-01
         - -6.3672243837853981e-01
         - -1.0654475455143084e-01
         - 7.8590371589880567e-02
         - 3.7534892283107557e-01
         - -1.6786778405388789e-01
         - 4.9421282793303607e-02
         - 1.6122816597264283e-01
         - -2.9260517342945386e-01
         - 5.1682914462259661e-03
         - 1.4498577253752571e-02
         - 3.7450787123841900e-01
         - -2.5305695239145609e-01
         - -6.9154560956519564e-03
         - 7.6247561989142898e-02
         - -5.4249957177418451e-01
         - 5.0719755107675402e-02
         - 2.7785019995625337e-01
         - 3.5157745273108870e-01
         - -1.1620409073928788e-01
         - -4.4164060596187105e-02
         - -5.0236493053978176e-02
         - -3.1977656416531708e-01
         - 9.5334627312787620e-02
         - 1.5756616748367442e-02
         - 4.5688775610392213e-01
         - -1.6323571699494388e-01
         - -3.5049385324899637e-02
         - 8.4275903604307145e-02
         - -4.6881467281200351e-01
         - 5.1475540229466835e-02
         - 1.8792565766825881e-01
         - 3.4956474425236095e-01
         - -1.8303399371966678e-01
         - 6.6169924080522798e-03
         - 1.4003394483635212e-01
         - -4.7693645335940477e-01
         - 6.4619660618623662e-02
         - 4.2986706689392762e-01
         - 2.9484146875385414e-01
         - -1.7037033389965572e-01
         - -1.0231726541132792e-01
         - 4.9520057412762851e-02
         - -3.0542765652556292e-01
         - 5.5437829682047565e-02
         - 6.8514375435276914e-02
         - 4.2566116733894843e-01
         - -2.3046634389931486e-01
         - 2.0767820838984594e-01
         - 1.9329708183398872e-01
         - -6.3319183617161701e-01
         - -4.0362150381111163e-02
         - 6.0084365734162620e-02
         - 4.2848568944771037e-01
         - -3.1369396561911767e-01
         - 2.3905682191377423e-01
         - 2.3093796267754449e-01
         - -6.9787546913757448e-01
         - -1.7570761579031399e-01
         - 1.8511724793007575e-01
         - 2.5303060097547359e-01
         - -1.6158002284218195e-01
         - 1.0948718156368520e-01
         - 1.5057214093226359e-01
         - -4.6906438361553759e-01
         - -7.8546389404312508e-02
         - 4.6845300279482756e-02
         - 3.6498942482724062e-01
         - -3.1497899304870625e-01
         - 1.2330396016027440e-01
         - 2.7890213351990356e-01
         - -6.9096359327893397e-01
         - -6.6915600669136280e-02
         - -1.1916237080138184e-01
         - 3.4196724025216185e-01
         - -3.3114929603038418e-01
         - 1.3749595656798819e-01
         - 2.0328705013499412e-01
         - -6.2005060837970993e-01
         - -6.6568708448906833e-02
         - 7.2387674441082780e-02
         - 3.5565020684444920e-01
         - -1.9268648460906668e-01
         - 8.4989334113555165e-02
         - 4.0683481315435747e-02
         - -4.7333593710275867e-01
         - 1.1393879467017501e-01
         - 1.7751921396665038e-01
         - 3.9849520247190590e-01
         - -2.9872471822239988e-01
         - 5.0050851012455828e-02
         - 3.9734506950001330e-02
         - -4.0373927906259499e-01
         - -4.1393162829829327e-02
         - 1.2753672395246857e-01
         - 3.1254751170778028e-01
         - -1.8131864813574367e-01
         - 2.2606194472810436e-02
         - 1.1467221634732093e-01
         - -4.5680024181687917e-01
         - -1.1136628449967677e-03
         - 8.6891912603428434e-02
         - 3.8965206859298179e-01
         - -1.5742952026511731e-01
         - 5.1196739934588904e-02
         - 1.1863146402910411e-02
         - -4.8667431054142440e-01
         - -2.1448624940500476e-02
         - -5.9030437268174439e-02
         - 4.5000204021859658e-01
         - -2.3915630351769090e-01
         - 1.1412151843955181e-02
         - 8.3705384011746820e-02
         - -5.1806069114056108e-01
         - 1.0652978184592145e-01
         - 3.4522354958799739e-02
         - 4.6517096366445165e-01
         - -2.4358420917136628e-01
         - 2.3916743238962947e-02
         - 1.1799778014698427e-01
         - -5.0805654013627788e-01
         - 2.5031443415538413e-02
         - 7.8690910860783461e-02
         - 3.8573596605624505e-01
         - -1.3460446576170321e-01
         - 2.8249992556714024e-02
         - 3.8461992319266586e-02
         - -4.0421215387869408e-01
         - 3.7248603354176915e-02
         - -8.5249852356774538e-03
         - 3.7813312031746021e-01
         - -1.2715481195343412e-01
         - 1.9946917853447207e-02
         - 1.6654622863366081e-02
         - -3.7325094328818620e-01
         - 2.9888818443381926e-02
         - 8.4747237754536200e-02
         - 2.3624034300465685e-01
         - -3.7199573553169447e-02
         - -1.5372076590194518e-02
         - 8.2655837659567841e-02
         - -1.5597594999201669e-01
         - 1.3547718802245944e-02
         - 5.6586305999810849e-02
         - 4.5172973608682365e-01
         - -3.3626703712386596e-01
         - -1.3013527239219530e-03
         - 1.8783889600430900e-01
         - -6.3654562331857623e-01
         - -5.5137163327757914e-02
         - 1.3062857843456807e-02
         - 4.7906160535227682e-01
         - -2.4366543610289643e-01
         - 3.9220930763627294e-02
         - 1.1911584314663287e-01
         - -6.1292716794058133e-01
         - 3.3985159966208871e-02
         - 1.0265023610903926e-01
         - 4.2407301314320389e-01
         - -2.1507652047043979e-01
         - 6.3270942030065599e-02
         - 7.9893030679828989e-02
         - -6.1444757289021401e-01
         - -4.2002061206011632e-02
         - 1.0910343704957728e-01
         - 4.2543932397035039e-01
         - -1.8899863030805042e-01
         - 5.7763225130832284e-02
         - 1.1041370817063825e-01
         - -4.5388941216996270e-01
         - -1.2380590842958233e-01
         - 4.9172011054950344e-02
         - 4.0972903410894990e-01
         - -1.0863189909368286e-01
         - -3.0166765073765617e-02
         - 7.2096841352759955e-02
         - -3.5436919024710045e-01
         - -1.4505666267491044e-02
         - 1.8266429249771221e-01
         - 4.6992182167448127e-01
         - -2.0910001220122221e-01
         - -3.4783527851542428e-02
         - 1.1061867943553866e-01
         - -4.2355508925315322e-01
         - 2.2750427280286037e-03
         - -4.9988178010678492e-03
         - 4.1787123139353116e-01
         - -1.2504967029533764e-01
         - 3.2424845000987067e-03
         - 5.9202832490413339e-02
         - -4.5681897184653997e-01
         - -7.0436903632220299e-02
         - 7.0188672078348238e-02
         - 4.4233296795215538e-01
         - -1.9781918906037493e-01
         - -4.5542498279728845e-02
         - 1.4721273180002686e-01
         - -4.2417392540035831e-01
         - -2.5866863191351033e-02
         - 9.5307048842245001e-02
         - 4.1102079670648783e-01
         - -1.8606833775003967e-01
         - -1.2798709835512578e-01
         - 2.1672587511586679e-02
         - -3.4592028269344355e-01
         - 1.4637918328560981e-01
         - 1.4898633270790390e-02
         - 3.3063149033550165e-01
         - -1.6412454044309291e-01
         - 8.3060723825475552e-02
         - 1.4870111249422668e-01
         - -4.2855520825289539e-01
         - -4.3346711774567531e-02
         - 8.2640728427217057e-03
         - 4.4231598917172676e-01
         - -1.8850599226393799e-01
         - -1.1187376139819577e-01
         - 6.5365477288487850e-02
         - -4.2330580790335809e-01
         - 4.0857120285858375e-02
         - 4.6615799424812164e-02
         - 4.1182327613075004e-01
         - -2.7080577094998670e-01
         - 3.6310852586335700e-02
         - 1.9457184466540489e-01
         - -4.6932230340607922e-01
         - -5.3723405621797227e-04
         - 1.3434468010900644e-01
         - 2.8845177932727079e-01
         - -1.5110482494974958e-01
         - 1.4322303608649747e-02
         - 1.6071813075396771e-01
         - -4.2035906469730561e-01
         - -2.6836498520530404e-02
         - 1.9975948371086941e-01
         - 3.8696238587066506e-01
         - -2.3226743238886680e-01
         - -7.2996980899844169e-03
         - 1.1951906278922535e-01
         - -5.1451500012814300e-01
         - 1.3073162078877856e-01
         - 1.5197419448646554e-01
         - 3.0666263577468217e-01
         - -1.7276934222001231e-01
         - -3.7377190774354710e-02
         - 5.8818277932564812e-02
         - -4.0918330108496193e-01
         - 1.2084306041783835e-01
         - 9.4328227070985080e-02
         - 3.6212514883772334e-01
         - -2.8974073783094761e-01
         - -9.7108492962601753e-02
         - 7.7827938594847962e-02
         - -3.9379003253522982e-01
         - 1.8281096974336822e-01
         - 1.2177968823754617e-01
         - 4.7270577928948665e-01
         - -2.1741541225476435e-01
         - -2.3829953413343423e-02
         - 1.3161004959668529e-01
         - -3.5909312394326781e-01
         - 1.0774369479075564e-01
         - 2.0467940415643451e-01
         - 2.7229532645476134e-01
         - -8.1540694026923308e-02
         - -1.0811406313281353e-01
         - 8.2980663365291488e-02
         - -3.4400091654266657e-01
         - 1.0634727701883456e-01
         - 2.2052663260697058e-02
         - 4.5240799059083037e-01
         - -2.5186582358011178e-01
         - 5.0534169070599287e-02
         - 2.1661348748857220e-01
         - -4.5624348188595620e-01
         - 4.1088636036322741e-02
         - 1.3555634091745111e-01
         - 3.9537273482320012e-01
         - -1.3550893036539124e-01
         - 1.5060216438617493e-04
         - 5.4310032810584392e-02
         - -2.6146611247774215e-01
         - 9.0684884606855545e-02
         - 8.1967262592290674e-02
         - 2.4413599476152256e-01
         - -5.0351980547429336e-02
         - 2.6492091334200142e-02
         - 1.1952128815779230e-01
         - -3.4684277820522746e-01
         - 1.4174964632126424e-01
         - 1.2203788950260695e-01
         - 3.7437458567761894e-01
         - -1.9841230625431733e-01
         - 1.6111195919275907e-02
         - 6.6091177179558244e-02
         - -3.3124428638743908e-01
         - 7.3178446051878517e-03
         - 5.2640623350458285e-02
         - 3.8734040135810666e-01
         - -2.6894707354634140e-01
         - 1.1686898887304474e-01
         - 2.4851240630577631e-01
         - -4.3757045242782056e-01
         - 5.6809549954284215e-02
         - 8.5197245567541685e-02
         - 4.0046291820775221e-01
         - -1.4536721302322697e-01
         - 3.5251338924281880e-02
         - 2.1828145982376457e-01
         - -5.0915338809494459e-01
         - -1.0533575925930778e-02
         - 8.2300258831453192e-03
         - 3.4913217965941917e-01
         - -1.0804814825344630e-01
         - 1.8731836917005021e-01
         - 1.3265376714025534e-01
         - -4.5286177100876740e-01
         - -1.2932147879734046e-01
         - 1.7361921835379929e-01
         - 3.0879375826058963e-01
         - -2.9302980729393951e-02
         - 1.0492108479965992e-01
         - -2.4328163286670951e-02
         - -2.6524198777981650e-01
         - -2.3317637055517124e-02
         - 2.4181702981067435e-01
         - 3.1317214504547963e-01
         - -1.7837397923108622e-01
         - 3.2681988219601853e-02
         - 8.0517099844844273e-02
         - -3.4431620299225019e-01
         - -2.5847758061440400e-02
         - 1.1209794842879270e-01
         - 3.1545776224633582e-01
         - -2.4447002317027694e-01
         - -3.6784693851560517e-02
         - 1.4638310749660066e-01
         - -3.7088666830151801e-01
         - 1.0502831430425619e-01
         - 1.3577134826324000e-01
         - 2.8277493676686427e-01
         - -1.0950953349545926e-01
         - 9.0284244359489188e-02
         - 1.2370669439118513e-01
         - -3.4334665114006857e-01
         - -4.0590941612121498e-02
         - 1.0344768496385269e-01
         - 3.4374835462835246e-01
         - -1.7481096065901056e-01
         - -1.4432459942564325e-02
         - 8.0413535059257094e-02
         - -4.5600648257138571e-01
         - 1.9808935840409825e-02
         - 1.2827978918780131e-01
         - 3.9359062141257034e-01
         - -1.2036597642671570e-01
         - -8.2396843912741186e-02
         - -7.4968345998739999e-02
         - -3.3560134279287263e-01
         - 2.0124070262509661e-01
         - 3.8567568299873116e-02
         - 3.1880525863518633e-01
         - -3.2381316986316896e-02
         - 7.6604955769919353e-02
         - 1.3442734157256550e-01
         - -3.3524417462359268e-01
         - 5.6988460061868716e-02
         - 1.9156587358514288e-01
         - 2.7888866187086031e-01
         - -2.2461760806760553e-01
         - -2.4483749149879053e-02
         - 6.9951510580781293e-02
         - -3.1305907516289938e-01
         - 2.8937961794730793e-02
         - 9.2032695722114588e-02
         - 4.5863275951055016e-01
         - -2.2092216830438396e-01
         - 1.3588559576447359e-01
         - 1.5076107257294233e-01
         - -4.1665385503946134e-01
         - -2.5203043936426382e-02
         - 1.4957799895944501e-01
         - 3.9681666468940024e-01
         - -1.7411031456148157e-01
         - 6.0707425833174906e-02
         - 1.0412045233559938e-01
         - -3.9728190975761168e-01
         - -3.0649173177593283e-03
         - 2.7087122390099017e-01
         - 3.0259403869672841e-01
         - -1.6217132615307855e-01
         - -2.7412013708437242e-02
         - -4.0570792747107683e-02
         - -1.7398563819218577e-01
         - 1.4075470405138171e-01
         - 2.1506777256323223e-01
         - 2.4693070660909949e-01
         - -1.3621854793374999e-01
         - 1.7921381221665877e-02
         - 8.5483217663294114e-02
         - -3.7815892324690281e-01
         - 8.3024251237567265e-02
         - 1.4433705397042920e-01
         - 3.2559799929873356e-01
         - -1.8737446711769698e-01
         - 2.9170655042691572e-03
         - 7.9031950246069238e-02
         - -3.0814345832376522e-01
         - 6.5785392416048208e-02
         - 2.2509899708518846e-01
         - 1.9764503597047151e-01
         - -1.7565095688890206e-01
         - -6.9201519366531086e-02
         - -1.7911510177815265e-02
         - -1.6723470040026109e-01
         - 1.0832313803822963e-01
         - 2.2501927628601320e-01
         - 2.5672126092726166e-01
         - -2.5249774634607280e-01
         - -8.1284128903328284e-02
         - 4.4924153453514123e-02
         - -2.3041848451467184e-01
         - 9.1006503464101454e-02
         - 2.3699735145617418e-01
         - 1.2308139854226027e-01
         - -8.3066512854355221e-02
         - -1.6335307819007677e-01
         - 1.2845984325236894e-02
         - 1.2665830455551511e-01
         - 3.5517301270763252e-01
         - 3.7414762173683502e-02
         - 1.4565051234179269e-01
         - -9.8680277026551161e-02
         - -2.2801015941119874e-02
         - 4.3783615434262936e-02
         - 2.5675446019197499e-02
         - 2.6376901571757316e-01
         - 1.2205214106216024e-01
         - 9.9270753380953286e-02
         - -6.9878000989480396e-02
         - -6.3433032625749355e-02
         - 4.8821182339511382e-02
         - -8.7225097131112692e-02
         - 2.1532394112268954e-01
         - 3.0458567990447472e-01
         - 3.0006547993605047e-02
         - 1.0537524771065944e-01
         - -1.4464763764125638e-01
         - -1.2670587281519835e-01
         - 2.9497912767755674e-01
         - 2.5990398135111525e-01
         - 1.3035395385202175e-01
         - -2.7893496896401998e-02
         - 1.7031504461287563e-02
         - -4.3031278515273212e-02
         - -3.3263794391179990e-02
         - 1.5094498821242364e-01
         - 2.0279969996101710e-01
         - 2.1140413491352267e-01
         - -5.2447389518150055e-02
         - 1.3440256647837998e-01
         - -3.8482137618108245e-02
         - -5.4892597704446378e-02
         - 2.9291358336461448e-01
         - 1.9930904913406486e-01
         - 6.3136951313918388e-02
         - 1.1466501306115810e-02
         - -4.2881778830988707e-03
         - 6.3676925269032014e-02
         - 5.1261877695440917e-02
         - -1.6422175475216466e-01
         - 7.3629970798833502e-02
         - 4.0537355793609932e-02
         - 3.1971332724564268e-02
         - 3.6772013431026734e-02
         - -4.9840446592398314e-02
         - 1.6324317200588984e-02
         - -5.0659757683250067e-02
         - 1.9563443689416296e-01
         - 9.7086390798159963e-02
         - -2.0910860973943485e-01
         - 1.5034489819436370e-01
         - -4.9565839972020638e-02
         - -8.0861577074108223e-02
         - 3.3362881713074083e-01
         - 1.7347140903821884e-01
         - 8.1477282236753767e-02
         - -2.4232184812849178e-01
         - 1.2883589389487229e-01
         - 9.0816179308757863e-03
         - -1.0098353953171420e-01
         - 2.2548494135711078e-01
         - 1.2392629411144222e-01
         - 1.9509227530686216e-01
         - -1.8148871566093802e-01
         - 1.2488707694390921e-01
         - -3.6543376862473456e-02
         - -7.1523552405827376e-02
         - 2.0131078558285456e-01
         - 1.7015357663604397e-01
         - 1.1735861450902173e-01
         - -1.0430165052321436e-01
         - 4.9089957050271887e-02
         - -7.5894183311977772e-03
         - -9.3225792377413502e-03
         - 5.8011315985339526e-03
         - 1.2779070616502197e-02
         - -1.0754764327777982e-02
         - -1.1961576358237604e-02
         - 9.2797553757307485e-02
         - 2.4121323113678848e-02
         - -1.4285791859386307e-03
         - -3.8557897010935725e-02
         - 1.3289073693041109e-01
         - 1.3804306396215368e-01
         - -3.0971438612296565e-01
         - 2.2193559376345065e-01
         - -8.9165433557775203e-02
         - -9.9757262470981073e-02
         - 3.0860591123199116e-01
         - 1.5564160647838199e-01
         - 1.2897935863458518e-01
         - -1.0243139326794204e-01
         - 1.2225817381332008e-01
         - -4.2133227157121101e-04
         - -4.7047316330235504e-02
         - -3.4995272663565628e-03
         - 4.8567637946048507e-02
         - -3.9848978085336446e-02
         - 2.0461936134963651e-02
         - 2.7141316762338358e-02
         - 2.8719205813088344e-02
         - 5.9065813848336611e-02
         - -1.4801807029999794e-01
         - 1.0565531270779849e-01
         - 9.3458119433852418e-02
         - -2.4926280541960139e-01
         - 1.7928884583036028e-01
         - -5.0185107211574230e-02
         - -5.7130984874882565e-02
         - 1.5946991040443201e-01
         - 7.7441309893192617e-02
         - 9.2883841937718439e-02
         - -4.5793241625541142e-01
         - 2.0397341857806947e-01
         - 1.9187631501275889e-02
         - -6.7416382990380344e-02
         - 3.3364017362749199e-01
         - 1.1013226198109335e-01
         - 1.0272221594686465e-01
         - -3.2786244224041566e-01
         - 2.3122041013622588e-01
         - -4.5309471911172031e-02
         - -7.8930445285016457e-02
         - 4.4050268306333340e-01
         - 1.4831980506473599e-01
         - -5.4162760535125185e-02
         - 4.7556193165302102e-02
         - -3.4828365097110098e-02
         - 7.5123496431786965e-02
         - 1.2577905096189040e-01
         - -3.5155685507765400e-01
         - -4.6100519697168324e-03
         - -9.3363494096990584e-03
         - -2.1617371465285906e-01
         - 1.2420227770740813e-01
         - 2.5919079578748595e-02
         - 3.0331631430389919e-02
         - 9.5474526316912556e-02
         - 9.9669330644092696e-02
         - -2.0068986373268431e-02
         - -2.1489337698420954e-01
         - 1.0771579342345451e-01
         - 8.1392130609662210e-03
         - -1.0491687390463173e-02
         - -1.0689123616041431e-03
         - 2.9499319018756031e-02
         - 8.2559639533100637e-02
         - -2.7050017712391544e-01
         - 1.2246495764240070e-01
         - -6.6013346658085281e-02
         - -1.7213794847192442e-02
         - 7.7612575595714134e-02
         - 1.5940948489611206e-01
         - -4.4891097762353458e-03
         - -3.1751535313515829e-02
         - 5.9377317593963544e-02
         - 1.3811193453974788e-01
         - 1.3055911513214818e-01
         - -1.8223156588140693e-01
         - 4.2343181632809243e-02
         - 6.1455200747864133e-02
         - -2.6407571979939931e-01
         - 2.2346654490798235e-01
         - -5.9395766049047158e-02
         - -9.7360106227016435e-02
         - 3.0294867773369905e-01
         - 1.0989298575895429e-01
         - 5.2655841493031090e-02
         - -1.1355668310928491e-01
         - 1.5009094705883017e-01
         - 2.8907339580218315e-02
         - -2.9745165454136618e-02
         - -3.4223732565198492e-02
         - 2.8265333431716427e-02
         - -6.1923879299316566e-02
         - -3.9076976353707653e-02
         - 4.5436904270797600e-02
         - 6.5159365358148411e-02
         - 8.9459505625742189e-02
         - -1.7311920170185138e-01
         - 6.2181517696701570e-02
         - 3.2033950571414692e-02
         - -3.4703423388672239e-01
         - 1.8142060057379852e-01
         - 5.2370491496715136e-03
         - -2.5354794300654671e-02
         - 1.5637699312446310e-01
         - 1.7978686557691567e-02
         - -6.2629399142014000e-02
         - -3.5035332378714112e-01
         - 1.5235059528753331e-01
         - 7.6494873360574644e-02
         - -8.1493064828531817e-04
         - 1.2254239356560709e-01
         - 8.1198346907607639e-03
         - 9.7009188600832172e-02
         - -4.5146945375767167e-01
         - 2.9365731508439152e-01
         - -4.8022463261043397e-02
         - -1.3934547793569668e-01
         - 4.8211228978184861e-01
         - 1.1399945329585845e-01
         - -4.6757847985123682e-02
         - -2.3608367520552221e-02
         - 1.6275253729076965e-02
         - 9.3462032304922393e-02
         - 7.1534472295032195e-02
         - -2.8386877546961592e-01
         - -8.7304533903112772e-03
         - -4.9017169478937833e-02
         - -7.9108201234183453e-02
         - 8.7766069527754537e-02
         - 6.3703635331043382e-02
         - 8.8038960607072531e-02
         - -6.2989764913634241e-02
         - 6.6379144797589870e-02
         - -3.0318227053622557e-02
         - -2.9859309009736856e-01
         - 1.0278626115688443e-01
         - -3.4737157733636850e-02
         - -1.9059021473114317e-02
         - 1.9562943627140714e-02
         - 5.0417503962836618e-02
         - 2.8695036643600739e-02
         - -3.2391460023005109e-01
         - 1.3056280030197370e-01
         - -3.6861433611630495e-02
         - -1.7936123752159080e-02
         - 7.1831902490038929e-02
         - 1.2668258441873562e-01
         - -1.2231001976322337e-02
         - -2.5002966821357400e-02
         - 5.9819549076718263e-02
         - 1.4188007901411795e-01
         - 1.4148563727648131e-01
         - -1.9520039250580165e-01
         - 3.1979998091964321e-02
         - 7.5147105660278879e-02
         - -5.0994425826143996e-01
         - 2.7827307362458337e-01
         - -4.6518374126258130e-02
         - -1.5314295829123445e-01
         - 4.1574017155847975e-01
         - 1.3866287908528555e-01
         - -2.1598013984588573e-03
         - -3.2108246619294106e-01
         - 1.6786559231624015e-01
         - 1.0793933024080959e-01
         - -6.4370880675374303e-02
         - 2.1891086672273494e-01
         - 1.2086108780555962e-02
         - -1.1903300827125207e-02
         - -2.3369312619714885e-01
         - 1.6205571191474261e-01
         - -6.4946289488516636e-03
         - -2.7566572167372363e-02
         - 7.6060723355841686e-02
         - 4.6689261839911601e-02
         - 1.3690907183062909e-02
         - -1.5164077609699755e-01
         - 1.3303077404034172e-01
         - 5.6750025302696058e-02
         - -4.1735079370037925e-02
         - -6.1437351859087970e-03
         - 3.7258288820145528e-02
         - -4.1836668663124299e-02
         - -8.2111084960812125e-03
         - 8.6079040409920218e-02
         - 1.3991580562734765e-02
         - 4.0608025899297726e-02
         - -1.6784708831850645e-01
         - 1.1463295298157918e-01
         - -6.2379676663445141e-02
         - -2.5261800692681124e-01
         - 1.2258367080071816e-01
         - 2.2546053618376943e-02
         - 3.8869636537818358e-02
         - 5.9433899951794399e-02
         - 4.7872058775896897e-02
         - 1.6219291509386027e-02
         - -4.1131964588858455e-01
         - 2.9266063121434188e-01
         - 5.3445061824054375e-02
         - -1.7893627511006491e-01
         - 3.9572935650033780e-01
         - 1.1030416109382257e-01
         - 2.1689444182168588e-02
         - -2.4672595149631896e-01
         - 1.5959775494039941e-01
         - 9.2153580911357655e-02
         - -2.3390638584564413e-02
         - 1.4895635117335035e-01
         - 2.7888121231487276e-02
         - 1.1389115742190419e-02
         - -2.2598370469234422e-01
         - 1.2596517476595967e-01
         - 1.9667257646647597e-02
         - -1.0865995337481549e-02
         - 6.3831493004797735e-02
         - -2.1408297857659350e-02
         - -1.2282607500176779e-02
         - -9.9214393053268443e-02
         - 1.8252003812756107e-01
         - 4.3337818897606163e-02
         - -6.2867287937423411e-03
         - -3.5781500325754993e-02
         - 1.0721041687224366e-01
         - 6.4346310026467457e-02
         - -2.0975387750472005e-01
         - 1.5756637032794335e-01
         - -2.7999429244539978e-02
         - -8.2661483406734591e-03
         - 1.7240934653473383e-01
         - 2.1093155919371284e-01
         - -6.9987715802777392e-02
         - -2.8542556689838666e-01
         - 1.5407921044462997e-01
         - -1.1313096368004783e-02
         - -3.3850402160701405e-02
         - 7.8644924390146059e-02
         - 5.3214064250102687e-02
         - -7.5369132583232634e-02
         - -2.4883872913203242e-01
         - 1.2783847252648728e-01
         - 1.1958065550075939e-01
         - -3.9364315577600860e-02
         - 2.2732752026670248e-02
         - -2.1266003793892742e-02
         - -4.4752396400576419e-02
         - -1.8213639261748180e-01
         - 1.6017919705695088e-01
         - -6.6697827321863967e-02
         - -5.9327747074630323e-02
         - 1.3187863186299292e-01
         - 6.9108436380269950e-02
         - -5.4323931598913119e-02
         - -1.8526928699445590e-02
         - 4.8891835482143958e-02
         - 9.4766672427266621e-02
         - 4.4781728371027861e-02
         - -2.2498548710120123e-01
         - -2.3594553317854618e-02
         - -6.0451091870202020e-02
         - -5.0751358309256187e-02
         - 7.7444962617090718e-02
         - 4.0301802203499361e-02
         - 4.2153996525715984e-02
         - -2.3290973579957575e-01
         - 7.6153713881987939e-02
         - -1.2249756542052239e-02
         - -4.1058459408810766e-01
         - 2.1635543444921188e-01
         - 1.0551111290475272e-02
         - -7.2182091925894601e-02
         - 2.2744478395551737e-01
         - 8.4307571564265341e-02
         - -2.9139614515573432e-02
         - -3.6160895217265870e-01
         - 2.8018464408998189e-01
         - 8.9762589519315150e-02
         - -1.8206645710975375e-01
         - 3.8652088812153579e-01
         - 6.9279215958654675e-02
         - -1.0369793098686481e-01
         - -9.4202046884681812e-02
         - 1.0082516403453809e-01
         - 9.5222507964692407e-02
         - 4.4747987039778697e-02
         - 4.7261600350264069e-02
         - 7.3828819814648313e-03
         - -1.6410493933884239e-02
         - -1.5162140727876913e-01
         - 9.2939673327825947e-02
         - 3.8835921852643868e-02
         - -8.1373492655057431e-04
         - -5.8868244753340959e-02
         - -1.7335444087643655e-02
         - -7.1627543574986394e-02
         - 2.1045369623726485e-02
         - 1.1558701024436413e-01
         - 7.9920938541250583e-02
         - 4.1482961633274779e-02
         - -1.9592527643465010e-01
         - 6.4143210507540085e-02
         - -1.3400593451415896e-01
         - -4.6975562389684276e-02
         - 5.9909035127086924e-02
         - 3.7932350591065117e-02
         - 3.1358916033002449e-02
         - -1.0628016848388651e-01
         - 2.8105133692768687e-02
         - -3.8731258402728112e-02
         - -3.5149791344956174e-02
         - 4.7623240543124758e-02
         - 9.3631350288073581e-02
         - 3.1342157146004627e-02
         - -2.5088642374700088e-01
         - -2.8695867852487792e-02
         - -1.6824758937985312e-01
         - 1.1364044261206674e-01
         - -2.1927160447233789e-02
         - 1.3133205301505496e-01
         - 1.5615932536042254e-01
         - -4.3647934866172999e-01
         - -3.3066380270268959e-02
         - -8.8288087198290427e-02
         - -2.1811475257285642e-01
         - 1.0518177056163724e-01
         - 3.7398626459797579e-02
         - -1.2420872928321764e-02
         - -8.2519641535649724e-02
         - 3.5760155026141466e-03
         - -6.1371603229347912e-02
         - -4.0359397038188455e-01
         - 1.8070360639518218e-01
         - 7.0429178481243873e-02
         - -9.8656685031258771e-03
         - 1.6891154954385981e-01
         - 4.6127388205865684e-02
         - -1.2188875581033987e-01
         - -2.1826852592498169e-01
         - 1.1534491220230766e-01
         - 9.3846444697937251e-02
         - 2.5037760514988842e-02
         - 7.6062805044985152e-02
         - -3.8468868578687239e-03
         - -1.6238159795919127e-01
         - 9.7408859734672684e-02
         - -4.1449597160340426e-02
         - 1.3489495085380226e-01
         - 1.4221559477470172e-01
         - -4.5435180358854693e-01
         - -4.9730966784281461e-02
         - -1.3129935744122986e-01
         - -9.9684674358103492e-02
         - 7.8235174193771587e-02
         - 1.1697985111363907e-01
         - 1.1858878026564380e-01
         - -1.9012387338602005e-01
         - 2.6789262211641008e-03
         - -1.9232495135106389e-01
         - -1.3155131517881580e-01
         - -1.9280148548095968e-02
         - 9.7822552810749502e-02
         - 1.2455495104763781e-01
         - -2.8273715092235041e-01
         - -6.0252964355060043e-02
         - -5.4230793437752195e-02
         - -2.1821936473482262e-01
         - 9.4310527298956878e-02
         - 1.3666854692264190e-02
         - 2.6393896766132033e-02
         - -7.4383150456121278e-03
         - 9.9246551717652204e-02
         - -5.9217627535089315e-02
         - -4.3961701585566469e-02
         - 3.1163957077087856e-02
         - 1.4869990374489236e-01
         - 1.5014147689740051e-01
         - -2.2468298243309381e-01
         - 2.3317178429347864e-02
         - -1.1741207808326033e-01
         - -7.5904387941912649e-02
         - 3.3021616999368869e-02
         - 5.4850986146973556e-02
         - 6.3149460452625039e-02
         - -1.4358685491485604e-01
         - -5.4721596979850750e-03
         - -7.9742425726317970e-02
         - 2.3016378962060390e-02
         - 7.0995320152935401e-02
         - 9.7603897326074870e-02
         - 3.9267448280133468e-02
         - -2.6075321376945260e-01
         - -3.7854990382354604e-02
         - -1.6343868313051102e-01
         - 1.0075679579373929e-01
         - 2.2255071284806922e-02
         - 1.0548954231840275e-01
         - 1.3022426465125006e-01
         - -3.2631371238846152e-01
         - -6.6163886255115314e-03
         - -1.5242687543922448e-01
         - -1.9855406943319578e-01
         - 7.7989942633970744e-02
         - 6.5503335082372424e-02
         - 2.2075903938478383e-02
         - -1.2166988049513400e-01
         - -3.3805791085911904e-02
         - -1.5667740396127106e-01
         - -2.1799816828996865e-01
         - 1.1217136920499404e-01
         - 1.7966523949723201e-01
         - 5.9231843328889387e-02
         - 2.8374388881057463e-03
         - -5.6334413666864154e-02
         - -1.2969589081665922e-01
         - -1.7470119435018255e-01
         - 1.2065075194433771e-01
         - 6.3781094318101070e-02
         - 5.6097981860372778e-02
         - -2.6929540951014234e-02
         - 4.0609072489474199e-03
         - -1.2400123002939510e-01
         - 6.1469508755997562e-02
         - -7.8222496498947594e-03
         - 8.4092372747910371e-02
         - 1.0475135053512455e-01
         - -3.7174241047394968e-01
         - -3.3358265219084943e-02
         - -1.4434674057061447e-01
         - 4.2608833961827353e-02
         - 6.3558204649397793e-02
         - 1.3776716208134202e-01
         - 1.3985654359134064e-01
         - -2.4171575768211748e-01
         - -1.9735654150832789e-02
         - -1.7394524141144288e-01
         - -1.2950547368356435e-01
         - 3.0026691394847798e-02
         - 6.3706562212560228e-02
         - 1.0139045345207273e-01
         - -2.4117649462970395e-01
         - -3.2476758709493229e-02
         - -7.2677325538364770e-02
         - -2.4510642579545719e-01
         - 3.7508090733377228e-02
         - 6.4297575155715631e-02
         - 5.1954349143633241e-02
         - -1.1690774289310693e-01
         - 2.9090423615764950e-02
         - -4.2752010477750971e-02
         - -6.4919856971255518e-02
         - 6.0158385960092674e-02
         - 1.3646953948884538e-01
         - 1.3371483058991832e-01
         - -2.0309541028244671e-01
         - 3.4223275739945588e-02
         - -5.1408775350085256e-02
         - -2.2995560019394065e-01
         - 7.5740543174671771e-02
         - 9.5173506431119936e-02
         - 8.1247673298634054e-03
         - -9.2607938047350583e-02
         - -1.9753512198191492e-02
         - -1.4092259109788741e-01
         - -1.5591207535696802e-01
         - 6.7580593943760703e-02
         - 2.1834094199436666e-01
         - 2.4511102102745638e-02
         - -9.0494096097067281e-02
         - -6.0555726156125318e-02
