%YAML:1.0
---
opencv_ml_ann_mlp:
   format: 3
   layer_sizes: [ 351, 175, 35, 1 ]
   activation_function: SIGMOID_SYM
   f_param1: 6.6666666666666663e-01
   f_param2: 1.7159000000000000e+00
   min_val: -9.4999999999999996e-01
   max_val: 9.4999999999999996e-01
   min_val1: -9.7999999999999998e-01
   max_val1: 9.7999999999999998e-01
   training_params:
      train_method: BACKPROP
      dw_scale: 1.0000000000000000e-02
      moment_scale: 8.0000000000000004e-01
      term_criteria:
         epsilon: 1.0000000000000000e-02
         iterations: 100000
   input_scale:
      - 6.4274191411345025e-04
      - -5.7646739532580871e-01
      - 2.8979347454351862e-04
      - -5.7904667385778630e-01
      - 1.6988501263132157e-04
      - -5.5511952583950808e-01
      - 1.9886761125856227e-04
      - -5.7843404795237308e-01
      - 2.8342128950927079e-04
      - -5.4111596319482524e-01
      - 2.0312162898628128e-04
      - -4.9372525366396147e-01
      - 1.4365823133406739e-04
      - -4.2527680652672561e-01
      - 3.0675986949170475e-04
      - -5.5630028739788495e-01
      - 1.0644968833652781e-03
      - -7.0600210623584581e-01
      - 4.5958675786385652e-04
      - -5.2440381641153133e-01
      - 5.1070751853864367e-04
      - -5.1653538820897837e-01
      - 5.6857294829044892e-04
      - -5.8931239929196300e-01
      - 4.4970130629230483e-04
      - -4.8811216816829217e-01
      - 4.3485346245582024e-04
      - -4.6152517086373468e-01
      - 3.9103112598096222e-04
      - -4.3884176162771338e-01
      - 3.5377048680496987e-04
      - -4.6264199745633483e-01
      - 3.2021710399021203e-04
      - -4.0650734860832832e-01
      - 2.7411282166613229e-04
      - -3.6867304314660931e-01
      - 3.5801192367778133e-04
      - -4.1564807082194755e-01
      - 3.7830985809627184e-04
      - -4.4344762994299053e-01
      - 3.5517289426653849e-04
      - -4.2375129882302759e-01
      - 4.4730457519040901e-04
      - -4.8754199935814757e-01
      - 4.7452593208253832e-04
      - -4.8205308939468822e-01
      - 5.8142298421204406e-04
      - -5.3426211173394655e-01
      - 6.0219534954800819e-04
      - -5.2102420378959202e-01
      - 2.1894747700834188e-03
      - -7.1153928986714698e-01
      - 5.9903467107424221e-04
      - -4.7446686146835509e-01
      - 5.8490948480425988e-04
      - -4.5890646886255398e-01
      - 6.6744397392860669e-04
      - -5.4039796765899384e-01
      - 5.5885950859260031e-04
      - -5.0516643090451119e-01
      - 4.7491962556955164e-04
      - -4.9304575628610087e-01
      - 4.1651130624787889e-04
      - -4.7152896637533231e-01
      - 2.3727842022276311e-04
      - -4.1966921774819665e-01
      - 2.2844773897150798e-04
      - -3.7675072728655584e-01
      - 2.5246630591503058e-04
      - -3.9574920189250568e-01
      - 3.4333093082159139e-04
      - -4.4376262410469103e-01
      - 4.6732504080295568e-04
      - -4.9791186055037440e-01
      - 4.6207339323107527e-04
      - -4.3643710281438503e-01
      - 2.5551528747523675e-04
      - -2.6626714037559029e-01
      - 5.4108716155671201e-04
      - -4.8706866268154581e-01
      - 4.9111351201460134e-04
      - -4.9747977644545566e-01
      - 4.2811984396307946e-04
      - -5.0319448752497964e-01
      - 1.7425561054720041e-03
      - -5.9592513384797818e-01
      - 3.8052503730029457e-04
      - -4.3154427301698461e-01
      - 4.7781029356983072e-04
      - -5.1725255499429557e-01
      - 4.6175005483066928e-04
      - -5.4378235105288175e-01
      - 3.9938032160630188e-04
      - -5.0046988962866501e-01
      - 3.9604091609977472e-04
      - -4.9883506066150785e-01
      - 4.0858224575446067e-04
      - -5.0163108891004793e-01
      - 3.8507305653372626e-04
      - -4.5639698969194753e-01
      - 3.8718745145119597e-04
      - -4.3878956595428020e-01
      - 4.2559248771869938e-04
      - -4.4834491075761207e-01
      - 4.8613370433344175e-04
      - -4.7378544136826611e-01
      - 5.6672995023284388e-04
      - -4.9336824360184250e-01
      - 5.4984250641704874e-04
      - -4.9217263047189186e-01
      - 5.8113892345869279e-04
      - -4.8762919798966420e-01
      - 6.4688279925207413e-04
      - -5.0865877753865940e-01
      - 6.0122293286230997e-04
      - -4.8575661306438916e-01
      - 5.2519476742678422e-04
      - -4.4732289159884259e-01
      - 2.3363404780888703e-03
      - -5.4103905124184704e-01
      - 5.3942163903509231e-04
      - -4.1983940939076225e-01
      - 6.1124797288042508e-04
      - -4.2408355006800535e-01
      - 6.4063454150630438e-04
      - -4.0078590829886357e-01
      - 7.2576157871653531e-04
      - -4.0023916574831481e-01
      - 7.1638525549861352e-04
      - -3.8867115578833333e-01
      - 7.7439731217535709e-04
      - -4.0389917403288322e-01
      - 8.2798090706608064e-04
      - -4.9166405256459622e-01
      - 7.6581653579428481e-04
      - -3.9133919597261008e-01
      - 7.2605339602118220e-03
      - -6.0917206714429228e-01
      - 7.1675514988264136e-04
      - -3.6040842900211928e-01
      - 6.4044779960386287e-04
      - -3.4466385597593019e-01
      - 6.3474428610633125e-04
      - -3.5511788046800707e-01
      - 5.7523157496542439e-04
      - -3.3787316480167018e-01
      - 6.4363750880294830e-04
      - -3.5846788796261031e-01
      - 6.6975373331636492e-04
      - -3.5971555533316563e-01
      - 7.1573245212558335e-04
      - -3.7404471993161359e-01
      - 7.7086997199417176e-04
      - -3.6980381589269984e-01
      - 7.6786007301457245e-04
      - -3.6235672250980289e-01
      - 7.9897294555594713e-04
      - -3.5430522944123910e-01
      - 8.4796361326096564e-04
      - -3.7260134206940781e-01
      - 8.8660050384347180e-04
      - -3.7344519098885753e-01
      - 9.1125910107774739e-04
      - -3.6873637027994921e-01
      - 1.1449293437417103e-03
      - -4.0853650761434729e-01
      - 1.1040387831648803e-03
      - -3.8078528835957171e-01
      - 1.2185354747190123e-03
      - -3.9656056197702938e-01
      - 4.8285747473988888e-03
      - -5.1453336304878905e-01
      - 1.5361942554092476e-03
      - -3.9243585253610691e-01
      - 1.8446693321983174e-03
      - -4.1359174360608547e-01
      - 1.7891977272787413e-03
      - -4.0459113648989475e-01
      - 1.5594904004067674e-03
      - -3.5419964722099856e-01
      - 1.4976592881907186e-03
      - -3.4078690737813389e-01
      - 1.5990824033247490e-03
      - -3.5000537328260595e-01
      - 2.3002982275614307e-03
      - -4.5030769425623907e-01
      - 4.2439679535531951e-03
      - -5.3778608613837486e-01
      - 6.6262424327704844e-03
      - -5.6849218090877818e-01
      - 9.6196482869907781e-03
      - -6.9553765369385023e-01
      - 1.0500809734454993e-02
      - -7.5284096595211569e-01
      - 1.0791218950732359e-02
      - -7.4585070812660847e-01
      - 1.0319302241610375e-02
      - -7.3061540803432534e-01
      - 1.0801560106844292e-02
      - -8.2888322388522351e-01
      - 9.9530056656777725e-03
      - -8.4868059248248273e-01
      - 9.5846953173158948e-03
      - -7.4597874146813448e-01
      - 1.3632344972690915e-02
      - -7.5969092660539506e-01
      - 1.3658160761862341e-02
      - -7.7912911569729493e-01
      - 1.3487816848875201e-02
      - -8.1927557853467881e-01
      - 1.3391044910981725e-02
      - -8.4588463898807731e-01
      - 1.3367902659581571e-02
      - -7.8836033546460460e-01
      - 1.3419235801317172e-02
      - -7.9750391280961197e-01
      - 1.2838914024785094e-02
      - -8.2994665398393697e-01
      - 9.0943398584758892e-03
      - -8.0060153432259473e-01
      - 1.1443737146279279e-02
      - -7.7242554463541457e-01
      - 1.6272502989723676e-02
      - -7.9262522065790897e-01
      - 1.6380783527364422e-02
      - -8.1160369466305615e-01
      - 1.6200029224041495e-02
      - -8.5133454897017746e-01
      - 1.5402045240047194e-02
      - -8.1672955542214243e-01
      - 1.4756261037532779e-02
      - -8.1434799307757599e-01
      - 1.4098165938405400e-02
      - -8.5357935213227376e-01
      - 1.2457422428881624e-02
      - -8.3848738586607396e-01
      - 1.2347955687177904e-02
      - -7.6437584513743251e-01
      - 1.7865647440833153e-02
      - -7.8933895333093862e-01
      - 1.6862911412458114e-02
      - -7.9897405477418593e-01
      - 1.6472220304863693e-02
      - -8.2459974395296043e-01
      - 1.5437876747932539e-02
      - -8.5837024583059074e-01
      - 1.5761041370146073e-02
      - -8.1236111497429031e-01
      - 1.6247629807808039e-02
      - -8.4969447457087821e-01
      - 1.5159197927048980e-02
      - -8.6659980381203117e-01
      - 9.8297561539568354e-03
      - -7.8705573900446035e-01
      - 1.3498967089646898e-02
      - -8.1147392226122939e-01
      - 1.8151574213043021e-02
      - -8.3450754755362644e-01
      - 1.6458772926591352e-02
      - -8.3326132877599057e-01
      - 1.1709831792046802e-02
      - -7.1696908739176668e-01
      - 1.4614088597341892e-02
      - -8.1945329283358537e-01
      - 1.5021791041558237e-02
      - -8.3275864385633958e-01
      - 1.2586174432245278e-02
      - -8.6135130818044392e-01
      - 1.0783308072095720e-02
      - -8.4126200149491059e-01
      - 1.4491993869975933e-02
      - -8.5744393715977529e-01
      - 1.9622006749332902e-02
      - -8.2565279513552881e-01
      - 2.2536467246050913e-02
      - -5.5506985153838884e-01
      - 2.3149916561996341e-02
      - -8.0127058141113872e-01
      - 2.1684961895448874e-02
      - -8.3371837760392187e-01
      - 1.9920126953215170e-02
      - -8.5262500970565680e-01
      - 2.1129108347053574e-02
      - -8.2785126030925382e-01
      - 2.1517543249509597e-02
      - -8.4905177559199396e-01
      - 1.9231925705169465e-02
      - -8.5511139316542473e-01
      - 1.2496716998441936e-02
      - -7.8310092823796562e-01
      - 1.7655754386493548e-02
      - -8.0427766410491819e-01
      - 2.4571562769283670e-02
      - -7.9555227837644715e-01
      - 2.4194811470442862e-02
      - -8.1018248045543384e-01
      - 2.3898471141004657e-02
      - -8.5603832715439920e-01
      - 2.3521885100838729e-02
      - -8.3185333340743950e-01
      - 2.2528325742639306e-02
      - -8.3202452824775996e-01
      - 2.1379927595311356e-02
      - -8.7014907932028640e-01
      - 1.9316717989554377e-02
      - -8.7937832016072581e-01
      - 1.9622460454179307e-02
      - -8.1633570941902600e-01
      - 2.3935027069803813e-02
      - -7.8441887168156033e-01
      - 2.5579315549223564e-02
      - -8.0379510404598309e-01
      - 2.4374745998385870e-02
      - -8.3721091354173105e-01
      - 2.1884322912523631e-02
      - -8.5736220923533624e-01
      - 2.3096502357005305e-02
      - -8.3181913063903701e-01
      - 2.3485745393003656e-02
      - -8.5605651601501087e-01
      - 2.1130097926471175e-02
      - -8.6070834132102092e-01
      - 1.3450749696359810e-02
      - -7.8058843182526982e-01
      - 1.9243772730903969e-02
      - -8.1233773508362139e-01
      - 2.6620761378060704e-02
      - -8.0681821512607677e-01
      - 2.5774773682035356e-02
      - -8.1974919466766227e-01
      - 2.4717574396959173e-02
      - -8.6015312584002646e-01
      - 2.5017753821325567e-02
      - -8.5004634502602139e-01
      - 2.2999019805943256e-02
      - -8.2246114604958975e-01
      - 2.1824719591842363e-02
      - -8.8289243794226158e-01
      - 1.9056834064767353e-02
      - -8.8870123452337846e-01
      - 1.9196914971192292e-02
      - -7.9359027366971557e-01
      - 2.5969175835860083e-02
      - -8.0081844123849333e-01
      - 2.6464457152151774e-02
      - -8.0271637021275299e-01
      - 2.5319510307002531e-02
      - -8.4329133334760520e-01
      - 2.3729180016643477e-02
      - -8.5665916487189642e-01
      - 2.4980326337083952e-02
      - -8.2957208049768139e-01
      - 2.4272746444956930e-02
      - -8.2199362827502864e-01
      - 2.2578913771994270e-02
      - -8.5541767370224897e-01
      - 1.4447575215902220e-02
      - -7.8138892495225942e-01
      - 2.0242988810859293e-02
      - -8.0370632900076033e-01
      - 2.7656645937828534e-02
      - -7.9388997942623907e-01
      - 2.7352549143386643e-02
      - -8.1267754554403859e-01
      - 2.6980228148910972e-02
      - -8.6425620517395207e-01
      - 2.5972965227177344e-02
      - -8.3266617320143599e-01
      - 2.5021928536429986e-02
      - -8.4018542859672751e-01
      - 2.3258371654863802e-02
      - -8.7025461736594156e-01
      - 2.0359939302308654e-02
      - -8.5478069833288639e-01
      - 2.0855364473045396e-02
      - -7.9619255389612764e-01
      - 2.7726267790366837e-02
      - -7.8840310007771264e-01
      - 2.7701069999379314e-02
      - -8.0848179583222479e-01
      - 2.6386731283359340e-02
      - -8.3355251208572878e-01
      - 2.4001179824947726e-02
      - -8.5875689974974023e-01
      - 2.4981130480067743e-02
      - -8.2804933542594039e-01
      - 2.5498385476094971e-02
      - -8.6180937695301496e-01
      - 2.2986945660121997e-02
      - -8.6256390278967576e-01
      - 1.4456929147936894e-02
      - -7.7696979078288508e-01
      - 2.0817487985661274e-02
      - -8.2397766671697226e-01
      - 2.7645118380526364e-02
      - -8.2519406181551958e-01
      - 2.5815226043765103e-02
      - -8.2957884860768316e-01
      - 2.1056429897555403e-02
      - -7.8493831883814902e-01
      - 2.4027230028704431e-02
      - -8.5219588453015793e-01
      - 2.3358025479893702e-02
      - -8.3403448803037283e-01
      - 2.0299830320892748e-02
      - -8.6856304811169915e-01
      - 1.7744295752058683e-02
      - -8.6730245464814293e-01
      - 2.2026878279485018e-02
      - -8.5131519385875198e-01
      - 2.8639699073767622e-02
      - -8.1661534914018086e-01
      - 3.1366679600456263e-02
      - -7.9007465328949711e-01
      - 3.0630331689970518e-02
      - -8.0053150193491573e-01
      - 3.0433128687716117e-02
      - -8.5695013985482504e-01
      - 2.9325850165051955e-02
      - -8.1685616389448779e-01
      - 2.8277169253224693e-02
      - -8.2583516179719174e-01
      - 2.6857129986064921e-02
      - -8.6641738999329487e-01
      - 2.3943427710612301e-02
      - -8.6785583777493058e-01
      - 2.5348158250602416e-02
      - -8.3381476673083388e-01
      - 3.0252749431950950e-02
      - -7.8188245030476411e-01
      - 3.1500570893794454e-02
      - -7.9303538080883973e-01
      - 2.9874578215803194e-02
      - -8.3327239911009598e-01
      - 2.6764523117426314e-02
      - -8.5249486518026740e-01
      - 2.8124507063928227e-02
      - -8.2346620942799698e-01
      - 2.8701994380146423e-02
      - -8.5556598560800612e-01
      - 2.5252960889487502e-02
      - -8.5260153414224471e-01
      - 1.6162800114488316e-02
      - -7.8001841512905967e-01
      - 2.2521777045393911e-02
      - -7.9327004003745583e-01
      - 3.1236242715558252e-02
      - -8.0048444650979245e-01
      - 2.9438663924625758e-02
      - -7.9186746774762629e-01
      - 2.9019399179904252e-02
      - -8.4596754837498389e-01
      - 2.9365773686983093e-02
      - -8.3372631689035315e-01
      - 2.8250205528901003e-02
      - -8.4420145328214991e-01
      - 2.6146698779541844e-02
      - -8.6412450445622280e-01
      - 2.4538081115474356e-02
      - -8.8917404378222498e-01
      - 2.4997953381400061e-02
      - -8.3181798562683051e-01
      - 3.0692780914804835e-02
      - -7.8206204708970373e-01
      - 3.0679404862582506e-02
      - -8.1127117190774889e-01
      - 2.8638930086177607e-02
      - -8.3398611958838509e-01
      - 2.5802918064278358e-02
      - -8.5212958102499103e-01
      - 2.5632313657731415e-02
      - -7.7301067887205688e-01
      - 2.7685668320295561e-02
      - -8.5656436991119589e-01
      - 2.4630207273289136e-02
      - -8.7401589861937778e-01
      - 1.1524477369965272e-02
      - -7.0489157622413168e-01
      - 1.9560476241418209e-02
      - -7.2708249628814903e-01
      - 2.6948126408962783e-02
      - -7.4992857954225878e-01
      - 2.4345064261880794e-02
      - -7.2720528689740527e-01
      - 2.7894103894689659e-02
      - -8.2863013074276970e-01
      - 3.0393698569456999e-02
      - -8.4406264485292481e-01
      - 2.7384913252857114e-02
      - -7.9053892371569823e-01
      - 2.7885758803639082e-02
      - -8.7876406224304981e-01
      - 2.4846093676387050e-02
      - -8.7803781783926316e-01
      - 2.6464914076790844e-02
      - -8.4314243932041955e-01
      - 3.1480283454452175e-02
      - -7.8476059421136013e-01
      - 3.2054296492251118e-02
      - -8.1324362602489308e-01
      - 3.0320744918380622e-02
      - -8.4409119776983654e-01
      - 2.6401101724136660e-02
      - -8.5989342657058676e-01
      - 2.7399553168579487e-02
      - -8.2639786098701984e-01
      - 2.6750604358800015e-02
      - -8.4108652912524751e-01
      - 2.3531412726784624e-02
      - -8.4173216136685158e-01
      - 1.5760327418348572e-02
      - -7.8515104795208124e-01
      - 1.9879248843234183e-02
      - -7.4421098290513432e-01
      - 2.6199944293788534e-02
      - -7.4788836582529217e-01
      - 2.6954072433802011e-02
      - -7.7187086870322608e-01
      - 2.6667176262153352e-02
      - -8.0748152809059226e-01
      - 2.7276592398456419e-02
      - -8.1026432977471552e-01
      - 2.7681347360329005e-02
      - -8.5515314028201661e-01
      - 2.5798016908325810e-02
      - -8.7548428221946706e-01
      - 2.3885621235643077e-02
      - -8.8069347264791276e-01
      - 2.4778529294417973e-02
      - -8.5974588938381691e-01
      - 2.9279565450082243e-02
      - -7.8098759271954066e-01
      - 2.6335644909549503e-02
      - -8.2323743575333408e-01
      - 1.7732610548788171e-02
      - -6.9729818863878190e-01
      - 1.7406706250087639e-02
      - -7.8069901778771089e-01
      - 2.3584446508912622e-02
      - -8.6550860539650565e-01
      - 2.1037917597629199e-02
      - -8.3873016900128028e-01
      - 1.6609120322102836e-02
      - -8.0180821900161880e-01
      - 4.4709501344816953e-03
      - -5.4390655953743461e-01
      - 2.2608052576601308e-02
      - -8.2103388055996385e-01
      - 3.7059996362445093e-02
      - -6.0001404541512904e-01
      - 5.9238367721292061e-02
      - -4.8696040095075188e-01
      - 3.5042203269886892e-02
      - -7.7750969405355819e-01
      - 2.9376300533385705e-02
      - -8.4426398415683834e-01
      - 2.9991274162488906e-02
      - -8.6961893673682822e-01
      - 2.6184314060172124e-02
      - -8.1896794692348951e-01
      - 3.3293178614202147e-02
      - -8.3050870995531734e-01
      - 3.2159411288061795e-02
      - -8.4445801069332338e-01
      - 1.7348070360431723e-02
      - -7.7289506268468444e-01
      - 3.4356395778191141e-02
      - -7.9373035368470890e-01
      - 3.2587147190726910e-02
      - -8.3972431697144978e-01
      - 2.7735331472544235e-02
      - -8.6361318442300294e-01
      - 3.1686346591904370e-02
      - -7.7936493782232652e-01
      - 2.7456957049845885e-02
      - -8.5663728303534770e-01
      - 2.5879762988905992e-02
      - -8.7433003195852987e-01
      - 3.2262330261727361e-02
      - -7.9496499020663691e-01
      - 3.2226530827143308e-02
      - -8.4577341595643707e-01
      - 2.5520472526505147e-02
      - -8.7831342668684520e-01
      - 3.2612684560525816e-02
      - -7.9837348237872519e-01
      - 2.8531449761567428e-02
      - -8.2880493499058194e-01
      - 1.6064830369286274e-02
      - -7.8119603695981632e-01
      - 3.0126568919454255e-02
      - -8.1596507920527472e-01
      - 2.8492102049192138e-02
      - -8.6053217057415998e-01
      - 2.4448982512630699e-02
      - -8.4652115308771858e-01
      - 2.3443233269829226e-02
      - -7.9410864773994960e-01
      - 2.4092189839334026e-02
      - -8.7079592497314917e-01
      - 2.1128250235035523e-02
      - -7.9574903026065902e-01
      - 2.9557135457795550e-02
      - -8.3473182670425006e-01
      - 2.8146798741408977e-02
      - -8.5277253825862254e-01
      - 2.2340942201880109e-02
      - -8.2142372884108927e-01
      - 2.5417989916762852e-02
      - -8.5403022143297025e-01
      - 2.2814258775363833e-02
      - -8.7970467210646608e-01
      - 2.7279222328317060e-02
      - -8.0028876612881505e-01
      - 2.5013578324783192e-02
      - -8.5361797157874231e-01
      - 2.6897566932086468e-02
      - -7.8615018922126922e-01
      - 2.5435510856743102e-02
      - -8.4290711268264984e-01
      - 9.9132052710459648e-03
      - -7.0487689388452512e-01
      - 2.1810206754154571e-02
      - -8.0685546387148299e-01
      - 2.2752771999302847e-02
      - -8.7674500357350971e-01
      - 2.5526529493842359e-02
      - -8.0198315378426588e-01
      - 2.1556100177888525e-02
      - -8.2299333037439704e-01
      - 1.7767765420962454e-02
      - -8.0387229363356461e-01
      - 2.0536714381091798e-02
      - -8.2313134510219177e-01
      - 1.8322817604756774e-02
      - -8.6531504124777303e-01
      - 1.8363289761101371e-02
      - -8.3196455564574756e-01
      - 1.2908996203967526e-02
      - -8.4356510648220873e-01
      - 2.2969468813357388e-02
      - -5.5116001777261581e-01
      - 1.9886415298473299e-02
      - -8.2048638581600208e-01
      - 1.5691034209620428e-02
      - -7.9816023448141526e-01
      - 1.9531001094094055e-02
      - -8.2777108425217272e-01
      - 1.5404650238751674e-02
      - -8.1652454411429931e-01
      - 1.6174105547545597e-02
      - -8.5410582121382106e-01
      - 9.6545793711046730e-03
      - -7.8609936748395348e-01
      - 1.5187407867395362e-02
      - -8.2892211730084520e-01
      - 1.1299224793739441e-02
      - -8.4848331135551791e-01
      - 1.3241784049039154e-02
      - -8.0580238894656497e-01
      - 1.0060957140692947e-02
      - -7.5901111411291711e-01
      - 2.3646761708014381e-03
      - -3.7953099853811478e-01
      - 1.8033921019971835e-03
      - -4.2453057634482022e-01
      - 1.1003829330983254e-03
      - -3.6954093846068881e-01
      - 7.7246511495960332e-04
      - -3.7912952591651367e-01
      - 6.7366343363177092e-04
      - -3.6553362499962461e-01
      - 7.1125314054552120e-04
      - -3.7086021413437659e-01
      - 7.7009927591098373e-04
      - -3.8473911239712466e-01
      - 5.3832559218075732e-04
      - -4.1155390042565249e-01
      - 6.4503021904945348e-04
      - -5.0173078051764097e-01
      - 4.1810586757205423e-04
      - -4.2302057739995708e-01
      - 3.9564311637060379e-04
      - -4.9780052271670544e-01
      - 3.5296005373721182e-04
      - -4.2323262551378488e-01
      - 4.6300593496019347e-04
      - -4.3744531466548159e-01
      - 2.3415671621369500e-04
      - -3.9099383529176251e-01
      - 5.8065831445311715e-04
      - -5.0217146510881794e-01
      - 4.7408040945972572e-04
      - -4.7100119491280934e-01
      - 1.5311409411014898e-03
      - -6.5714110216895083e-01
      - 4.5017272629019052e-04
      - -4.8740129619450628e-01
      - 3.0815910597490573e-04
      - -5.4803476597075973e-01
      - 1.7226449258386255e-04
      - -5.6205085487524675e-01
   output_scale:
      - 9.4736839595593914e-01
      - 0.
   inv_output_scale:
      - 1.0555555835182291e+00
      - 0.
   weights:
      -
         - -2.9542517138627378e-02
         - 3.4744577858498550e-03
         - -6.8305088786291728e-03
         - 1.4053824665087586e-03
         - -7.0433844538247171e-03
         - -2.7829362514204229e-03
         - -1.2225482877838603e-02
         - 1.3754545737558646e-03
         - 1.1034589522806580e-02
         - -1.3678160984688352e-02
         - -1.6854590873306791e-02
         - -7.2483504498614707e-03
         - -9.8316046879294936e-03
         - 7.4455716260907355e-03
         - 2.6807464441848998e-02
         - -4.1078358120886617e-03
         - 7.7783944261374301e-03
         - 1.3018504073529053e-03
         - 8.8014836869833631e-03
         - 1.2685440137416129e-04
         - -6.3052516008893968e-03
         - -1.2323690566832697e-03
         - 3.4054324846630405e-03
         - -1.0326806965472168e-03
         - 9.1188404803283052e-02
         - 1.6475340298479416e-02
         - 1.9524919791478326e-02
         - -8.2979461887931621e-03
         - -1.6936482256354912e-02
         - 1.8049443999049196e-02
         - -1.6374502075687948e-02
         - 1.5271399455311866e-02
         - 1.5027072281855196e-03
         - 5.8989985481721638e-03
         - -1.8544861027721068e-02
         - 1.6341916372520922e-02
         - 3.3774035690503396e-03
         - 2.8392229566814590e-02
         - -3.8371505271898765e-03
         - 8.0107068623241143e-03
         - -8.3012029306615276e-03
         - -1.1740061666751974e-02
         - -5.2818258972379961e-04
         - -1.8143306696043922e-02
         - 1.1452799809176111e-02
         - -2.3349242525968334e-02
         - -3.7789389665322988e-04
         - 1.3754834317368794e-03
         - -6.9882874953709094e-03
         - 2.4247458506024520e-02
         - -1.1585059359526046e-02
         - 9.5974613912594708e-03
         - -1.0629089997417568e-02
         - 8.0377310118035627e-03
         - 7.0031105588099364e-04
         - -1.7425275250923411e-02
         - 2.7103438591016479e-02
         - 4.9021423905459367e-03
         - 9.7040655465269084e-03
         - -1.6648308380889537e-03
         - -6.4115500806704272e-04
         - -1.1612751771797119e-02
         - 1.9264526681819489e-03
         - -1.5466176740611900e-02
         - -4.4301761046026950e-04
         - 3.1356991347338469e-03
         - 3.9061062823411907e-03
         - -6.6242538720999722e-03
         - 3.0203446798873771e-02
         - 1.8500795325648196e-02
         - -3.0742226876193442e-02
         - 1.4776756548663552e-02
         - -1.0091266463012308e-03
         - -2.5437472376119222e-03
         - 2.7024844366462394e-03
         - -2.0101988277752874e-02
         - -1.0104044294507862e-02
         - 4.2884566445209275e-03
         - 1.2744068129926405e-02
         - 1.4968094531320114e-02
         - 9.7283011756755921e-03
         - 3.3063113602319519e-02
         - 1.0553984654998872e-02
         - -1.2589765716537950e-02
         - -1.5376541286274499e-03
         - 1.4040781446598110e-02
         - -1.3000160553046319e-02
         - 3.7720036244982394e-02
         - 5.2419936192370344e-03
         - -1.8308154736413361e-02
         - -7.2711857120621370e-03
         - -2.8668706759498733e-02
         - -1.7526674437131178e-02
         - 5.7083029276568456e-03
         - 1.3499210408271496e-03
         - 1.7627444617952048e-01
         - 1.4002712310307060e-02
         - 1.4816951837791373e-02
         - -9.6109434236451644e-03
         - 4.5015061296047373e-03
         - 1.4993379298606634e-02
         - 6.0115245216077204e-03
         - -1.4273920846376185e-02
         - -4.0993422186860144e-03
         - -1.6625755245423354e-02
         - -3.0734633309130694e-02
         - -1.7283608223345695e-03
         - 8.9759353204562665e-03
         - -1.6161241178070523e-02
         - -6.5640930113444696e-03
         - 1.3246342780124335e-03
         - 4.4031293378391772e-03
         - 9.1607962331440897e-03
         - 1.0669658135214354e-02
         - -3.0585108708504958e-03
         - -7.2410754792103342e-03
         - -7.7284715350122357e-03
         - 2.4215747458106215e-02
         - 2.1395198156716325e-02
         - 8.4143695822245894e-03
         - 5.3929678985950866e-03
         - 2.3573944734594926e-03
         - -2.5435516267134756e-03
         - -2.0260214103632337e-03
         - 9.2657253714691808e-03
         - 1.7101781208611659e-02
         - -4.2353309892958890e-03
         - 9.4477146426567447e-04
         - 1.7701412285209762e-02
         - 1.5035453612616519e-02
         - 4.4529189687770082e-01
         - 1.1715778381267179e-02
         - -1.3468447908373924e-03
         - 1.7836395333125990e-02
         - -2.0412489956971199e-02
         - -3.8693784266409417e-02
         - 2.1918125920487849e-02
         - 2.6469786027294072e-02
         - 2.5363759336019982e-02
         - 2.3643949365165825e-04
         - -1.0161117528542835e-02
         - 2.5486337124251447e-02
         - -1.5792760649142555e-02
         - -8.5650176932715281e-03
         - 1.3309189526103968e-02
         - 5.5441915685885646e-03
         - 3.9558258888972929e-02
         - -2.5547703341039726e-02
         - -1.9800782846904311e-03
         - -2.0004808398739832e-02
         - 1.5690063013080863e-02
         - 1.3331189415519036e-02
         - -5.2617478601549271e-03
         - -5.4035405822903436e-03
         - 1.4285539895204188e-02
         - -9.7360696074850969e-03
         - -1.6807123252049572e-02
         - -5.7485531313900646e-03
         - -9.0622577186937441e-03
         - -3.0825489149991551e-02
         - -9.7541288348427478e-03
         - -1.0062464096731850e-02
         - -2.7985161601247559e-03
         - -2.7503092643991135e-02
         - 1.1094084466879775e-03
         - 1.5745393329179035e-02
         - -3.0540441522698813e-02
         - -5.8238849991297833e-05
         - -5.8107334797142286e-03
         - 3.1571139345460235e-03
         - -7.7500223727226553e-03
         - 8.8501854556793449e-03
         - 3.3477466259855980e-03
         - 5.6340098764673793e-03
         - -4.2082143933106020e-03
         - -4.9189739014341718e-02
         - 8.5247152525405720e-04
         - -1.5759028824406617e-02
         - -4.1913923549301265e-03
         - -2.1243653221799375e-02
         - -1.6850043456236301e-02
         - -1.6423121858548818e-02
         - -7.6421044174187630e-03
         - 1.0344780370216427e-02
         - -2.2756749819928274e-02
         - -1.7725846734909179e-02
         - -1.0502924066117473e-02
         - -3.1176149760864295e-03
         - 2.0483446149173530e-02
         - 3.3035775558571838e-02
         - -9.9928484428862489e-03
         - 9.8249909234218585e-03
         - -1.1813233818787300e-03
         - 6.8024328794783206e-03
         - -3.9833658573437125e-03
         - 3.2161173890907007e-04
         - -4.1386768127827161e-03
         - 1.0428756423798645e-02
         - -2.5786211276288039e-03
         - 1.2690012996354699e-01
         - 1.9068702880192242e-02
         - 2.8497535432994759e-02
         - -1.7717221386096355e-02
         - -2.4485977510592293e-02
         - 7.6920147943496595e-03
         - -7.7991339383748802e-03
         - 3.1062900249122678e-02
         - 5.4646926329865063e-03
         - 1.2550772629639528e-02
         - -2.9213741613294493e-02
         - 3.2376611395065924e-02
         - 3.5620550748285311e-03
         - 2.7597113493655130e-02
         - -1.9258459016229822e-02
         - 5.4836842882943319e-03
         - -4.3108476637307869e-03
         - -1.8673415342818512e-02
         - -3.5347190854943629e-03
         - -2.6471377591587724e-02
         - 1.6537911694171712e-02
         - -3.0099458554550960e-02
         - 3.7047957478303787e-03
         - -2.2465772594784947e-03
         - -1.6379394888700039e-02
         - 4.1174055284687115e-02
         - -7.7451341910732959e-03
         - 5.3147960788781506e-03
         - -1.6252509588865226e-02
         - 2.4921612667417270e-02
         - -3.4121823866561430e-04
         - -3.0652871113907323e-02
         - 3.9738819693753494e-02
         - 1.0816955737903328e-02
         - 6.1542085141174218e-03
         - -7.9079488705619504e-03
         - -1.1514362057513116e-02
         - -1.0372986495467347e-02
         - 9.7859015568108453e-03
         - -1.9640223270924618e-02
         - -7.2934750879802756e-03
         - 5.3454631905028175e-03
         - -5.7280067184789134e-03
         - -1.2931508298318288e-02
         - 3.3270048338349886e-02
         - 3.7099185212290380e-02
         - -5.0094442536921122e-02
         - 2.6775668789525177e-02
         - -1.0446045251506445e-02
         - -8.0900995747026274e-03
         - 2.9325565518212218e-03
         - -2.2515456206351311e-02
         - -1.4443039396906728e-02
         - 1.1418059577839311e-02
         - 7.8762220072405801e-03
         - 1.4946838408286013e-02
         - 1.4570841224465121e-02
         - 5.3553118376981464e-02
         - 1.5204427651752287e-02
         - -2.7655766989772058e-02
         - -3.5644705354956415e-03
         - 1.9886284260954231e-02
         - -2.2169082745082915e-02
         - 4.6333191819198011e-02
         - 4.1855324479460020e-03
         - -2.7396964505195999e-02
         - -1.1236512428391925e-02
         - -3.8672968502236720e-02
         - -2.2009278089156443e-02
         - 2.0362053151994138e-02
         - 5.5313473245231139e-03
         - 1.0078657205501955e-01
         - 1.8461224101420148e-02
         - 2.5799385710455001e-02
         - -2.3929212144418982e-02
         - 8.9773174854555163e-03
         - 5.2563206852962868e-03
         - -3.9553671171090486e-03
         - -9.0893380487236525e-03
         - 1.0408254185410764e-03
         - -2.0428034797577953e-02
         - -4.1824506659074619e-02
         - -4.1702644105383376e-03
         - 1.0710753707967962e-02
         - -2.6863026673019774e-02
         - -5.3294802078331059e-03
         - -3.0554536229823819e-03
         - 5.3287477502308540e-03
         - 1.4958365091071740e-02
         - 1.2376508279160172e-02
         - 2.6202470913443549e-03
         - -1.0296982324672421e-02
         - -7.5339188221809593e-03
         - 3.6790968084725859e-02
         - 3.8444866762516940e-02
         - 7.5363833235073405e-03
         - 1.4993406497933686e-02
         - 1.5659552384567503e-02
         - 1.4147180446485103e-03
         - 1.5374448895303418e-03
         - 2.4747152821390644e-02
         - 1.5097049195060219e-02
         - -8.7796472294741270e-03
         - 3.6639861148952796e-03
         - 2.0659110807918102e-02
         - 1.7904506749466920e-02
         - 5.2569002962191380e-01
         - 9.4088209281568899e-03
         - 6.5141520180661931e-03
         - 1.4653579423154440e-02
         - -1.7704344057670927e-02
         - -4.5539696413090844e-02
         - 2.8730571282137587e-02
         - 4.4708750256871474e-02
         - 4.0887398029009259e-02
         - -2.2812458895503495e-03
         - -1.8412847352753278e-02
         - 3.0375643973720872e-02
         - -3.5223576571054412e-02
         - -1.0838019853749511e-02
         - 4.6643685419111534e-03
         - 3.5953393358261723e-03
         - 4.4192681738666868e-02
         - -2.4349025504946015e-02
         - -6.2950881789056307e-03
         - -2.9332435366133603e-02
         - 1.5828490053333526e-02
         - 2.5277466118469930e-02
         - -8.8245310698655700e-03
         - -6.2791994815283927e-03
         - 2.5409153671872839e-02
         - -1.5420350489338987e-02
         - -1.6195906330437503e-02
         - -8.9582862093656769e-03
         - -1.6187127251099678e-02
         - -3.3708072042836310e-02
         - -1.0588899163621712e-02
         - -7.9969826528186669e-03
         - -5.6312209090124158e-03
         - -3.6889123167652256e-02
         - 1.4180360776499656e-03
         - 3.1061259118172150e-02
         - -3.7189638955327273e-02
         - -1.1705093088365376e-02
         - -2.5141301307580136e-03
         - 4.9198402904209841e-03
         - -1.7031935730654427e-02
         - 6.7224549834688525e-03
         - 6.8184959407628573e-03
         - 3.5812069964728413e-03
         - -1.6511867740588659e-02
         - -1.5716599885151065e-02
         - 3.3416498703471567e-03
         - -5.8638384451653938e-03
         - 3.7196897443027934e-03
         - -3.8455826514126662e-03
         - -4.6841038128183675e-03
         - -8.5806789024296479e-03
         - -3.7408248794690058e-04
         - -1.8328468417006595e-04
         - -1.6425516057386531e-02
         - -1.1330688832702927e-03
         - -2.9718884045257820e-03
         - -3.9529009074965376e-03
         - 1.3465713717975523e-02
         - 1.4905943724655908e-02
         - -5.3003414112237157e-03
         - 7.5375343235571171e-03
         - 3.5213725271133599e-03
         - 6.8866587812451540e-03
         - -4.2911026855161523e-03
         - 5.0429750965945760e-03
         - 2.0973277372510700e-03
         - 1.0197850564249596e-03
         - 5.3298344355887668e-03
         - 9.4143924855708341e-02
         - 1.3285274335128725e-02
         - 1.0129454472054581e-02
         - -7.3453950333695625e-03
         - -1.4339143420523193e-02
         - 5.1723738867236503e-03
         - -1.0903543446799837e-02
         - 9.5656477206147866e-03
         - 6.4816106890007896e-04
         - 3.6447141733351620e-03
         - -1.1767746959587782e-02
         - 1.5167264127546539e-02
         - -3.4522576781338661e-03
         - 1.7494343521315923e-02
         - -7.4871249383999562e-03
         - 1.8669199591615955e-03
         - -6.7152336109749912e-03
         - 2.1432107380610374e-04
         - 4.0837641932461909e-03
         - -1.4787993768011942e-02
         - 8.5078725431757679e-03
         - -1.5084483637851453e-02
         - 4.0752716809636961e-03
         - 1.9195894773060649e-03
         - -7.1206627342858156e-04
         - 2.4562586687371355e-02
         - 1.6217012249056103e-03
         - 9.4433062080645815e-03
         - -5.7239070160249933e-03
         - 2.3456954569872368e-03
         - 5.5253051825175014e-03
         - -1.6804359737010735e-02
         - 1.2224035807219787e-02
         - 2.1129130966959361e-03
         - 2.1269601457846866e-03
         - -7.2698467645459768e-03
         - -3.1971863912872507e-03
         - -7.5122068712085797e-03
         - 5.1178582664618581e-03
         - -7.4717663056179029e-03
         - -4.0907787825261947e-03
         - 1.7495648262325905e-03
         - -3.5698211169534737e-03
         - -6.3843428516299873e-03
         - 1.5386779305212036e-02
         - 8.0332100824025299e-03
         - -1.3668514269570086e-02
         - 1.5259133214670548e-02
         - -1.4635633102579382e-03
         - -7.4863747330149366e-03
         - 1.9160941848474775e-03
         - -1.7088806212187845e-02
         - -4.4217097374152281e-03
         - 3.3236237511145863e-03
         - 1.8600246980783454e-03
         - 8.1275572982284564e-03
         - 7.8152536256428026e-03
         - 4.0305761830783347e-02
         - 7.5869300149942961e-03
         - -1.4452449368392073e-02
         - 5.9888861812145702e-04
         - 1.3430308136047318e-02
         - -9.1714741870931281e-03
         - 2.3346337931920286e-02
         - 3.9637774492560143e-03
         - -4.0428058072557380e-03
         - -5.9173536222416889e-03
         - -1.8333682022731449e-02
         - -9.2332935634137029e-03
         - 1.0623594056569787e-02
         - -8.4940242804601917e-04
         - 2.4310013124926189e-01
         - 9.8988594223441036e-03
         - 1.0062485770958552e-02
         - -1.1376691357490063e-02
         - 5.0221270372983974e-03
         - 8.7216475000070019e-03
         - 3.2371430012585489e-03
         - -8.8164162092217865e-04
         - 7.8059291115639131e-04
         - -5.0849872444287533e-03
         - -2.0034895495986443e-02
         - -1.1175824387974530e-03
         - 2.0980333690512141e-03
         - -5.5646597964609237e-03
         - -4.5009223208052158e-03
         - -2.5589543549346802e-03
         - 7.7864902459185512e-03
         - 9.9709500285523438e-03
         - 6.0264838645045313e-03
         - 5.8759270560465940e-03
         - 1.4338809986618793e-03
         - 7.4464577021592700e-04
         - 7.8858126729485119e-03
         - 1.1837821650230153e-02
         - 9.5021372414600107e-03
         - 1.3272125198381390e-03
         - 5.0056849505254212e-03
         - 8.9186362129808862e-04
         - 1.8196408666595960e-04
         - 9.5100464390361888e-03
         - 1.4376679182343579e-02
         - 1.6024868464962457e-03
         - -1.6048955275201010e-03
         - 1.3660037484280588e-02
         - 9.6126684727128094e-03
         - 5.0940377407307003e-01
         - 2.3468341393965416e-04
         - -3.9445387794735456e-03
         - 1.5985380137237871e-02
         - -6.3719118204730325e-03
         - -1.7715898780888081e-02
         - 1.8170440183161905e-02
         - 2.5617033717103655e-02
         - 2.1238846115307915e-02
         - 6.1423722052100643e-03
         - -1.0491817918899558e-02
         - 1.4691207146318608e-02
         - -1.2163568566796271e-02
         - -1.0793706452925707e-02
         - 1.2672824131869969e-02
         - -3.0367721483707888e-03
         - 2.7533473473358099e-02
         - -1.0198609915171132e-02
         - 6.6041023739731432e-04
         - -1.9228765205217980e-02
         - 6.2419291895199017e-03
         - 1.0632027041197062e-02
         - -4.4035403001217695e-03
         - 1.1017980954965234e-03
         - 1.2399608748498435e-02
         - -4.7825655458240872e-03
         - -1.4086809017534709e-02
         - -2.0174563080705451e-03
         - -3.1373939238478451e-03
         - -2.1079780262394165e-02
         - 2.2620707736672749e-03
         - -4.3330184970657984e-03
         - -7.9351990940470848e-03
         - -1.4296609415722944e-02
         - 8.4010475970322887e-04
         - 1.4496174518146368e-02
         - -1.8856323394463581e-02
         - 3.5888061292112190e-04
         - -4.6221459300786151e-03
         - 4.5476669963310174e-03
         - -8.7780763072353579e-03
         - 2.5457844766302779e-03
         - -4.9044318256424868e-04
         - 2.8348114079080763e-03
         - -3.8931048186873728e-03
         - -1.0115662754364263e-01
         - -3.1438128599976735e-03
         - -1.9214468465534141e-02
         - -1.3068782786002073e-02
         - -2.8656508156195599e-02
         - -2.2039356825613646e-02
         - -2.9125981462549685e-02
         - -1.0139905306938210e-02
         - 5.6528509602498040e-04
         - -4.5064428730819645e-02
         - -1.8522127621658346e-02
         - -2.1849117346299268e-02
         - -9.1229555384140220e-03
         - 2.2128038983483186e-02
         - 5.0843862061097742e-02
         - -1.1778240623173649e-02
         - 2.2812299738137403e-02
         - 1.6702027366694693e-03
         - 1.4216673166825834e-02
         - -1.4960914099955006e-03
         - -4.1331324978071959e-03
         - 2.8975333501075730e-03
         - 1.2665889428825542e-02
         - -2.1306429876026402e-03
         - 1.9037401262928241e-01
         - 3.7634614118867149e-02
         - 5.0186827687558243e-02
         - -3.2134344663126035e-02
         - -3.3758395683302966e-02
         - 1.5939014408723053e-02
         - -1.7066494636694608e-02
         - 4.7105782574723407e-02
         - 1.7928337993143233e-02
         - 1.7467796490168538e-02
         - -5.3878346487966564e-02
         - 5.9149048968003319e-02
         - 1.8622102174586758e-03
         - 5.3591851241041329e-02
         - -2.7803791680556442e-02
         - 4.5513534133147125e-03
         - -8.4037399805978168e-03
         - -2.1183430016356353e-02
         - -6.1897346725586638e-03
         - -3.6491093613556604e-02
         - 3.3705929777241843e-02
         - -6.0019050682204922e-02
         - 6.0647117517712091e-03
         - 3.4231654924411731e-03
         - -2.2604895258961959e-02
         - 6.6826978927240363e-02
         - -1.6309325506118192e-02
         - 1.1221560837622178e-02
         - -3.4197812992735048e-02
         - 3.2816051110082504e-02
         - 6.3999475423063756e-03
         - -4.4282320800730586e-02
         - 8.2558079574853879e-02
         - 3.7331599399504927e-03
         - 2.6982018973917242e-02
         - -1.0450610244152510e-02
         - -2.6132339960561097e-02
         - -2.3141107175136188e-02
         - 1.1340135775762835e-02
         - -3.0995098535032763e-02
         - -2.2386119757384811e-03
         - 1.6628261861743435e-02
         - -7.5129775999291219e-04
         - -1.7574052414632346e-02
         - 6.2689271926264500e-02
         - 6.3611155614259729e-02
         - -7.9424720234255689e-02
         - 3.1497173310928869e-02
         - -2.1991972949983150e-02
         - -6.5380768652025210e-03
         - 5.2658931353794678e-03
         - -3.4236243966460106e-02
         - -2.0498510419016680e-02
         - 2.6577088894464505e-02
         - 8.9565152026174662e-03
         - 2.0687632879101862e-02
         - 3.4381471927747695e-02
         - 9.0815894129580077e-02
         - 2.3946022860219747e-02
         - -6.0409595567900432e-02
         - 1.2312432721213049e-02
         - 3.5010161691930206e-02
         - -3.9631059179776842e-02
         - 8.7360449152319053e-02
         - 1.0294012126626876e-02
         - -4.2308162567145764e-02
         - -1.6074507533285137e-02
         - -5.8804569292780315e-02
         - -3.3004804704424281e-02
         - 2.9864243757128175e-02
         - 5.8344344789433740e-03
         - -5.2712991011323380e-02
         - 2.0225789063781644e-02
         - 4.0188342547087717e-02
         - -3.3168269274976923e-02
         - 6.2222236383265425e-03
         - 3.6919179416712911e-03
         - 2.3548872279928462e-04
         - -7.4938276169304518e-03
         - -2.2872681624328869e-03
         - -3.8958043748869048e-02
         - -5.7674179039284450e-02
         - -5.9242684730748303e-04
         - 2.3008837707474177e-02
         - -3.7166997291236174e-02
         - -2.7127636493136488e-03
         - -1.1162652394630049e-02
         - 7.2147586479420827e-03
         - 2.7654204692623939e-02
         - 2.4129650708462874e-02
         - 1.1425211487684982e-03
         - -1.6023975179162254e-02
         - -7.7511292735975724e-03
         - 5.4006363046360133e-02
         - 6.3553619984008186e-02
         - 1.9079738955270549e-02
         - 2.2479350749630634e-02
         - 1.4965972388073616e-02
         - 4.7253195108801202e-05
         - -3.7720122045670898e-03
         - 3.8694149573180667e-02
         - 2.6046274082296074e-02
         - -2.0602916494488237e-02
         - 1.5020507269518460e-02
         - 3.4699335180049071e-02
         - 2.0482351355139421e-02
         - 6.3596575656101184e-01
         - -2.4920082908944695e-03
         - 1.2458300286137668e-02
         - 2.3695698001695239e-02
         - -3.2872865435905618e-02
         - -6.3653627425183615e-02
         - 6.0620660302733345e-02
         - 7.8977703858945369e-02
         - 6.6689652286039264e-02
         - 5.5070925211567721e-03
         - -3.4266168888688470e-02
         - 4.8676867515579640e-02
         - -5.0663340188912262e-02
         - -1.5805711402739314e-02
         - 1.2766188215310247e-02
         - 8.4735204465588544e-04
         - 8.7635028170679266e-02
         - -4.8447681944309991e-02
         - -6.3392836596606952e-03
         - -4.1451486150843535e-02
         - 2.6266758933856993e-02
         - 3.2378857636188980e-02
         - -2.7857241300701368e-02
         - -5.3996457748643201e-03
         - 2.4140042041883233e-02
         - -1.4832992345389878e-02
         - -2.5125762542291787e-02
         - -1.8422611055150539e-02
         - -1.1342276260168784e-02
         - -6.2699205575272685e-02
         - -1.9755395588772869e-02
         - -1.3298993282679333e-02
         - -3.0567337228508923e-03
         - -6.2369879858720736e-02
         - -9.0171151039576212e-03
         - 5.0408858417045878e-02
         - -6.8225642151006280e-02
         - -2.3089250929892485e-02
         - 4.0026466814356166e-03
         - 1.3746016920784655e-02
         - -1.9226629661866994e-02
         - 2.4856790270344369e-02
         - 6.0753907573745736e-03
         - 8.9675751356841308e-03
         - -1.9226154231873568e-02
         - -2.7784581948333224e-02
         - -4.2926142390085657e-03
         - -8.1248928418175201e-03
         - -3.7292832345937285e-03
         - -1.4896829736682295e-02
         - -1.0582048924026862e-02
         - -1.6982305529979421e-02
         - -7.3068551914909482e-03
         - 9.2850996351253375e-03
         - -1.4339135003086626e-02
         - -1.5862425428937784e-02
         - -8.6542154951881108e-03
         - -9.3600273512204745e-03
         - 6.0738313071281701e-03
         - 2.2946562765336711e-02
         - -9.9720304494911125e-03
         - 9.4129182903478076e-03
         - -4.9601526592552977e-03
         - 4.3952687905866100e-03
         - -1.6719155408721918e-03
         - 7.0059888701021363e-04
         - 4.3046901682522514e-03
         - 5.5699071683142460e-03
         - -7.4341688628168031e-04
         - 1.1398644337110728e-01
         - 2.0062819197727615e-02
         - 2.3913904330062637e-02
         - -1.3455074152977475e-02
         - -1.7974704408856710e-02
         - 8.2161665880904622e-03
         - -1.2017317183872661e-02
         - 1.2902581685492154e-02
         - 3.9767356550297756e-03
         - 6.9631102278921537e-03
         - -2.1138538428436698e-02
         - 1.7054797242300298e-02
         - -5.5001149851514983e-04
         - 2.0434555405474307e-02
         - -1.7150829167453273e-02
         - 5.8853498325509949e-03
         - -4.9747403915053560e-03
         - -1.2634593852180296e-02
         - -4.7823427878503390e-03
         - -1.2425070844134824e-02
         - 9.6541590023111381e-03
         - -2.2543856896201232e-02
         - 3.7561070392076838e-03
         - 2.5257364438961193e-03
         - -3.8095208324573147e-03
         - 2.9289931605034729e-02
         - -2.7459407314482267e-03
         - 6.4038156983450296e-03
         - -1.1331772269737649e-02
         - 1.9931760270200542e-02
         - 6.3724361659814842e-03
         - -1.8183233705145897e-02
         - 2.5324267079475757e-02
         - 1.9673594865474817e-04
         - 4.4497608864551060e-03
         - -7.3042205733197304e-04
         - -8.6745524820760304e-03
         - -9.0620726333279882e-03
         - 6.8640282139978263e-04
         - -1.5103047806167808e-02
         - -3.3286200493271483e-03
         - 9.9999272915424053e-03
         - -3.7301620792718425e-03
         - -9.2039038821550307e-03
         - 1.8446613303154596e-02
         - 2.2942333385131276e-02
         - -2.6880818075124265e-02
         - 1.0919472158189201e-02
         - -1.0037471959366757e-02
         - 1.7206555832899768e-03
         - 5.1857323259385793e-03
         - -2.1651185636270529e-02
         - -1.0252025719171221e-02
         - 1.0936125174172360e-02
         - 8.4117564546985022e-03
         - 9.9065815904437315e-03
         - 1.9495324919652890e-02
         - 5.1975812032963385e-02
         - 1.0140716525413042e-02
         - -2.8496925828886282e-02
         - -7.2498105100913699e-04
         - 1.6247100108552154e-02
         - -1.0935851893624449e-02
         - 3.7068643917231955e-02
         - 4.7827501427513651e-03
         - -1.7113177672396437e-02
         - -4.6862280816667356e-03
         - -2.5864693152386906e-02
         - -1.0968122993714519e-02
         - 1.1736841772918628e-02
         - 5.8747319300426907e-03
         - 2.9791296270949397e-01
         - 8.3433630337767292e-03
         - 1.0941658329380051e-02
         - -1.8201001557904745e-02
         - -2.8908951249617324e-04
         - 1.1068310101137401e-03
         - 2.1029595770390452e-03
         - -2.1956449435583079e-03
         - -5.8926024283787581e-03
         - -2.0515801898021952e-02
         - -3.2672052927325626e-02
         - 1.0803074262076839e-03
         - 1.2710563512353237e-02
         - -1.9951693585863024e-02
         - -7.8170278250064978e-03
         - -8.1200868240047918e-03
         - -8.0596944281503087e-05
         - 1.6545149018834172e-02
         - 8.5257639469377682e-03
         - 6.3081940336021788e-03
         - 5.6950788755821022e-04
         - 2.2317727756844836e-03
         - 1.4617512693290088e-02
         - 1.8017786426428518e-02
         - 5.8674765177397789e-03
         - 2.9767633208372989e-03
         - 5.1420094931029468e-03
         - 5.5897313163505158e-03
         - 3.1791823202994363e-03
         - 1.6566960922327553e-02
         - 1.4785009815322027e-02
         - -5.7822507804397467e-03
         - 4.3432073006209942e-03
         - 1.3543401992195761e-02
         - 1.1352840690550212e-02
         - 6.1945613081422424e-01
         - -3.0530827112274974e-03
         - -7.4247728634176558e-04
         - 1.2299227906162658e-02
         - -1.7661134045753226e-02
         - -3.5250247764699157e-02
         - 2.7081519776096338e-02
         - 3.5970269304688947e-02
         - 3.3082625500045836e-02
         - 2.8930148575973761e-04
         - -1.1703738412396440e-02
         - 2.0803205245322753e-02
         - -1.9323314547789256e-02
         - -1.2610947697306129e-02
         - 1.2642076853742904e-03
         - 1.3084137059396971e-03
         - 4.2639581907577183e-02
         - -2.1936200058319387e-02
         - -6.3930401272136077e-03
         - -2.5273305005354487e-02
         - 1.0899068810036966e-02
         - 1.9099441858687477e-02
         - -1.2159770539826762e-02
         - -1.2528036103105825e-03
         - 1.3486616428004305e-02
         - -6.6584058076576856e-03
         - -7.8493644749718441e-03
         - -1.1336104538894554e-02
         - -9.0037625480330202e-03
         - -3.3868008753276599e-02
         - -5.3435050702715153e-03
         - -1.1470406546323874e-02
         - -1.6130002035340688e-03
         - -2.9381564962434718e-02
         - -6.5989566261440823e-03
         - 1.5471203076565085e-02
         - -2.5120343507439573e-02
         - -6.6025498981930539e-03
         - -4.7601570135371073e-03
         - 6.5665870484114099e-03
         - -1.0152398326084170e-02
         - 1.2977341625981497e-02
         - -6.7350537697822327e-05
         - -2.5646333227963337e-03
         - -6.3602239576567134e-03
         - -1.4128987639989547e-02
         - -5.1145288834688199e-03
         - -7.7960345701359865e-03
         - -1.7799873740971341e-03
         - -7.6732612447551040e-03
         - -2.7649956369261530e-03
         - -7.0739208511575134e-03
         - -1.1590802700418839e-03
         - 1.5184704309866277e-03
         - -4.5199637259568867e-03
         - -7.8262110622187402e-03
         - -4.6281782213870538e-03
         - -5.5273215781763202e-03
         - 5.2410569584382845e-03
         - 1.1230016659883471e-02
         - -6.2087790174501240e-03
         - 3.5771931607589957e-03
         - 1.8595437415481323e-03
         - 6.3780762353826178e-03
         - -4.0176184038499211e-03
         - -3.1199177157337581e-03
         - 1.4808823522011706e-03
         - 4.7214508575752516e-03
         - 6.7292207513230170e-04
         - 8.5140857602941850e-02
         - 2.6110895335023799e-03
         - 1.4855115142727981e-02
         - -3.1111799007205246e-03
         - -1.1351253889052158e-03
         - 7.8619942413098599e-03
         - -1.1678547430906414e-03
         - 9.5784039502438394e-03
         - -3.3413626876974815e-03
         - 7.8107786205216688e-03
         - -9.6884542662337321e-03
         - 1.5330863439678141e-02
         - 3.9850347778816421e-03
         - 1.3867298989921180e-02
         - -1.1154692451518549e-02
         - -9.9911096125538659e-04
         - -9.4853591078365731e-05
         - -3.4561510594897410e-03
         - -6.4404837153594699e-03
         - -1.3523942669930041e-02
         - 1.5178468253997369e-02
         - -1.0411586742171594e-02
         - 6.5180218317209947e-03
         - -3.0154953908150635e-03
         - -7.2252621389250040e-03
         - 1.2888284926107480e-02
         - 1.8629394771584782e-03
         - 3.2845161353043922e-03
         - -7.2669201419510009e-03
         - 8.9812099355845929e-03
         - -7.9752125226396832e-04
         - -1.1421090815255736e-02
         - 1.1571025829541691e-02
         - 1.8700927849934303e-03
         - 5.7875613550057489e-04
         - -2.3235576295538183e-03
         - -3.0403255368527597e-03
         - -4.4091547779798710e-04
         - 8.0220411740721163e-05
         - 7.8928434901151317e-04
         - -7.7545063612753260e-03
         - 1.1104070036305090e-02
         - -9.5507162419943817e-04
         - -5.6519800254350074e-03
         - 1.5500034730178653e-02
         - 1.2854934705796189e-02
         - -1.7062221727128273e-02
         - 1.3765552332661380e-02
         - -7.8933107040567215e-03
         - 2.4409740152487195e-04
         - 4.7540977932600181e-03
         - -1.5109839725172455e-02
         - -1.1051988310472728e-03
         - -1.9843609295157765e-03
         - 2.3766651057988376e-03
         - 9.1367906079099467e-04
         - 7.7064013233931411e-03
         - 4.4004223892321073e-02
         - 3.6616871173671848e-03
         - -1.1834448822550277e-02
         - 3.2064416892545932e-04
         - 1.3345907142876250e-02
         - -5.7663386878789693e-03
         - 2.3035301159400445e-02
         - 9.3376147604858095e-04
         - -1.0073957970788125e-02
         - 1.3156604286101866e-03
         - -1.2908065563062931e-02
         - -9.0579536302608319e-03
         - 3.4914697775622300e-03
         - -3.5513794403005329e-04
         - 2.9269074436183712e-01
         - 1.0397839071545753e-02
         - 8.6266729618507832e-03
         - -8.4862919774605517e-03
         - 5.5677593606273286e-03
         - 5.6673932808211655e-03
         - 1.9180613516374114e-03
         - -7.2544351703145342e-03
         - -6.3457640545169641e-03
         - -1.9834181182347317e-03
         - -1.2174971600707508e-02
         - 1.5290224883906657e-03
         - 5.8340366354074787e-04
         - -5.7029544591418796e-03
         - -3.9072417320237113e-03
         - 3.2319155758485710e-04
         - -1.5131556887786599e-04
         - 7.2057772518753236e-03
         - -2.7338717445684045e-03
         - 6.4590626197192399e-04
         - 4.7792061491677980e-05
         - 2.6968546720919900e-03
         - 8.7873870844913000e-03
         - 7.3848142827217895e-03
         - 6.5251730817729404e-03
         - 2.3808002421723995e-03
         - 7.6161608003346738e-03
         - 4.1900511647932305e-03
         - 3.6228105579674229e-03
         - 7.4937550170218999e-03
         - 2.8791712885524296e-03
         - -2.2458329855607872e-03
         - 2.1891478617525489e-03
         - 7.5334080687876493e-03
         - 1.3138728002045517e-02
         - 5.7434244258219602e-01
         - 2.7473715428123469e-03
         - 5.7893903351726665e-04
         - 5.9650563653539448e-03
         - -1.1655538331757876e-02
         - -1.6087927261999330e-02
         - 6.9390077997447380e-03
         - 1.9248009899602941e-02
         - 1.3620483601527449e-02
         - 4.7085579950189721e-03
         - -1.5013400908747695e-02
         - 1.2745120789768524e-02
         - -1.3952537568160355e-02
         - -6.5732996144383816e-03
         - 3.7705693938513232e-03
         - 2.6399889796858171e-03
         - 1.8060283332973683e-02
         - -1.3917899358580335e-02
         - -7.0612267302905154e-04
         - -1.1556151820100316e-02
         - 8.4758853954710195e-03
         - 3.7110455178379067e-03
         - 3.0282894634848069e-03
         - 5.8120214285582435e-04
         - 1.4747730546463212e-02
         - -9.4215820565488762e-03
         - -1.5765352193421510e-03
         - -4.3231935721245408e-03
         - -5.5294557280711719e-03
         - -2.2903273415563172e-02
         - -1.3960033950734085e-03
         - -7.5487201796968885e-03
         - -1.8704533626334478e-03
         - -1.1394937240998182e-02
         - -4.4361730542366376e-03
         - 1.3728402374732144e-02
         - -1.7566064399351121e-02
         - -7.0624584296080217e-04
         - 2.4421460518446801e-03
         - -5.1110744254384329e-03
         - -6.0885094474115156e-03
         - 9.4418808822602891e-04
         - -3.8797601508152031e-03
         - -4.6098368903196494e-04
         - -8.8744528667235693e-03
         - -5.2195312797513389e-02
         - -4.9021705379541708e-03
         - -8.1471388213042104e-03
         - -5.5559091777545207e-03
         - -1.0388747908684439e-02
         - -1.6280768210781605e-02
         - -1.6506058546031051e-02
         - -6.3975766035940873e-03
         - -9.8117038227643865e-05
         - -2.3435291138558377e-02
         - -1.0012108909974858e-02
         - -3.5413603655501526e-03
         - -1.0161423884411890e-02
         - 1.1615168839079610e-02
         - 3.2689331861678057e-02
         - 1.2850668864940015e-03
         - 1.6750036358464025e-02
         - 2.1035675137755653e-03
         - 1.5973864972347186e-02
         - -5.4288353807522604e-03
         - 1.9018244585349088e-04
         - 1.9813723712451378e-03
         - 3.7089326871185863e-03
         - 8.7869357278404711e-03
         - 1.2325082959419116e-01
         - 2.0219940239058418e-02
         - 2.4047846069864581e-02
         - -2.0881846595055223e-02
         - -1.7690796218311013e-02
         - 1.4316123479571971e-02
         - -9.2436157498549960e-03
         - 2.2646409547965964e-02
         - 9.8912011635337062e-03
         - 1.4368509785425513e-02
         - -3.1615799869239694e-02
         - 2.9977770433112887e-02
         - -5.2031501252225842e-03
         - 3.5303548940856723e-02
         - -1.9809231153913358e-02
         - 6.7063216564795516e-03
         - -5.1553008503346818e-03
         - -1.2359223461618371e-02
         - 1.7110944180436999e-03
         - -2.3212127978420219e-02
         - 1.4962021883737865e-02
         - -2.6343996298063187e-02
         - 7.4926509296681402e-03
         - 4.2656351378493433e-03
         - -1.0861125850524924e-02
         - 4.5192004529701256e-02
         - -1.5290211351363958e-02
         - 3.9648658304502309e-03
         - -2.2618762015075570e-02
         - 1.9839081997293138e-02
         - 1.3018918478650995e-02
         - -1.8168765887876352e-02
         - 4.3114147375945044e-02
         - -1.1540988445027901e-03
         - 5.1838981952011271e-03
         - -3.0544124877928693e-03
         - -1.8720354674500814e-02
         - -1.7555849826579772e-02
         - 9.9276732455280074e-03
         - -2.3480450450149900e-02
         - -3.5621942437000830e-03
         - 1.7482886310277285e-04
         - -6.5233413585756485e-03
         - -4.1285609681807316e-03
         - 3.6467400660768430e-02
         - 2.6956033170299487e-02
         - -4.0592606166252349e-02
         - 1.6265898995700214e-02
         - -4.5734781836700060e-03
         - -6.5023009939355432e-03
         - -9.5333997091668690e-03
         - -2.0454063421708798e-02
         - -6.6313287032477783e-03
         - 1.9469022767336374e-02
         - 1.2086535602137559e-02
         - 1.8798024088418106e-02
         - 1.9586410625241343e-02
         - 6.6610202605688479e-02
         - 7.1070783507800545e-03
         - -2.8510677240710030e-02
         - 2.3881214913837557e-03
         - 2.0594220199502720e-02
         - -2.0858835597947070e-02
         - 5.0969420357036027e-02
         - -5.7455297395489630e-03
         - -1.9413822136910008e-02
         - -4.4535472068558696e-03
         - -3.5502616811387354e-02
         - -1.7332155973768359e-02
         - 1.5302596981301351e-02
         - 2.0153417036067184e-03
         - -6.6220035801461533e-02
         - 1.3264394643061794e-02
         - 2.7473122445576727e-02
         - -1.9703200710107647e-02
         - 1.3299693694951353e-02
         - 1.1586434652000465e-02
         - -9.1111904172763692e-04
         - -7.7838915578064410e-03
         - -3.9902303333451735e-03
         - -2.8677101319285074e-02
         - -3.1636703452322716e-02
         - 6.2348614153564571e-03
         - 7.6658271068709921e-03
         - -2.7034352634903145e-02
         - -1.8198987331468400e-03
         - -7.5854465919013656e-03
         - 6.5941305804645464e-03
         - 2.4139831848663498e-02
         - 1.2798452510485270e-02
         - 1.8062720973317607e-03
         - -1.6247964772545631e-03
         - -5.4390713172435138e-03
         - 2.4099503539416110e-02
         - 3.6972323693580812e-02
         - 1.6163768397237852e-02
         - 1.0519760560733641e-02
         - 2.9239811517802342e-03
         - -4.3365448322278243e-03
         - -4.1649814018637028e-03
         - 1.2173793066578403e-02
         - 1.5995755906762388e-02
         - -1.0899920496049997e-02
         - 2.2685155642094082e-06
         - 2.1918077296385119e-02
         - 1.8182886546489530e-02
         - 2.6997802336307392e-01
         - 4.2112657109731498e-03
         - 6.8086148700937498e-03
         - 2.1141647402882414e-02
         - -1.3200376531369875e-02
         - -4.8170003748706773e-02
         - 4.0048991127474266e-02
         - 5.3705663401627544e-02
         - 3.7867757960800504e-02
         - -4.7375520388621560e-04
         - -2.5234682588097964e-02
         - 2.9098821584815780e-02
         - -2.0344868860137488e-02
         - -6.7731251975624920e-03
         - 7.7435669051824207e-03
         - -8.4399138686987799e-03
         - 5.0134703996411102e-02
         - -2.4625215696335339e-02
         - -9.7577030605828091e-03
         - -2.2077549845598541e-02
         - 1.4462927904662550e-02
         - 1.8860232751162141e-02
         - -9.9899128858830285e-03
         - -5.6744586421114216e-03
         - 1.3969646432660136e-02
         - -1.5180877055737622e-02
         - -2.0245513833637315e-02
         - -9.5396967822493316e-03
         - -1.6317711045852942e-02
         - -2.9249318772854537e-02
         - -3.5277803110298194e-03
         - -5.9300340690396063e-03
         - -2.6336759505825313e-03
         - -2.7964640026583880e-02
         - -7.4770724558892044e-03
         - 2.1864681182396626e-02
         - -4.8824177285362792e-02
         - -1.2113751578141017e-02
         - 1.8608976049942876e-03
         - 8.5524843213438987e-04
         - -1.1023203294098673e-02
         - 4.9425663794124353e-03
         - 3.8983151442941520e-03
         - 5.8346453623443883e-03
         - -3.8440276801927297e-03
         - -1.3574126418501671e-02
         - 2.7365244258555918e-03
         - -7.6404691388378226e-05
         - 8.1121885884584844e-04
         - -4.6661981638758936e-03
         - 1.7225655302262619e-03
         - -2.9276744371629073e-03
         - 3.3555893818694063e-03
         - -9.0964322034850574e-04
         - -1.0400315018505107e-02
         - -5.4925976467462331e-03
         - -5.5352536929712745e-03
         - -1.1149732744082649e-02
         - 3.2068253982331244e-03
         - 6.8452385713195967e-03
         - -9.0286274290908325e-04
         - 8.8984778552284021e-03
         - -6.6273919735514077e-03
         - -1.4145804520733550e-03
         - 4.9530077806940959e-03
         - 6.9708574709735659e-04
         - -3.9639974115839279e-03
         - 2.5301259103911026e-03
         - 6.3647975928760763e-04
         - 9.7881973678744585e-02
         - 5.6654586755382095e-03
         - 5.0315857777782887e-03
         - -3.9621962871372763e-04
         - -5.1834286979974250e-03
         - 5.6004002902873403e-03
         - -4.9647055484815647e-03
         - 4.0306965142154726e-03
         - -4.4853399994315490e-04
         - 2.6708741629216082e-03
         - -1.3243186682965482e-02
         - 8.4314323204996659e-03
         - -4.8188471761212966e-03
         - 1.1659935558338099e-02
         - -9.1332611967921348e-03
         - 5.6810143726837197e-03
         - -2.8804523154429165e-03
         - 4.8671036804567928e-04
         - 9.2483172441786660e-04
         - -1.0579283323169554e-02
         - 1.7715784567849354e-03
         - -5.2707293578625330e-03
         - -3.2929725525495585e-03
         - -1.4470555965677861e-03
         - -7.4421232145511686e-03
         - 1.9976073093188083e-02
         - -7.2724136085960062e-03
         - -3.4471340292348720e-03
         - 2.2047851785075745e-03
         - -2.2880673611229401e-03
         - 4.1199715452507136e-03
         - -3.3842292626002917e-03
         - 1.5764530653282403e-02
         - 6.5252890341067618e-03
         - -5.0095645697898006e-03
         - 2.5807432201355521e-03
         - -3.5469837850410124e-04
         - -8.3860681206193916e-04
         - -4.5584113431952553e-03
         - -1.0799005817006175e-02
         - -2.2387504620172633e-03
         - 7.7488839473553034e-03
         - -5.5454138517712290e-03
         - -1.5736286239475580e-03
         - 1.1323356755049875e-02
         - 2.7415551351739230e-03
         - -7.1919443936680769e-03
         - 2.5512285978028055e-03
         - -4.9019384895016066e-03
         - -4.4315821601327169e-03
         - -2.9648820625931349e-03
         - -1.0908444936229793e-02
         - -4.6378130290402253e-03
         - 8.5368855042082428e-04
         - 2.6316336691962132e-03
         - 1.4638035859277854e-04
         - 1.1499719598148427e-02
         - 3.9470668219185413e-02
         - -2.3964179100129123e-03
         - -9.1675117347920013e-03
         - -2.8660600001840920e-03
         - 1.1003553030426600e-02
         - -8.5937440214448758e-03
         - 2.9193013092985904e-02
         - -8.2252335164984119e-03
         - -9.2459017711604505e-03
         - -3.6366617561857748e-03
         - -1.5836947609787475e-02
         - -4.4307844991225351e-03
         - -5.8277966885359736e-03
         - 4.9209941011134975e-03
         - 2.6719456489602084e-01
         - 4.8649557524953668e-04
         - 1.0100871506897858e-02
         - -2.4315913198170946e-03
         - -2.9308587791982200e-03
         - 8.1401560749880635e-03
         - -1.1123246306696060e-03
         - -4.8924685461270391e-03
         - -3.3507812929557805e-03
         - -9.7490017064653777e-03
         - -1.7745022686381208e-02
         - -9.6443684066283128e-04
         - 8.9204457261257107e-03
         - -1.1523279337466743e-02
         - -7.6544973143676514e-03
         - 1.4295963379113944e-03
         - 2.0749939732254957e-03
         - 1.3986573821562046e-02
         - 6.7497742034107458e-03
         - 5.2948637469784838e-03
         - -4.8540113781695322e-03
         - -6.0413918906599183e-03
         - 3.5877984527021827e-03
         - 1.2248370902345323e-02
         - -1.0288550982192495e-03
         - -6.0551386701381254e-03
         - -1.8142074027955900e-03
         - 9.1109973045900119e-04
         - -7.0487178735437663e-03
         - 1.2638291544547989e-02
         - 5.3154084745000454e-04
         - 1.5927502594760840e-03
         - -3.7782301197458530e-03
         - 1.0642564420931500e-03
         - 8.1914106795691836e-03
         - 4.8221356046772912e-01
         - 6.3811616858756260e-03
         - 3.3563352779482866e-03
         - 1.2305734342438217e-02
         - -7.5889776528116652e-03
         - -2.0583375074971860e-02
         - 6.5351774870904909e-03
         - 2.6108549317560320e-02
         - 9.2178251740671971e-03
         - -1.8374698785042476e-03
         - 2.5043816450213631e-03
         - 1.2738864026495019e-02
         - -5.3620202885811914e-03
         - -4.2812705523024280e-03
         - 1.9998082556797344e-03
         - -3.6102479873441010e-03
         - 2.3219535767834049e-02
         - -1.5397487496799148e-03
         - 2.9888391081949844e-04
         - -1.3787713882776977e-02
         - 8.1428560837894896e-03
         - 9.3494157334792563e-03
         - -5.1351905916396769e-03
         - -2.8391230010111511e-03
         - 3.7108991971818669e-03
         - -1.5143541245482392e-03
         - -1.6594996867751049e-02
         - -4.1268882733354701e-03
         - -2.8514322400652840e-04
         - -1.5275004147208155e-02
         - -6.6736916080656116e-03
         - -8.9876944238984971e-03
         - -3.9758935658677479e-03
         - -1.3810110089616995e-02
         - 6.0738191376066902e-03
         - 1.4749706268676730e-02
         - -1.6243840170216677e-02
         - -4.1424371754328580e-03
         - 2.2524653915858934e-03
         - -1.6739553507755813e-03
         - 3.4183434578761540e-03
         - -2.9073078761438164e-03
         - -5.2917573354245497e-04
         - -7.1931606287622407e-03
         - 6.5519786020297368e-04
         - -1.1626996827198391e-01
         - -5.4177318583196665e-03
         - -2.3257624614658377e-02
         - -1.4704004975142512e-02
         - -2.7134183542531585e-02
         - -1.9911990590539538e-02
         - -3.7015044825816273e-02
         - -8.4443094254411134e-03
         - 3.5928904773539429e-03
         - -4.4380611249146419e-02
         - -1.8051993752932403e-02
         - -1.8715547007626693e-02
         - -9.6972795509870490e-03
         - 3.0916565219553001e-02
         - 6.2978865372165391e-02
         - -8.1108743964280888e-03
         - 2.3513847409394002e-02
         - 6.7934238200965677e-03
         - 1.4689213248088801e-02
         - 2.7641651090091241e-03
         - -8.2564702435069595e-03
         - 6.2624029676247748e-03
         - 2.1786787971269598e-02
         - 3.0654234767702503e-03
         - 2.1167946034776114e-01
         - 3.7549755328646350e-02
         - 5.6173084551040156e-02
         - -2.9506261820974971e-02
         - -3.8123940933367115e-02
         - 1.3929494054713330e-02
         - -1.4373347973394512e-02
         - 4.6707016417930139e-02
         - 1.9079123646673087e-02
         - 1.9151510496902269e-02
         - -6.4869445810927365e-02
         - 5.8079686318371362e-02
         - 1.2891807542982237e-03
         - 5.6728730690508357e-02
         - -3.1171059916839664e-02
         - 6.7724758796966454e-03
         - -8.0638944420733643e-03
         - -3.2464510827517050e-02
         - -6.1713705607096582e-03
         - -3.8528684825758087e-02
         - 3.6073681399542805e-02
         - -6.0213012702183426e-02
         - 1.3511181593199624e-02
         - 2.6459535770281886e-03
         - -2.5064426008760361e-02
         - 8.0841680272796757e-02
         - -2.0334428532017473e-02
         - 1.2422112923858409e-02
         - -3.2372946584984727e-02
         - 3.8136948444745314e-02
         - 1.0401888852837753e-02
         - -4.4973302229116760e-02
         - 8.8079924791843803e-02
         - 9.2702178981359847e-03
         - 1.6737807780781534e-02
         - -5.4165025438365115e-03
         - -2.4584038417144696e-02
         - -1.8823183887143352e-02
         - 7.5571935050363203e-03
         - -3.7370213576288176e-02
         - -3.7065272812993886e-03
         - 2.0647147105284078e-02
         - -3.6668388695240278e-03
         - -1.7534524141253210e-02
         - 6.2466478687886219e-02
         - 6.8729925550423204e-02
         - -9.3456053421437812e-02
         - 3.5911090766420802e-02
         - -2.2544297244309598e-02
         - -7.3280060492313479e-03
         - -2.5257227337184803e-03
         - -3.4988151971575850e-02
         - -1.7003193176637999e-02
         - 2.9728801372617610e-02
         - 1.3506632906299587e-02
         - 2.6892192900814280e-02
         - 3.8275425932315386e-02
         - 1.1534903975201170e-01
         - 2.2323811287085011e-02
         - -6.2414132286779236e-02
         - 1.5887154206450371e-02
         - 3.3486275960996396e-02
         - -3.8075369850776183e-02
         - 9.8296040692251035e-02
         - 9.6952116994060630e-03
         - -5.0778723867545048e-02
         - -1.1073589359206928e-02
         - -6.2896401158985413e-02
         - -3.0739821380209878e-02
         - 3.1943996958610339e-02
         - 9.7190082672606350e-03
         - -2.0513136699273914e-02
         - 2.1022605522718795e-02
         - 3.5680224249938011e-02
         - -2.8882941483041488e-02
         - 1.1807262038176346e-02
         - 4.9164505085707751e-03
         - 4.9595966169058928e-03
         - -1.3394645211660304e-02
         - -2.3193298064144471e-03
         - -4.3020737847943788e-02
         - -7.4156636582261043e-02
         - -5.0351990340336931e-03
         - 2.6016709153573032e-02
         - -3.7975698836003192e-02
         - -9.0317808863893782e-03
         - -2.1654900020760297e-02
         - 9.7760800061840996e-03
         - 2.8425897827689107e-02
         - 2.7108087595342251e-02
         - 3.4274896432029802e-03
         - -9.7541971840813188e-03
         - -6.7961377638881895e-03
         - 5.5864154806837804e-02
         - 6.8359873359585557e-02
         - 2.2800513343458638e-02
         - 2.7375598674661380e-02
         - 1.1846306794501587e-02
         - 3.7041488805727215e-03
         - -5.9414953611886770e-04
         - 3.3743404421661051e-02
         - 2.5328992161475297e-02
         - -2.9917887669970417e-02
         - 1.5734625780508445e-02
         - 3.9652657552748001e-02
         - 2.6453084781620572e-02
         - 5.3646752526773767e-01
         - -4.1102091884724079e-03
         - 9.5616788819144396e-03
         - 2.2932010966070913e-02
         - -3.6541977423282808e-02
         - -8.1092452743448964e-02
         - 6.9770789640101027e-02
         - 9.5475998749343177e-02
         - 7.2857346250672875e-02
         - 4.5002830318349217e-03
         - -3.6081023759170175e-02
         - 4.9217514249354589e-02
         - -5.6143342631777400e-02
         - -1.1375610441706525e-02
         - 1.5455602721079750e-02
         - 2.5067010530008889e-03
         - 1.0500015394323657e-01
         - -5.2923593760981318e-02
         - -1.9277347245819622e-02
         - -4.4357215970930938e-02
         - 3.2565195969525923e-02
         - 3.8784679399077815e-02
         - -2.3908329884302647e-02
         - -7.1624263590072887e-03
         - 3.0282328095472585e-02
         - -2.1033822678411602e-02
         - -2.2062015133652392e-02
         - -1.0427790774944641e-02
         - -1.7769625355351860e-02
         - -6.1052429868773572e-02
         - -2.2266846755259785e-02
         - -1.1141511690001703e-02
         - -5.7070674421271289e-03
         - -6.4461680775913743e-02
         - -1.1252477067573067e-02
         - 4.2000996668346384e-02
         - -8.6151408539355406e-02
         - -2.2550203285552160e-02
         - 4.5516858725904748e-04
         - 1.0912701161026642e-02
         - -3.0964863260119439e-02
         - 1.3695252104648741e-02
         - 2.3303490916562037e-03
         - 1.5032993060563101e-03
         - -2.4173664885303543e-02
         - -3.4247297513975573e-02
         - 2.6653586788939906e-03
         - -1.4864680814839897e-02
         - -8.0553849219620541e-03
         - -1.4579884784104699e-02
         - -4.0404241898323659e-03
         - -1.5974349857458724e-02
         - 2.2158063775977108e-04
         - -1.0803586759929892e-03
         - -1.5928335247715458e-02
         - -1.1035754525727356e-02
         - -8.9441906254685948e-03
         - -5.8649500821349515e-03
         - 8.3119154105327636e-03
         - 2.4822536277876343e-02
         - -2.2056278500445789e-03
         - 1.0623494644111275e-02
         - -3.8635946662651409e-04
         - -1.2478503260317363e-03
         - 3.7002163045492574e-03
         - -4.9571413098828060e-03
         - 4.2469694264322495e-03
         - 9.1739610780258926e-03
         - -5.2244858522626427e-04
         - 1.0824611874034393e-01
         - 1.5609605107747079e-02
         - 1.9703261003595138e-02
         - -2.1435015614478586e-03
         - -1.5786134819538597e-02
         - 1.4054303728348531e-02
         - -4.7845528740688278e-03
         - 9.5049631052131316e-03
         - 5.7455718554414795e-03
         - -1.4041265380056477e-03
         - -2.9994693970104618e-02
         - 2.3930038273388212e-02
         - -8.0386358834974771e-03
         - 2.4359438965031469e-02
         - -5.3424551567098624e-03
         - 1.2528071030469412e-02
         - 1.3780268058503521e-04
         - -1.3416400322030333e-02
         - -2.5416520589541629e-03
         - -2.0727772685975792e-02
         - 2.9513842503055255e-03
         - -9.8053374002679810e-03
         - -4.1810205077140094e-03
         - 5.4180879817179381e-03
         - -1.2360601013286033e-02
         - 2.8268651950178084e-02
         - -1.1138158715749427e-02
         - 3.5323468585682044e-03
         - -1.2462900237638743e-02
         - 5.0914068329259380e-03
         - -2.0604424073851070e-03
         - -1.7639524647191106e-02
         - 2.7996342995725714e-02
         - 4.8886633877180310e-03
         - 1.1731224871316191e-02
         - 2.6503635631758469e-03
         - -4.8797181893410072e-03
         - -6.8946611527278987e-03
         - 1.9943585963985502e-03
         - -1.7891553519406703e-02
         - -2.8102695075820066e-03
         - 2.1323021658686686e-03
         - 4.9177991763669970e-03
         - -8.5899816755192621e-03
         - 2.2421945011290332e-02
         - 2.0415334018942227e-02
         - -3.9108187151373590e-02
         - 1.7732437558928109e-02
         - -5.3262721311644534e-03
         - -2.8725989903274985e-03
         - -8.3561879427252242e-04
         - -2.0546477595723894e-02
         - -1.2130836847450784e-02
         - 5.0457179905186436e-03
         - 8.8639126859163409e-03
         - 3.8593384417862520e-03
         - 8.0839188297368251e-03
         - 6.0840336375651533e-02
         - 1.0695185231857479e-02
         - -1.3729613111847257e-02
         - 2.7318026974120905e-03
         - 1.7572126336136806e-02
         - -8.0682056655281362e-03
         - 4.0030377855833285e-02
         - 5.0556645571293315e-04
         - -1.0858076518600046e-02
         - -3.6006482558220746e-03
         - -2.1401106375137702e-02
         - -1.6121865804860355e-02
         - 1.1319774349013304e-02
         - 9.7557633971785511e-03
         - 6.3814941636250108e-02
         - 1.3143872579604050e-02
         - 1.9001746887704157e-02
         - -8.6829985537096067e-03
         - 8.6677212359564191e-03
         - 1.1391961121323995e-02
         - 3.6992025244281758e-03
         - -8.6093818242122377e-03
         - -1.5647578321934391e-03
         - -9.9148933665834781e-03
         - -2.3310417390609010e-02
         - -3.9092175732534330e-03
         - 3.6887548791252837e-03
         - -7.6756188270957178e-03
         - -5.1808952924454520e-03
         - -7.5012976454017950e-03
         - -1.0641306713089292e-03
         - 8.3951251274185668e-03
         - 6.4411337501261842e-03
         - -5.6455623433088655e-03
         - -1.0423680837822712e-02
         - -3.3714541075624267e-03
         - 2.2247393463221157e-02
         - 2.0286402858462203e-02
         - 2.2375543049416306e-03
         - 5.2928952358796948e-03
         - 9.4690101749778464e-03
         - -4.8837924698646989e-03
         - -5.8810553336296955e-03
         - 1.5973208848212617e-02
         - 7.9343109870019957e-03
         - -5.9062494744332728e-03
         - -2.7288958961968770e-03
         - 1.1837536431134747e-02
         - 5.1736579248598206e-03
         - 4.5794784184023513e-01
         - 6.4377526704137052e-03
         - -2.2588397027051093e-03
         - 9.3920205275643681e-03
         - -1.4418947594626254e-02
         - -3.3589952924574701e-02
         - 2.4748827790510391e-02
         - 3.6233866012577928e-02
         - 1.9601849205245714e-02
         - -5.7255684025050053e-03
         - -1.1525641861172822e-02
         - 1.4486282678273846e-02
         - -2.3588904243691023e-02
         - -4.0127119771646222e-03
         - -2.5757424805635779e-03
         - -3.7201673531095055e-03
         - 4.5024378985477814e-02
         - -1.2263146401599737e-02
         - 7.8793996683033864e-04
         - -1.9824679615144728e-02
         - 8.7769948800980047e-03
         - 1.3038694756292924e-02
         - -1.2510175068163458e-02
         - 2.0669530138629662e-03
         - 1.0075275800355556e-02
         - -8.6686679626764417e-03
         - -1.8648195240573581e-02
         - -4.2336267580690579e-03
         - -1.3162722966195996e-03
         - -2.2742890555371150e-02
         - -1.1993725949255647e-02
         - -1.0955084418603607e-02
         - -5.6704932880035080e-05
         - -2.8920112576401535e-02
         - -4.3386836513304985e-03
         - 1.7598937461121473e-02
         - -2.3736795112331337e-02
         - 1.9947281932831741e-03
         - -3.1545479279445820e-03
         - 3.6720501279388943e-03
         - -8.8277743524799298e-04
         - 6.9954523483331532e-03
         - 1.1309071942104671e-02
         - -3.6264709663074422e-03
         - -8.5027860596050917e-03
         - -3.7557371127919660e-02
         - 2.4258768613227791e-03
         - -1.3566463180439378e-02
         - 6.3518977137302585e-03
         - -6.5484321303758870e-03
         - -1.9773678437725976e-03
         - -1.9551000895580320e-03
         - -1.5372995859197215e-04
         - 1.1101388539097234e-02
         - -1.1019130794837845e-02
         - -1.0126944878748869e-02
         - -1.4392122946438640e-03
         - -1.1208042293335616e-02
         - 7.3788757251451948e-03
         - 1.7340975729781476e-02
         - 5.2309094829718211e-03
         - 3.8140422590053312e-03
         - -3.1731292123538955e-03
         - 2.4768857033434917e-04
         - 6.7680852052777723e-04
         - 3.0676289042491467e-03
         - -1.7099979544509892e-04
         - 3.9706029915432671e-04
         - 6.2990946921238217e-03
         - 1.1030174252522176e-01
         - 6.1676574036600143e-03
         - 1.6519734132399471e-02
         - -3.9603626092127864e-03
         - -1.4589974770628431e-02
         - 1.9198166287812627e-02
         - -9.2158694009650422e-03
         - 1.6259574550254806e-02
         - 6.7231690481660989e-03
         - 1.9199563359004442e-04
         - -2.8496899481946478e-02
         - 2.4224434421595494e-02
         - -1.8470974046509629e-03
         - 1.4544427099623893e-02
         - -8.9920235836158571e-03
         - 1.9228270614595432e-02
         - -4.5353157571521594e-03
         - -4.2006366976088576e-03
         - 1.0312722593743148e-02
         - -1.4643778533710626e-02
         - 7.6289648921296915e-03
         - -1.3203746793507692e-02
         - 4.7867969917354909e-03
         - -6.4746674482052055e-04
         - -6.9129740939673960e-03
         - 2.3882903132574622e-02
         - -1.5626316977182742e-02
         - 2.9280112921201422e-03
         - -1.0727853574734433e-02
         - 5.5876303857580493e-03
         - -4.1009074355775488e-03
         - -1.9559277896636147e-02
         - 2.7495761821133398e-02
         - 1.4943777464352336e-02
         - 3.5718356880370455e-03
         - -2.9955439728035966e-03
         - -3.2260113593387506e-03
         - -1.2808907222491405e-03
         - 3.6806900302113871e-03
         - -8.9777871090767226e-03
         - -2.2205941974356102e-03
         - 3.9397713796240569e-03
         - 7.0689534515536350e-03
         - 8.3046478908041239e-04
         - 2.2547198572808794e-02
         - 1.9434184715943003e-02
         - -2.8716321964817718e-02
         - 1.0489753638202223e-02
         - 7.6248411133867716e-03
         - -7.3734996305227880e-03
         - 9.8245491129132015e-03
         - -1.7620855456567299e-02
         - -9.9471763878931467e-03
         - 1.2607049676905901e-03
         - 1.3394565941951897e-02
         - 1.9014989764198475e-03
         - 1.2462886267046372e-02
         - 5.8937783348137353e-02
         - 3.7158927895321048e-03
         - -2.2207839067475775e-02
         - -1.2305426204565072e-03
         - 5.8494410796726629e-03
         - -1.1209018584236922e-02
         - 4.1964218077324929e-02
         - -5.7983177148620791e-03
         - -1.1417565950364812e-02
         - 3.9976699981206136e-03
         - -2.2813986470537062e-02
         - -1.4303329641497720e-02
         - 3.8801799503444456e-03
         - -8.5681579640657873e-04
         - 1.2676452656962919e-02
         - 8.2746426593982500e-03
         - 6.4087633733457793e-03
         - -9.6918547504375487e-03
         - 3.9383070273699633e-03
         - 1.8017686054683603e-02
         - 2.5615530779796399e-03
         - -1.3293830233127317e-02
         - -7.9789329987427320e-03
         - -4.2277245950565695e-03
         - -2.4501805424027572e-02
         - 7.9589635632943616e-04
         - 9.6627125019929021e-04
         - -1.0433157992493456e-02
         - -7.7302131588888809e-03
         - 3.8359723145736822e-03
         - 4.8564616276735025e-05
         - 1.3080603394734243e-02
         - 4.9762195754893173e-03
         - 2.4501377712946798e-03
         - -6.1754240968997353e-03
         - -4.0143634028498359e-03
         - 1.4226520318745892e-02
         - 1.3471834818593523e-02
         - 9.7447551055818774e-03
         - -3.1609883058436490e-03
         - 3.1359820428888850e-03
         - -5.7089684436248209e-03
         - -7.2591970911136360e-03
         - 1.3581630234010501e-02
         - 1.0978423599019304e-02
         - -2.2177670485489793e-03
         - -1.0785663015986312e-02
         - 1.0816921968786546e-02
         - 6.1362475904507057e-03
         - 3.5464481559128835e-01
         - 4.4492209404144740e-03
         - -8.0549855245125018e-03
         - 1.6605301190992114e-02
         - -1.5160538089498682e-02
         - -3.3902861680097290e-02
         - 2.4052138387986387e-02
         - 3.5930257770180399e-02
         - 2.5265764400468124e-02
         - -7.1151580204155355e-03
         - -1.3554666685224636e-02
         - 2.2123712015019739e-02
         - -2.1299826432476184e-02
         - -7.8510002467848203e-03
         - -1.4977529583285749e-03
         - -9.0000728415302010e-04
         - 3.9319630274048979e-02
         - -1.3138791793881719e-02
         - -2.4401196908988153e-03
         - -1.5481605183224167e-02
         - 3.9563389193927488e-03
         - 8.0221567050227007e-03
         - -7.1988855424881997e-03
         - -9.7916552202302696e-03
         - 1.6570228729215982e-02
         - -1.7708220896102277e-03
         - -2.6634125806788804e-02
         - -8.2338000791371563e-03
         - -1.6965039916097137e-02
         - -2.5952202362904336e-02
         - -8.7401530529077429e-03
         - -7.6842080555506089e-03
         - -7.2303206376859372e-03
         - -1.9096471391252930e-02
         - 9.0965208364807357e-03
         - 1.1370251378988732e-02
         - -3.4131703094314292e-02
         - 5.3120508240033027e-03
         - 8.3189762180009251e-03
         - -6.1101818918256222e-03
         - -4.1796805195639802e-03
         - 6.0706140962106265e-04
         - 7.1749656220431706e-03
         - -7.9499982259175032e-03
         - 1.0132803831825572e-03
         - -2.8301173360940516e-02
         - 4.5545539159464986e-03
         - -1.4905261081471976e-02
         - 3.8405421804988901e-04
         - 2.3802252251202454e-04
         - -5.0052453507609641e-04
         - -7.3957393001958303e-04
         - 1.1211985938031049e-02
         - 1.1993631671216804e-02
         - -7.4802959256178511e-03
         - -1.2989488333894138e-02
         - -4.0491594205439357e-03
         - -3.9521198316845247e-03
         - -7.1677635196844996e-04
         - 1.7680948084728750e-02
         - 1.0062578558134307e-02
         - 1.0983287977672486e-02
         - -1.7547680921193768e-04
         - 6.5120704294473310e-03
         - -3.1924125613803046e-03
         - -5.1187178482480699e-03
         - -1.9615731907782607e-03
         - 8.2742884735636981e-03
         - 1.5370178281738482e-03
         - 1.1189772156075489e-01
         - 5.9777980108384693e-03
         - 1.8528057528407849e-02
         - -7.6340149407357755e-03
         - -5.3446001818340787e-03
         - 2.5077804459804110e-02
         - -1.1851225697281347e-02
         - 1.0154572667717949e-02
         - -1.3908009733755246e-02
         - -4.9913698698961931e-03
         - -2.2246359755468629e-02
         - 8.9747731262623826e-03
         - -2.2007890684778192e-03
         - 9.4362400478262953e-03
         - -6.8011845872736048e-03
         - 1.5995515615203005e-02
         - -8.2487445187625647e-03
         - 1.1075514623168851e-03
         - 1.0090053951588501e-02
         - -6.0932639954995671e-03
         - 1.0716884672318033e-03
         - -6.7723978276710006e-03
         - 1.4526480363459657e-03
         - -6.0146100241797737e-03
         - -1.3477803087817482e-03
         - 1.9828260843823140e-02
         - -1.3380936322164373e-02
         - -1.3167163056184909e-03
         - -1.1188031271237123e-06
         - -4.7080216817621482e-03
         - -4.7434564818464118e-03
         - -4.9042813328265275e-03
         - 2.2863525385813602e-02
         - 9.6854720461738378e-03
         - -3.3886556362816246e-03
         - 9.9922629293396829e-04
         - 2.2763212035390979e-03
         - -1.4562362342341590e-02
         - -4.4524924064480755e-03
         - -3.0351203562076104e-03
         - 4.5569023000526830e-03
         - 1.0998316814085616e-02
         - 2.0440328537038536e-03
         - -1.0921803486984034e-03
         - 1.3187063912588320e-02
         - 4.3723838573306731e-03
         - -2.7868902723207380e-02
         - 1.0968350757534334e-02
         - 1.2448614363476416e-02
         - -1.2881303028673616e-02
         - 1.7170919630626946e-02
         - -1.7604023699788439e-02
         - -1.0611359612591647e-02
         - 1.1486439702805004e-03
         - 9.6912086034221627e-03
         - 3.6979818441813714e-03
         - 5.7488435744042594e-03
         - 4.0434622170228918e-02
         - 2.0816917686637807e-03
         - -7.4598297737156578e-03
         - -6.9594525964720598e-03
         - 3.6289772314993130e-03
         - -1.2858392528208158e-02
         - 2.8315256855081985e-02
         - 4.6312349956364384e-03
         - 5.4947400046960748e-03
         - 6.2291304152794214e-03
         - -1.9747486332349618e-02
         - -1.0380597242943636e-02
         - 8.3408378835071663e-04
         - 4.1748813085014701e-03
         - -1.0732761781481147e-01
         - 1.0761456977932638e-03
         - 2.1682327396837895e-03
         - -7.6328545542046584e-03
         - -3.4996176729130182e-04
         - 9.0611364739513929e-03
         - -2.7912984156230215e-03
         - -1.5746551547153837e-02
         - 1.4713697755848272e-03
         - -8.1827151893161948e-03
         - -1.9338269993379020e-02
         - -5.7720209289031758e-04
         - 1.7408455279713684e-03
         - -5.5750057854876802e-03
         - -1.4277867306337523e-02
         - 1.8048572065314406e-03
         - 4.1451043588459982e-03
         - 6.9912909338287824e-03
         - 3.9248767596998376e-03
         - -4.5563769032274919e-03
         - -1.9103895144366814e-04
         - 1.8922225188965753e-03
         - 1.0384357062282556e-02
         - 9.1947807111328501e-03
         - 5.6361535213992715e-03
         - -8.6759434874705572e-03
         - -8.1238672670648111e-03
         - -2.9347109275902625e-03
         - -1.1497867180796666e-02
         - 7.1507534116787225e-03
         - 4.0380279633071177e-03
         - 1.3129108785091714e-02
         - -9.4040204361903208e-03
         - -3.8623883759261379e-03
         - -8.7166604142501641e-04
         - 2.8237624488577323e-01
         - 1.4456337235814557e-02
         - -8.6349546336525352e-03
         - 1.4881474420001395e-02
         - -1.3499076605273153e-02
         - -2.5694722997263195e-02
         - 7.8549925973755846e-03
         - 3.2194362881458091e-02
         - 2.0988685774587627e-02
         - -1.1669362250880933e-03
         - -9.7217549099454636e-03
         - 9.7239669785410821e-03
         - -2.0602806303486255e-02
         - -5.5180247991336393e-03
         - 5.9276013952858312e-03
         - 6.1327830779115821e-04
         - 3.3512551807298931e-02
         - -1.1669885309949434e-02
         - 6.5751474329580053e-03
         - -2.4258364141730535e-02
         - 1.2778157199844794e-02
         - 7.0584406016991740e-03
         - -5.3438112154966530e-03
         - -1.0513278072874794e-02
         - 1.2753662912730727e-02
         - 7.3537600543535182e-03
         - -1.7214219945312418e-02
         - -6.7659911156045457e-03
         - -4.5148570541513324e-03
         - -2.2111760816069061e-02
         - -1.0554486106489281e-02
         - -5.9227191537135088e-03
         - -5.2109397819999565e-03
         - -1.7228587345720404e-02
         - 1.8255946668207117e-02
         - 1.8749363822456785e-02
         - -1.7283836282036644e-02
         - 9.4156289971210148e-03
         - 8.1642030202002530e-03
         - -7.6478808855657910e-03
         - -5.1839892856732480e-04
         - 1.6314137016857136e-03
         - 4.1848554666275867e-03
         - -1.2259303620043697e-03
         - 5.8386918950210902e-03
         - -3.4388092358460645e-02
         - 9.5160856677639523e-03
         - 8.0842213651084437e-05
         - 1.3735546781829774e-03
         - 6.6514821410542050e-03
         - 2.4716424925335530e-03
         - 8.5889910774652779e-03
         - 4.2008514820110459e-03
         - 7.2448689739194432e-03
         - 3.1862998409954977e-03
         - -2.8770319277969308e-03
         - -8.9581726431882669e-03
         - -8.1166560705612598e-03
         - -3.1939970657382587e-03
         - 9.3279632744669421e-03
         - 3.0885130898492788e-03
         - -2.8310727256753278e-04
         - -7.1965310516736167e-03
         - -1.2345183718069763e-03
         - -1.9226764792291766e-03
         - -6.3080283396098873e-03
         - 2.3441832990520983e-03
         - 8.9989069572312137e-03
         - 2.6597673743284562e-03
         - 9.1678556749964960e-02
         - -2.9464831070690795e-03
         - 1.2891943672363853e-02
         - 1.0974947076253113e-03
         - -3.4936773928091100e-03
         - 7.7203563657282353e-03
         - -6.5409872454565187e-03
         - -8.5673638927144281e-03
         - -2.3703173484443270e-03
         - -7.2488268164503829e-03
         - -9.1298357382021168e-03
         - 5.6344080779928331e-03
         - -3.0226947429204316e-03
         - 2.8203573159528345e-03
         - 4.1853137874196274e-04
         - 6.7191325736890685e-03
         - -7.0994016350092292e-03
         - -1.0606747149038214e-03
         - 1.0527826427853034e-03
         - -2.8884212264446390e-03
         - -5.7973310532690118e-03
         - -2.4485644756790251e-03
         - -8.4639713774669299e-03
         - -4.3661307659624031e-03
         - 6.7013856991821269e-03
         - 1.2757486416060022e-02
         - -3.3057362601853530e-03
         - -2.6896335971859056e-03
         - -2.8661873741906443e-03
         - 6.4951950255639026e-04
         - -8.0471193132354362e-04
         - -6.7107117557721170e-03
         - 1.7292213037502342e-02
         - 2.5706453119100697e-03
         - 1.0432364662756840e-03
         - 6.8212312325140428e-04
         - 4.0385646572072293e-03
         - -5.2373573363796496e-03
         - -2.9598378908594312e-03
         - -4.0790212728643895e-03
         - 4.3968733021071769e-03
         - 6.8522945875379854e-03
         - -6.1745570785933807e-03
         - 2.5453095566101264e-03
         - 1.3065533780551716e-02
         - 4.5614919317183457e-03
         - -1.3277483544235504e-02
         - 7.7408022885650605e-03
         - 3.4018736176705331e-04
         - -8.6808839406218707e-03
         - 1.2557318659649161e-02
         - -6.5851541612076741e-03
         - -3.4354686415433272e-05
         - -9.9713832139260096e-04
         - 6.4265979954659580e-03
         - 1.9817178255078331e-04
         - -3.6889641674606238e-03
         - 4.8619536259741504e-02
         - -1.8451194083731015e-03
         - -1.1235351526519435e-02
         - -6.8149413702421934e-03
         - 7.5822216782322196e-03
         - -3.5940840950138735e-03
         - 2.1733995194123161e-02
         - -4.1961714387829521e-03
         - 8.9911259033901327e-03
         - 2.8801095432208807e-03
         - -7.0015658856598002e-03
         - 2.3774065678795206e-03
         - -4.9793638555617886e-03
         - 1.0698628314984729e-03
         - -2.0070638227582779e-01
         - 2.1212804887388056e-03
         - 6.1866830731786067e-04
         - 1.8200036394628574e-03
         - 1.3734027081275810e-03
         - 2.3266811365514769e-03
         - -5.3274430784001556e-03
         - -9.5854968760836975e-03
         - 3.7498671212888527e-03
         - 2.5380009430019767e-03
         - -1.3494115050322933e-02
         - 1.6227140663738679e-03
         - -3.5705150401964358e-03
         - -6.5568440650846478e-03
         - -6.0742118234400127e-03
         - 6.6409289643835686e-03
         - -5.1768902290356890e-04
         - 7.7064817485666430e-03
         - 3.8163749568327411e-03
         - -7.7722496779837587e-03
         - -2.6595912890547133e-04
         - 2.5275355609906329e-03
         - -3.5572568462865564e-03
         - 2.9646396100223692e-03
         - -3.9945742750257781e-03
         - -2.8077339028848816e-03
         - -6.7954984094057442e-03
         - -7.9324463173404258e-03
         - -3.6598588825668080e-03
         - 9.4634410576282871e-03
         - 1.9013115940417762e-03
         - 1.0361327358711273e-02
         - -1.3645157350069851e-02
         - -1.5486312584332253e-03
         - 2.5499830271751307e-03
         - 9.8172991232481785e-02
         - 2.3216772575685072e-03
         - 5.9165703569730545e-04
         - 8.6530867086164892e-03
         - -2.5410699661130888e-03
         - -1.6040043666817709e-02
         - 2.7751575414468022e-03
